#ifndef POLICY_H
#define POLICY_H

#include <math.h>

#define NUM_LAYERS 3
#define INPUT_SIZE 21
#define OUTPUT_SIZE 4

static const int layer_sizes[] = {21, 64, 64, 4};

static const float weights_0[] = {
    -0.09954079f, 0.12140882f, -0.06930216f, -0.18554462f, 0.44444463f, -0.07042900f, -0.99737817f, 0.18793447f, 
    0.07986192f, -0.08031859f, 0.03901036f, -0.03579320f, -0.07952146f, -0.24374214f, -0.09705739f, -0.09673189f, 
    0.02280713f, -0.06178816f, 0.01747669f, 0.03179942f, 0.02929632f, 0.48971441f, 0.50818485f, 0.45908469f, 
    0.03345788f, -0.29994100f, 0.52525294f, 0.76937407f, -0.11595958f, 0.27678463f, -0.40188497f, 0.04654284f, 
    -0.08489607f, -0.42811787f, -0.48450392f, -0.26091829f, 0.06234474f, 0.48836073f, 0.06804133f, 0.29030967f, 
    -0.18257841f, -0.43924654f, -0.77310687f, -1.56928873f, -1.62430334f, -0.18004531f, -0.12558489f, -0.20395228f, 
    -0.15484501f, -0.05533539f, -0.57216334f, 0.55244410f, 0.65270060f, -0.02867167f, 0.47820368f, 0.58323848f, 
    0.09881355f, -0.31607682f, -0.88814139f, -0.54466343f, 0.10231295f, 0.28215241f, 0.13525791f, -0.01295274f, 
    0.09691932f, -0.14507726f, 0.01538475f, -0.08926205f, 0.19642428f, 0.92384100f, -0.15046777f, -0.22019424f, 
    0.15883522f, 0.19787247f, 0.21054213f, 0.13149519f, 0.18366128f, -0.21040659f, 0.01465166f, 0.31082219f, 
    0.08822074f, 0.18800449f, -0.10919151f, -0.72561234f, 0.85531092f, -0.81972140f, 0.27118519f, -0.27049401f, 
    2.43091416f, -0.86914790f, -1.74913740f, 0.05830005f, 0.62093991f, 1.17116809f, -0.38482913f, -0.24323866f, 
    0.84885007f, -0.41903171f, -0.06855020f, -0.17265649f, 0.80519217f, 0.29576230f, -0.16062610f, 0.32024926f, 
    0.44816500f, -0.32998863f, -0.00517740f, -0.21769515f, 0.05959138f, -0.65442514f, -0.51849949f, 1.06171846f, 
    -0.06895108f, -0.54928678f, 0.63973850f, 0.67022783f, 0.00793735f, 0.43897235f, 0.77912921f, -0.01049423f, 
    0.21578063f, 0.15599945f, -0.05181557f, -0.06786605f, 0.08218779f, -0.75245333f, -0.31752539f, -0.89812970f, 
    0.07965740f, -0.01335152f, -0.88301355f, 1.03371894f, 0.19779712f, 0.15380985f, 0.52880245f, -1.00849414f, 
    -0.24408031f, 0.15446088f, -0.94291872f, -0.23383100f, 0.03341887f, 0.75805354f, -0.00793838f, -0.02334840f, 
    0.01772620f, -0.75550789f, 0.20733930f, -0.16237186f, -0.15560666f, 0.17667083f, -0.20469548f, -0.07996765f, 
    -0.06984093f, 0.53905368f, 0.08715509f, -0.77989870f, -0.09503413f, 0.33574194f, -0.08890744f, -0.06289752f, 
    0.52741301f, -0.00006988f, -0.48095912f, -0.36205947f, 0.04172385f, -0.10376013f, 0.41290167f, -0.10759653f, 
    -0.04155996f, -0.11797190f, -0.09703231f, -0.03997933f, 0.68531168f, 0.38743967f, -0.12005270f, 0.16692911f, 
    0.28357777f, -0.36900762f, 0.09072999f, -0.15731068f, -0.28499362f, -0.35444203f, 0.13680223f, -0.13028650f, 
    0.38081735f, -0.14175618f, -0.08962283f, 0.46849686f, 0.29570237f, -0.17478664f, 1.63654554f, 0.04620362f, 
    -0.18824458f, -0.00192490f, -0.08469788f, -0.11240321f, -0.16059878f, 0.94178450f, -0.20571622f, -0.69825774f, 
    -0.02468986f, 0.07153295f, -1.03217626f, -0.11593659f, -0.03256954f, 1.12037170f, -0.00335649f, 0.67543870f, 
    0.00460968f, -0.18932039f, 0.11589059f, -0.02083075f, 0.07408636f, -0.14304535f, -0.10200100f, -0.00366018f, 
    -0.72629666f, -0.15693790f, 0.09473610f, -0.22019891f, 0.06072958f, 0.23790799f, 0.11032806f, 0.08765377f, 
    -0.21114732f, 0.11967308f, -0.17618345f, 0.08064567f, -0.00964213f, -0.18979155f, 0.22349626f, -0.57936937f, 
    0.36600837f, -0.13620031f, 0.02270110f, -1.24934077f, 0.94052935f, 0.21996374f, -0.18720797f, 0.13259774f, 
    -0.74392486f, 0.37404758f, -0.13714518f, -0.84230447f, 0.04391880f, -0.14414158f, 0.30193982f, 0.10596164f, 
    0.53802705f, -0.61887968f, -0.53292537f, 0.10442021f, 0.35301679f, -0.67792565f, -0.33477297f, -0.05170339f, 
    -0.29610139f, 0.34200704f, 0.35622162f, -0.11642448f, -0.91487968f, -0.16610470f, 0.68288028f, 0.17141244f, 
    -0.16435030f, 0.71629006f, -0.06490585f, -0.07679258f, 0.02320546f, 0.25465980f, -0.42896190f, 0.06566329f, 
    -1.11153269f, -0.08466465f, -0.21272345f, -0.05314775f, 0.12991484f, -0.75911313f, 0.12364974f, 1.35197711f, 
    -0.14735414f, -0.63210243f, -0.43953645f, 0.44993842f, -0.10748303f, 0.03257318f, 0.41210571f, 0.20729811f, 
    0.05401340f, -0.28149319f, 0.05178406f, -0.22440965f, 0.30806446f, -0.12907669f, 0.03634165f, -1.71269810f, 
    0.34891835f, -0.10894065f, 0.55716181f, -0.15415993f, -0.29105380f, 0.12921017f, -1.03473103f, 0.03868987f, 
    0.84165817f, -0.06462456f, 0.11712639f, 1.01433265f, -0.01102213f, -0.07175336f, -1.08791065f, 0.01436306f, 
    -0.61333346f, 0.16046444f, 0.22073427f, -0.36402121f, 0.26963618f, -0.09580071f, 0.03868389f, 0.58855754f, 
    -0.36364782f, -0.65803432f, -0.21805131f, 0.49596402f, 0.62052214f, -0.29387525f, 0.06364521f, 0.41112041f, 
    -0.37690866f, -0.04154515f, -0.63082290f, 0.15222625f, 0.37429464f, 0.38617799f, 0.46442652f, 0.28731930f, 
    1.37012649f, 0.58371562f, 0.60364574f, 0.17351168f, -1.04312229f, 0.16030994f, 1.41375101f, 0.13493648f, 
    -0.14176568f, -0.30351594f, -0.01140357f, 0.11120996f, -0.37364879f, 0.07306260f, -0.06874911f, 1.22015011f, 
    0.18723516f, -0.09746292f, 0.05728029f, 0.79615098f, -0.59842956f, 1.58164549f, -0.08113960f, 0.24576779f, 
    -0.00247807f, -1.88006079f, -0.80363977f, 1.81079865f, 0.19721545f, 0.73928410f, 0.96974945f, -0.69390553f, 
    -0.06606657f, 0.59315044f, -0.67627603f, 0.06868032f, 0.00179425f, 0.47287408f, -0.39514005f, -0.03565995f, 
    0.03289897f, -1.37519598f, 1.37497282f, 0.62879050f, 1.07369339f, -0.07928149f, -0.18336879f, 0.31119570f, 
    1.08748519f, 0.17373571f, 0.43481594f, 0.01139540f, -0.45188761f, 0.06345763f, -0.09169374f, -0.37374818f, 
    -0.08176172f, 0.38707113f, -0.07334503f, 0.63319337f, -0.11418834f, 0.01473559f, -0.49989820f, 0.20951197f, 
    0.50522828f, -0.03396581f, -0.13385278f, 1.78865743f, -0.06131045f, -1.33525836f, 0.26160693f, -0.29217061f, 
    0.21476690f, 0.88159668f, -0.14507362f, 0.11635996f, 0.64317262f, 0.03009696f, 0.03024943f, -0.23198895f, 
    -0.05310340f, -0.04535135f, 0.18299977f, -0.52428514f, 0.41448516f, -0.21930785f, -0.15040264f, 0.03998503f, 
    -1.37769532f, -0.41809967f, -0.22415452f, -0.22660166f, -0.12045638f, 0.22783089f, -0.18388598f, -0.00239850f, 
    0.40388200f, 0.04166084f, -0.06191868f, -0.17268808f, -0.03204009f, 0.04291902f, 0.39583170f, 0.26948360f, 
    0.80995220f, 0.03086095f, -0.07559575f, -0.11547223f, -0.21471159f, 0.38909745f, 0.06551145f, 0.33362642f, 
    0.02594208f, -0.17504568f, 0.25367138f, 0.21623887f, 0.23576377f, -0.04255182f, -0.16575295f, 0.16326343f, 
    -0.04078240f, 0.09189590f, 0.11194218f, 0.07157297f, 0.05502763f, -0.39925212f, 0.09068781f, 0.06940600f, 
    0.01500644f, 0.02295365f, -0.60646743f, -0.03097142f, -0.23370580f, -0.07187413f, 0.07343332f, 0.20874669f, 
    0.12933075f, -0.01228456f, -0.03852812f, -0.19173627f, -0.19866502f, 0.08154619f, -0.07419560f, 0.21618824f, 
    -0.05808046f, -0.05223639f, -0.08355165f, 0.40829903f, -0.40053815f, -0.04625892f, 0.07700018f, 0.80261612f, 
    0.90546513f, -1.65870035f, -0.08000822f, 0.18690090f, -0.61893052f, -0.28717268f, 0.14587055f, -0.92217839f, 
    -0.34073231f, -0.08079389f, 0.81547421f, 0.55374354f, 0.34934434f, -0.10703985f, -0.14288910f, 0.24067634f, 
    0.12297034f, 0.03671208f, 0.02038836f, 0.09023649f, -0.31538612f, 0.13544832f, 0.30398369f, 0.14569257f, 
    -0.05555859f, -0.03384990f, 0.21303101f, 0.08979554f, -0.16903442f, 0.01430521f, 0.11406978f, -0.02525615f, 
    0.07843799f, 0.13631669f, 0.01297009f, 0.06133994f, -0.41220698f, -0.06650212f, 0.13687086f, -0.11042105f, 
    0.02197641f, 0.74477726f, 0.13733602f, -0.40763527f, -0.11550061f, 0.02168860f, 0.06585618f, -0.09923247f, 
    -0.02626239f, -0.06232394f, -0.27685237f, 0.01186201f, -0.10148388f, 0.12741598f, -0.19598800f, 0.02201091f, 
    0.17005943f, -0.23608391f, -0.48328444f, -0.14792721f, -0.51344687f, 0.23809761f, -2.12970948f, -0.52810699f, 
    1.86453056f, -0.19101380f, 0.78786284f, 0.11483441f, -1.18583667f, -0.03050592f, 0.45759162f, -0.73562008f, 
    -0.23069100f, -0.28760323f, -0.13822329f, 0.34000427f, -0.05354534f, 0.58187699f, -0.70205337f, -0.39192250f, 
    0.64545834f, -0.09648228f, 0.06805582f, -0.43489316f, -0.20971701f, 0.09577256f, -0.12573969f, 0.26149872f, 
    0.16876848f, -0.16583379f, 0.00184525f, 0.35595360f, -0.14303483f, -0.09308167f, -0.31678236f, 0.33112097f, 
    -0.07275378f, 0.11506876f, 0.26053968f, -0.52830255f, 0.75199026f, 0.02069702f, 0.11558355f, -0.16024366f, 
    0.29799676f, 1.14037323f, -0.13449948f, 0.12745290f, -0.74401486f, -0.59118694f, 0.56992298f, 0.25841895f, 
    -1.12072134f, 0.47288314f, -0.21148300f, 1.03842425f, -0.68253022f, 0.13316472f, 0.20479926f, -0.27109548f, 
    -0.13918653f, 0.39858434f, 0.73333496f, -0.26546013f, 0.07510166f, 0.22047268f, -0.36966512f, 0.32531729f, 
    0.03762719f, 0.62156302f, 0.70045996f, -0.59522635f, -0.17664854f, 0.65350318f, -0.53901112f, -0.13722022f, 
    -0.30859455f, 0.26669025f, 0.76928902f, -0.15036222f, 0.64383167f, 0.26201731f, 0.06332979f, 0.23425049f, 
    0.20478617f, -0.03038828f, 0.23839453f, -0.40452734f, -0.98457801f, -0.19640255f, -0.27215046f, 0.90378785f, 
    -0.15862785f, 0.06022847f, 0.42099857f, 0.12320463f, -0.17040254f, 0.32062283f, 0.20241259f, 0.47433373f, 
    -0.02946649f, -0.38623744f, 0.01631678f, -0.24059543f, 1.45217228f, -1.36324501f, -0.14675701f, -0.36592093f, 
    -0.29892588f, 0.03875756f, -0.05754609f, 0.50712126f, 0.28878170f, -0.29962993f, 0.20688258f, 0.16507024f, 
    -0.40591118f, 0.15878634f, -0.16805077f, 0.73309529f, -0.64852649f, 0.16592588f, -0.00690861f, 0.09997312f, 
    -0.07397939f, -0.09606121f, 0.00869326f, 0.21628544f, 0.80409795f, 0.04772888f, 0.14926684f, -0.12063298f, 
    0.35054395f, -0.46004295f, -0.19173579f, -0.05363566f, 0.04099157f, -0.01006385f, 0.00732539f, -0.04087035f, 
    -0.17101769f, -0.17549005f, -0.09113356f, -0.03569327f, 0.54081959f, 1.02323937f, 0.01660680f, -3.18802476f, 
    0.11919820f, -0.21710651f, 0.58150476f, -0.18549791f, -0.08592750f, 0.00584299f, -0.42866287f, 0.16288510f, 
    -0.13101858f, -0.55494970f, 0.09819928f, 0.17858809f, 0.19875252f, -0.03421850f, -0.70050406f, -0.07951581f, 
    0.00806818f, -0.17432211f, 1.03167617f, -0.10432564f, 0.39093053f, 0.09537838f, -0.27781731f, 0.98218054f, 
    0.40787721f, -0.13012928f, -0.10526362f, -0.85974413f, -0.01269309f, 0.07922205f, -0.59110415f, -0.10450935f, 
    0.10460725f, 0.34678006f, -0.36704010f, 0.33419558f, -0.17722005f, -0.65982550f, 0.19020750f, 0.15711153f, 
    0.03730627f, -0.20861320f, -0.02326543f, -1.08590376f, -0.15124774f, -0.16273712f, 0.09296785f, -0.14362423f, 
    0.13181174f, 0.25553814f, 0.01989040f, -0.13638568f, 0.05794805f, 0.05617970f, -0.00426876f, 0.19585474f, 
    0.01438940f, 0.12247990f, 0.00782488f, -0.22612801f, 0.46590218f, 0.62190145f, 0.60326028f, -0.28547889f, 
    0.02083728f, 0.62470460f, -1.28829634f, 0.12569609f, 0.20476605f, -0.60523486f, -0.09571124f, 0.07224352f, 
    -0.66133475f, -0.19005303f, 0.18865141f, -0.09670331f, -0.13730608f, 0.34267032f, 0.00817121f, -0.26490942f, 
    1.28634155f, -0.36897326f, 0.28388393f, -0.20764653f, -0.05290745f, -0.97463423f, 0.44754517f, 1.54761541f, 
    -0.02255830f, -0.23915645f, -0.51974458f, -0.33438119f, 0.14991213f, -0.38613653f, 0.14741914f, -0.06810194f, 
    0.87744087f, -0.26941970f, -0.14475864f, -0.33611158f, 0.08772670f, 0.02428740f, -0.42399937f, 0.45697561f, 
    0.05673163f, -0.10692184f, 0.02353873f, -0.52016723f, 0.12608948f, 0.21154116f, 0.63409734f, 0.31321663f, 
    -0.24744256f, 0.01568848f, 0.26473877f, -0.49250996f, 0.06919393f, -0.54165822f, 0.14335516f, 0.02877884f, 
    0.12143617f, 0.31233042f, -0.45215556f, -0.60922533f, 0.84555638f, -0.16640559f, 0.11322112f, -0.52263248f, 
    -0.77488160f, 0.37594137f, -0.00036455f, 0.43430358f, 0.69288933f, -0.44580334f, 0.10648905f, 0.69884163f, 
    -0.49486300f, -0.04933606f, -0.38028097f, 0.47432423f, -0.09820303f, 0.28713506f, 0.24801449f, -0.09556822f, 
    0.04866051f, -0.06013990f, -0.13987461f, -0.08264612f, -0.03467852f, -0.12725426f, 0.12250225f, 0.10863747f, 
    0.16033538f, 0.04761558f, 0.13458532f, 0.01903979f, -0.01841156f, -0.26630449f, 0.22713464f, 0.14030677f, 
    0.15089008f, -0.14933854f, -0.00022357f, -0.12014542f, 0.03860446f, 1.87881017f, 0.87188941f, -0.35913783f, 
    0.20659252f, -0.11913187f, 0.65517122f, 0.17882310f, -0.03816337f, 0.43057510f, -0.36909187f, -0.16034526f, 
    -0.23400560f, -0.66149348f, -0.38961124f, 0.04865140f, 0.88790017f, 0.53817981f, -0.22310376f, 0.33627644f, 
    -0.46839017f, -0.04742178f, -0.02657725f, 0.02307838f, -0.12129465f, -0.05044021f, 0.54866463f, -0.01909920f, 
    0.15389401f, 0.09917375f, -0.00939126f, 0.29567060f, 0.05855084f, 0.02082122f, -0.24775168f, -0.01178117f, 
    -0.06074202f, -0.06966543f, 0.22952496f, 0.10872301f, 0.18476562f, 0.03252691f, -0.54599810f, 1.18172884f, 
    0.08651666f, 0.20557246f, -0.19219463f, 0.39495221f, 0.87632787f, -0.27596661f, 0.08741413f, -0.04885118f, 
    -0.56821048f, 0.18201213f, 0.16938858f, -0.82135034f, -0.06590349f, -0.13609606f, 1.31247175f, -0.05553317f, 
    0.11098177f, -0.31293339f, -0.32225659f, -0.10112487f, -0.14252536f, -0.01331809f, -0.17864591f, -0.10398041f, 
    0.17780532f, -0.59204423f, 0.17911144f, -0.17561898f, -0.40615249f, 0.41480783f, 0.35313711f, 0.21243021f, 
    0.80559695f, 0.01227357f, 0.07921574f, -1.11011052f, -0.07254948f, -0.25640577f, 0.01234717f, -0.00927432f, 
    0.46910191f, -0.48505029f, -0.72605157f, -0.51757377f, 0.13255757f, -0.70528293f, -0.94159412f, 0.73093611f, 
    -0.13781272f, -0.57575297f, 0.73918861f, 0.33612463f, 0.05669546f, 0.68965018f, 0.47389966f, -0.01782620f, 
    -0.66374725f, -0.06986265f, 0.64719319f, -0.65884167f, 0.17593397f, -1.51127112f, 0.27928162f, -0.53852904f, 
    -0.16362710f, 0.00155807f, -1.06865752f, 0.52075386f, 1.25506890f, 0.00866106f, -1.04894984f, -0.33340716f, 
    1.10061574f, 0.05198150f, -0.69063163f, 1.04438579f, 0.07711045f, -0.10729657f, 0.48397636f, 0.32608771f, 
    -0.54468220f, -0.41264760f, -0.56216341f, -0.19822510f, -0.12406226f, 0.19822888f, -0.09466840f, -0.20945688f, 
    1.13402843f, 0.84633040f, 0.04465238f, 0.27145353f, -0.89100909f, -0.06936844f, -0.09744670f, -1.13508511f, 
    -0.27810612f, -0.07195222f, 0.57915187f, -0.63774478f, 0.50691885f, 0.74546826f, -0.03445647f, -1.14177907f, 
    0.23459291f, -0.70449317f, 0.04364614f, -0.01285872f, -0.20506433f, -0.29113674f, -0.70430648f, 0.04775447f, 
    -0.20492177f, 0.13029169f, 0.07192899f, -0.02140300f, 0.26507860f, 0.25734451f, -0.04249556f, -0.17999806f, 
    -0.40188527f, -1.06897140f, 0.41072297f, 0.02847538f, 0.27258343f, 1.03222740f, 0.24949664f, 0.06491280f, 
    -0.08670685f, 0.19298130f, 0.50569165f, -0.45604947f, -0.21196075f, -0.32365668f, -0.52573967f, 0.61143082f, 
    -0.15639931f, -0.31737638f, 0.21525481f, -0.10758139f, 0.55769193f, 0.12820563f, 0.40418279f, 0.07245857f, 
    -0.93429589f, 0.29639867f, -1.04733777f, 0.01880540f, 0.11545094f, 0.06389625f, -0.52889872f, -0.44604117f, 
    1.10076332f, -0.04029576f, 0.40030792f, 0.16330838f, -0.27370739f, 0.03578802f, 0.51728874f, -0.00699182f, 
    0.06071436f, -0.47430819f, 0.68639523f, -0.48237976f, 0.28678069f, 0.60174102f, -0.61399585f, 0.05557914f, 
    0.01028215f, -0.03347584f, 0.22897053f, 0.31122503f, -0.08540063f, 0.28051206f, 0.17185339f, -0.22956555f, 
    -0.27715227f, -0.23070976f, 0.09704428f, -0.14803737f, 0.33890164f, 0.13664715f, 0.15171619f, -0.34096980f, 
    -0.14915255f, -0.25489432f, -0.02115351f, 0.31941742f, -0.23204362f, 0.05736652f, -0.39347059f, -0.07767235f, 
    -0.70685387f, -0.19216673f, 1.30397272f, -0.03550838f, -0.39360175f, -0.04854678f, 0.67965436f, 0.15619239f, 
    -0.15596685f, 0.47534963f, -0.16631803f, -0.21880932f, 0.71032745f, 0.05403555f, -1.04360402f, -0.28898919f, 
    -0.86065668f, 0.13020380f, -1.96222126f, -0.30524975f, 0.02191190f, -0.64144051f, 0.13847291f, 0.36927637f, 
    -0.00488628f, -1.01392746f, -0.35834643f, 0.82590884f, -0.20335227f, -0.36032698f, 0.67473769f, -0.15369686f, 
    0.11477937f, -1.23145390f, -0.07147493f, -0.11910287f, 0.01539524f, -0.22537252f, -0.26623791f, -0.14256841f, 
    0.01826105f, 0.06042124f, 0.37153947f, -0.23434946f, 0.29448819f, 0.13985291f, -0.29797518f, 0.02561111f, 
    0.07757117f, -0.18260860f, 0.06870168f, 0.00885777f, 0.08198050f, -0.26613900f, -0.27413204f, 0.01955144f, 
    -0.21733290f, 0.23667562f, -0.13529658f, -1.51333129f, 0.26395452f, -0.04661375f, -0.00372564f, 0.50086021f, 
    -1.20756435f, -0.64464933f, -0.10922655f, 0.12225383f, 0.90185809f, -0.09410797f, 0.05593864f, 0.99514163f, 
    -0.02794570f, -0.14537576f, -0.82767713f, 0.01313629f, -0.09639440f, 0.03433742f, 0.42666310f, 0.02451053f, 
    -0.40743545f, -0.42147025f, 0.02303378f, -0.16919409f, 1.13421643f, 0.10021069f, -1.97769320f, -0.25036377f, 
    0.17512560f, -0.22927666f, -0.16152029f, 0.16275577f, 0.00321697f, -0.50428504f, -0.00215980f, 0.14410932f, 
    -0.09393118f, -0.36215922f, 0.30987915f, -0.58211553f, 0.48269480f, 0.21637869f, -0.45966780f, -0.08231758f, 
    0.12694083f, 1.17367959f, 0.18484561f, -1.19749463f, -0.07549883f, -0.65425420f, -0.18378606f, 0.69765663f, 
    0.02528296f, -0.12669578f, 0.46694559f, -0.16509125f, 0.09329352f, -0.26742619f, -0.70248240f, -0.78779823f, 
    0.16633311f, 0.14419743f, -0.54237956f, 0.54021871f, -0.00197132f, 0.01893589f, 0.20182350f, -0.02496194f, 
    -0.55459827f, 0.12051469f, -0.22100797f, 0.38027030f, 0.13779590f, -0.10446808f, 0.21928260f, 0.28716969f, 
    -0.11377157f, -0.45969209f, 0.38276014f, 0.11559377f, 0.18627204f, 0.42752182f, 0.28442323f, -0.21318606f, 
    0.02338191f, -0.15275845f, 0.02534612f, -0.37229383f, -0.09735955f, -0.56687921f, -0.22218758f, -0.11234587f, 
    0.17748477f, -0.03100116f, 0.06829227f, 0.18290070f, 0.11333071f, -0.13830791f, -0.00214482f, 0.05919828f, 
    0.22256637f, 0.19155915f, -0.11251855f, 0.69160342f, -0.98639792f, 0.87004155f, 1.32331848f, -0.17823571f, 
    0.28174877f, -0.07674599f, 0.64580709f, 0.18247777f, 0.27961260f, 0.19003823f, 0.00213018f, 0.12542692f, 
    -0.03017342f, -0.21870399f, 0.01092391f, -0.75196594f, 0.42132026f, 0.72677767f, 0.07804380f, 0.20461865f, 
    0.06726266f, -0.07606274f, 0.37599099f, -0.07300669f, 0.07647743f, 0.09148889f, -0.50182182f, -0.43122694f, 
    0.01647249f, -0.36894879f, 0.67010176f, 0.47682354f, -0.02597397f, 0.39239758f, 0.05635848f, -0.22468524f, 
    -0.02704037f, 0.14534734f, 0.11439253f, -0.23485523f, -0.01192338f, -0.16470258f, -0.27565345f, 0.52831316f, 
    -0.09199748f, 0.02912791f, -0.22122741f, -0.28855136f, -0.39695767f, 0.01262000f, 0.55460352f, 0.40291774f, 
    -0.10001662f, -0.22667176f, 0.19971704f, -0.20461860f, -0.14704938f, 0.11432340f, 0.07007971f, 0.06179537f, 
    -0.03094945f, -0.08886269f, -0.37318897f, -0.41453722f, 0.10756967f, 0.24766767f, 0.01433670f, 0.33094671f, 
    0.27245820f, -0.02508199f, -0.05218682f, -0.23475845f, -0.31049871f, 0.31233361f, -0.07355650f, -0.40325630f, 
    0.14532985f, -0.11730587f, 0.01538296f, 0.05202773f, 0.01990015f, -0.11470370f, -0.47552022f, 0.15481034f
};

static const float weights_1[] = {
    0.10030952f, -0.16325757f, -0.11960862f, -0.08340418f, -0.10425176f, -0.11322744f, 0.23138444f, 0.24873886f, 
    -0.04204001f, -0.96276909f, -0.10735643f, -0.27482775f, 0.01601523f, 0.04160884f, 0.79731339f, -0.16391526f, 
    -0.10885674f, -0.06654491f, 0.44739810f, -0.00795001f, 0.11026105f, -0.00408989f, -0.10647436f, -0.21733578f, 
    -0.02617732f, 0.07240947f, -0.42102355f, -0.23166621f, 0.32163444f, -0.36801654f, -0.38739565f, -0.37678713f, 
    0.16808704f, -0.38818333f, -0.23355603f, -0.07186098f, -0.09819280f, 0.17935376f, -0.24192601f, -0.26348871f, 
    -0.09084283f, -0.42647734f, 0.01645562f, -0.08416531f, 0.36344662f, -0.43880227f, 0.19581933f, 0.00576193f, 
    0.43237650f, 0.05860541f, -0.12605450f, 0.23568225f, -0.06549480f, 0.49981794f, 0.11305323f, -0.11712560f, 
    0.09186777f, 0.46485761f, 0.20693941f, 0.18901607f, -0.11476802f, -0.21719928f, -0.17940313f, -0.13163318f, 
    -0.03472303f, -0.01212529f, -0.26633778f, 0.04389604f, -0.69719762f, 0.16606417f, 0.17586264f, -0.07422674f, 
    0.18824612f, 0.10887334f, -0.13150597f, 0.21846098f, 0.18070091f, 0.45971286f, 0.07147007f, 0.06417733f, 
    0.00882896f, -0.24717386f, 0.11947902f, -0.52497947f, 0.30170730f, 0.14446883f, 0.14376956f, 0.39254004f, 
    0.09731420f, -0.14665377f, 0.59876245f, -0.24636267f, -0.12614451f, 0.04359325f, 0.20751821f, -0.05375963f, 
    -0.28038397f, -0.25448868f, -0.18733598f, 0.33481705f, -0.18590146f, 0.46633449f, -0.03100190f, 0.00141792f, 
    0.05068893f, -0.21084887f, 0.04354718f, -0.20722571f, -0.38006282f, 0.35006338f, 0.20039807f, 0.12826921f, 
    -0.26651570f, -0.01997470f, 0.15095313f, -0.08986517f, 0.49263263f, 0.21818608f, -0.07074399f, -0.07569015f, 
    0.09979955f, -0.21856481f, 0.10711661f, 0.07892565f, 0.06218762f, -0.20073584f, 0.06016197f, -0.22188009f, 
    -0.05513946f, 0.04170500f, -0.01372328f, -0.09681691f, -0.02966674f, -0.02923183f, 0.18244982f, 0.10967500f, 
    0.01540887f, 0.15878896f, -0.06202570f, -0.11399787f, 0.08469833f, 0.00537338f, -0.06182279f, 0.01661348f, 
    -0.04295139f, 0.14511706f, 0.00347274f, -0.03446764f, 0.00854321f, 0.02150481f, -0.10467868f, -0.06607638f, 
    -0.00849654f, 0.06500334f, 0.03109049f, -0.04671051f, 0.12525818f, 0.04896595f, -0.05060257f, -0.19899565f, 
    -0.00003469f, 0.01045617f, -0.06818134f, 0.01045973f, -0.08814737f, -0.03913933f, -0.03313699f, 0.02862004f, 
    0.14144227f, -0.11565833f, 0.04299029f, 0.00060552f, 0.01241798f, -0.07154315f, -0.07421190f, 0.01219322f, 
    -0.00769568f, 0.05705690f, -0.17587832f, 0.10938278f, 0.15063176f, -0.01338341f, 0.17648286f, 0.01695764f, 
    0.05291440f, -0.04798044f, 0.07677504f, 0.05117871f, -0.09561830f, 0.16074613f, -0.02089095f, 0.05449257f, 
    -0.00406268f, 0.09311632f, 0.00752459f, -0.03291681f, 0.00729949f, 0.08794980f, 0.07313761f, 0.05126095f, 
    -0.05802761f, -0.12134174f, -0.11486236f, 0.04845326f, 0.07390232f, -0.02843035f, -0.11732324f, 0.01119562f, 
    0.10749001f, 0.09328576f, -0.02729347f, 0.02195324f, 0.07307930f, 0.03940559f, 0.00944183f, 0.06075051f, 
    0.01643649f, 0.18121424f, 0.01689864f, -0.02700893f, 0.14792836f, 0.08144625f, -0.01433355f, -0.08163862f, 
    0.02121205f, -0.07491423f, 0.01422917f, -0.15660381f, -0.14290890f, 0.20725398f, 0.06817790f, -0.06073953f, 
    -0.02643923f, 0.01456944f, -0.09207851f, -0.18814263f, 0.13675797f, 0.06580494f, -0.04818106f, -0.07468854f, 
    -0.06038870f, 0.07927153f, -0.08105818f, -0.06786171f, -0.16377285f, -0.14235352f, 0.13618821f, -0.08087598f, 
    0.13650791f, -0.02707632f, -0.02576377f, -0.02069754f, -0.15726249f, 0.03696506f, 0.06867840f, 0.15865850f, 
    -0.10589916f, -0.04015081f, 0.03613489f, 0.00453783f, 0.03020439f, -0.09717602f, -0.05453793f, 0.06952082f, 
    -0.11870502f, 0.07401754f, 0.03012329f, -0.00154917f, -0.00970771f, -0.06210391f, -0.15584841f, 0.00629514f, 
    -0.00237999f, 0.01124100f, 0.00001107f, -0.10012638f, -0.00365177f, -0.12670070f, -0.01888808f, 0.07181659f, 
    -0.01022766f, 0.01540349f, 0.01953132f, 0.10277516f, 0.13184720f, -0.04714988f, -0.00860471f, 0.02419451f, 
    0.11405093f, -0.04990424f, -0.10056218f, -0.03370515f, -0.00485190f, -0.21030706f, 0.08514375f, -0.07098759f, 
    -0.05760142f, -0.02561555f, -0.04908130f, 0.01016615f, -0.16391949f, 0.11262077f, 0.10031523f, 0.00151111f, 
    0.00645632f, -0.11862183f, -0.04321734f, 0.14741911f, -0.02841001f, -0.03106783f, 0.17027199f, -0.10806762f, 
    0.11399736f, -0.01471291f, 0.08540962f, -0.04551831f, -0.10391471f, 0.16824903f, -0.03083789f, 0.03398481f, 
    0.19157088f, -0.07272523f, 0.05006352f, 0.04352796f, 0.03700214f, -0.12947738f, -0.06294132f, -0.04906828f, 
    -0.06062792f, -0.05840097f, 0.09247027f, -0.01863934f, -0.01410691f, 0.09325411f, 0.02447311f, 0.19226015f, 
    0.04412396f, -0.07897842f, 0.11969186f, -0.10391819f, -0.13423748f, -0.12969920f, -0.00448347f, 0.07701792f, 
    0.03743591f, -0.14864349f, -0.04224999f, -0.02312825f, 0.04011668f, -0.05770066f, -0.07035584f, 0.06160817f, 
    0.01843695f, 0.02910867f, -0.12873055f, 0.01840458f, 0.02338022f, -0.01189096f, -0.06651909f, 0.08896562f, 
    -0.06527932f, 0.12879747f, 0.05459337f, -0.06510475f, -0.07925071f, 0.10331314f, 0.04243585f, -0.03257983f, 
    0.07929556f, 0.04337797f, 0.08218645f, 0.02461561f, -0.08441339f, -0.08430138f, -0.00605130f, -0.03456308f, 
    -0.00022176f, 0.06681889f, -0.04379001f, -0.14160264f, 0.03684998f, -0.01592102f, 0.12877746f, 0.09506951f, 
    0.16160494f, 0.11652315f, 0.10207404f, -0.06074582f, 0.07709527f, 0.11595128f, -0.04740134f, -0.12568177f, 
    -0.02303509f, -0.10278945f, -0.07044745f, 0.12666866f, -0.23872519f, 0.00817910f, -0.04420011f, -0.01511629f, 
    0.07690280f, 0.15453671f, -0.05393087f, -0.02911720f, -0.02061814f, -0.15940709f, 0.03227482f, -0.02753863f, 
    0.10943204f, -0.01110527f, 0.00886164f, -0.03893572f, 0.17071541f, 0.05773686f, -0.07632066f, -0.11928676f, 
    -0.06018226f, 0.08233809f, -0.01768780f, 0.18572712f, 0.07159346f, 0.08356442f, -0.23390400f, 0.00245789f, 
    -0.06718734f, 0.01995464f, 0.02987232f, -0.19869703f, 0.12825313f, 0.13221145f, -0.07721588f, 0.03523143f, 
    -0.10952304f, -0.07037507f, 0.03293095f, -0.02020276f, -0.01769549f, -0.03718970f, -0.06825924f, 0.01148794f, 
    0.01598213f, 0.03405439f, -0.10892665f, -0.05308536f, 0.03172642f, 0.07064415f, 0.05871902f, 0.01551035f, 
    0.10905395f, 0.07792585f, 0.02473636f, 0.07242525f, -0.05481636f, -0.06808715f, 0.01668379f, 0.09535149f, 
    -0.05316983f, 0.01055092f, 0.03156049f, -0.03038138f, 0.02792539f, 0.04259234f, -0.09758596f, -0.09187003f, 
    0.01247815f, 0.01435107f, 0.12025079f, 0.08820951f, 0.11901651f, 0.04019926f, -0.12771831f, 0.07349115f, 
    -0.09514455f, -0.05510164f, 0.06425889f, -0.12545905f, -0.07556694f, -0.07736553f, 0.15570839f, 0.11819189f, 
    0.05758710f, -0.00350221f, 0.00309952f, -0.07917119f, -0.01412556f, 0.05962125f, 0.03817558f, -0.01438757f, 
    0.04431144f, -0.05669228f, 0.10308448f, 0.17383304f, 0.04663011f, 0.13044460f, 0.04784065f, -0.08318870f, 
    0.04149229f, -0.17582652f, -0.04525985f, -0.05025601f, -0.18337134f, -0.05289433f, 0.07603062f, -0.11773892f, 
    0.15033846f, 0.12619108f, 0.19886027f, 0.04251551f, 0.09708191f, -0.06150819f, 0.06641494f, 0.10500221f, 
    -0.05608977f, -0.02606600f, 0.02178666f, -0.04757423f, 0.04172587f, 0.09294619f, 0.01931472f, 0.05567836f, 
    0.01502270f, 0.03623929f, -0.12578200f, -0.14466220f, 0.12871464f, 0.09537701f, 0.18738647f, 0.10657947f, 
    -0.05476199f, -0.10942806f, -0.07162671f, -0.13594279f, -0.20290922f, -0.01572906f, -0.07589541f, -0.02347557f, 
    -0.02284147f, 0.00380992f, 0.04674008f, 0.20583434f, 0.07688334f, -0.03632322f, 0.07472066f, -0.10215978f, 
    0.03511427f, -0.08387056f, -0.00254117f, 0.09862126f, 0.19333000f, -0.14095141f, -0.01255196f, 0.25296327f, 
    0.06932461f, 0.09052482f, -0.01180100f, 0.02884242f, -0.06442852f, -0.02492568f, -0.04590302f, 0.04280195f, 
    0.00515934f, 0.01181468f, -0.05412180f, -0.03664382f, 0.10998492f, -0.02896410f, -0.06060498f, -0.08754177f, 
    -0.00349059f, 0.02470864f, -0.06485089f, 0.06128854f, -0.05711384f, -0.05896933f, 0.01120991f, -0.02971286f, 
    -0.08509378f, -0.23245384f, 0.35931730f, 0.03699709f, -0.45267382f, 0.25942534f, -0.44094852f, 0.14321803f, 
    -0.07365760f, -0.04179946f, -0.18602079f, 0.15362561f, 0.07753971f, -0.04160788f, -0.12839074f, 0.29924703f, 
    -0.28326312f, -0.58764273f, 0.18096982f, 0.33781105f, -0.43538734f, 0.10881435f, -0.00185845f, -0.50777096f, 
    0.08980467f, 0.25525028f, 0.11326313f, 0.37528738f, -0.13806300f, 0.10599530f, 0.10064057f, 0.24756755f, 
    -0.10287717f, 0.61352944f, -0.36571869f, 0.03152439f, 0.01799134f, -0.04552332f, 0.30167922f, 0.70108205f, 
    0.08511153f, -1.11499321f, 0.11046319f, -0.47387424f, 0.22540161f, 0.28830129f, -0.05912883f, 0.25655833f, 
    -0.17268330f, -0.28703868f, -0.25499582f, 0.02168064f, 0.09771958f, -0.36562940f, 0.22287101f, 0.93907076f, 
    -0.08132490f, -0.19179715f, 0.45044714f, -0.23301879f, 0.18577667f, 0.30186906f, 0.12060960f, 0.12269710f, 
    -0.29217899f, 0.12440016f, -0.23351038f, -0.13595209f, -0.20500676f, -0.25014445f, 0.18347071f, 0.16194986f, 
    -0.14072008f, -0.10489458f, 0.17244768f, -0.06634652f, -0.09635799f, 0.19881278f, 0.04698751f, 0.16889875f, 
    0.06562044f, -0.21816261f, 0.04151031f, -0.22363175f, -0.04467766f, -0.21120882f, 0.14715366f, 0.13629113f, 
    -0.19225022f, -0.28734225f, 0.09854463f, -0.36492744f, 0.07128626f, 0.05333667f, 0.19385573f, 0.02669227f, 
    0.27231643f, -0.41122368f, 0.15581284f, -0.25915977f, 0.37534127f, 0.20027192f, -0.21861860f, -0.08192978f, 
    -0.06532768f, -0.04095440f, -0.37803712f, -0.10314067f, 0.02670468f, -0.04191909f, -0.35828823f, 0.02965743f, 
    0.05208811f, -0.09948410f, -0.14720048f, 0.19850865f, -0.32149991f, 0.31968397f, 0.03134082f, -0.02590927f, 
    -0.06292229f, 0.35516763f, -0.19751599f, 0.18864311f, 0.12808132f, -0.04623281f, -0.12087673f, 0.17454846f, 
    0.08084707f, 0.00402430f, -0.01417021f, 0.00256722f, -0.05514789f, -0.06341492f, 0.07868480f, 0.17359544f, 
    -0.07183088f, 0.00648930f, -0.05490789f, -0.05279224f, 0.05706259f, 0.07897084f, 0.02954177f, -0.05822215f, 
    0.14333065f, -0.19846213f, 0.04456696f, -0.03853535f, -0.00588393f, 0.07897867f, -0.00327069f, 0.23721853f, 
    0.05878001f, -0.13193375f, 0.02451855f, 0.03221202f, -0.11956009f, 0.05573412f, 0.02146782f, 0.08708309f, 
    -0.11592899f, 0.01172573f, -0.02383090f, -0.16619353f, -0.09936933f, -0.03737555f, 0.08050009f, 0.16648395f, 
    0.08456961f, -0.04089804f, 0.04579725f, -0.10091648f, 0.01667564f, -0.18076766f, 0.04439314f, 0.00822569f, 
    0.09196394f, 0.10308915f, -0.13384810f, 0.03323060f, -0.06937557f, -0.08439220f, 0.11584601f, -0.03285525f, 
    0.00974926f, 0.13747318f, -0.21416964f, -0.03498884f, 0.10247216f, 0.06531832f, 0.05257856f, 0.03567171f, 
    0.04340236f, 0.06897185f, -0.63787413f, 0.09519023f, 0.07232470f, -0.20736982f, 0.04542146f, -0.04975316f, 
    -0.06148489f, 0.77896613f, 0.09057917f, 0.26280972f, 0.05129808f, -0.20463726f, -0.55134374f, 0.16060859f, 
    -0.19580321f, -0.18947661f, -0.06055729f, 0.21807534f, 0.03850944f, 0.03296164f, 0.03015972f, -0.16754608f, 
    0.08315273f, 0.01589316f, 0.03459461f, 0.07778870f, -0.77087915f, 0.00538091f, -0.22753300f, 0.24807845f, 
    -0.06046234f, -0.93068695f, 0.14713328f, 0.00687508f, 0.36154208f, -0.19478044f, 0.27645630f, 0.22782655f, 
    0.01051469f, -0.01851687f, 0.11343187f, -0.39561993f, 0.20342709f, -0.13681634f, -0.09447098f, -0.01891978f, 
    0.08430908f, 0.03246185f, 0.10365811f, -0.15533204f, 0.10849616f, -0.43266332f, -0.01451715f, 0.49973479f, 
    0.19242558f, -0.10445490f, 0.06047278f, 0.10400077f, 0.66027206f, -0.05585402f, 0.13657238f, 0.21115282f, 
    -0.01913447f, -0.20984477f, -0.16125615f, -0.02022594f, 0.00853279f, 0.05880336f, 0.00629168f, -0.02067246f, 
    0.01560023f, -0.08545416f, -0.00083391f, 0.13504010f, 0.12878354f, 0.14436936f, -0.05853235f, -0.08183661f, 
    0.07875249f, 0.06862746f, 0.00156560f, 0.07027213f, 0.04705918f, 0.02690630f, -0.01654063f, -0.01093216f, 
    0.01372605f, -0.04246411f, 0.17326574f, 0.01836217f, -0.01349229f, -0.09752981f, 0.06675755f, 0.09565584f, 
    -0.12289390f, -0.06208282f, 0.10683169f, 0.05366966f, 0.11039998f, -0.09202098f, 0.04548444f, 0.04231036f, 
    -0.01592712f, -0.04409668f, 0.03942590f, -0.05429313f, 0.02205511f, -0.09049639f, -0.11191327f, 0.00074792f, 
    -0.01066178f, 0.15357916f, 0.08224733f, 0.02412165f, -0.00418436f, 0.08260645f, -0.06014571f, 0.06918801f, 
    0.09840663f, -0.06567692f, 0.01018398f, -0.10850346f, 0.00850189f, -0.11197314f, -0.02998379f, -0.05774390f, 
    -0.06082833f, -0.39743781f, -0.12162897f, -0.18607304f, 0.23095962f, -0.10985956f, -0.15274724f, 0.55413616f, 
    0.16676895f, 0.45036191f, -0.39492023f, -0.48786291f, 0.36556962f, 0.43256181f, 0.39179802f, 0.16789381f, 
    0.35791185f, 0.30996528f, 0.39521313f, 0.27586409f, 0.35665852f, 0.34892756f, -0.19926712f, 0.11910716f, 
    0.19929448f, 0.37214977f, 0.10276899f, 0.02291994f, -0.37585196f, -0.15131620f, -0.14015485f, -0.13425662f, 
    -0.32051781f, 0.16255388f, -0.57698655f, 0.36586615f, -0.33393294f, -0.20440958f, 0.11375119f, 0.30103484f, 
    -0.09547494f, 0.02337062f, 0.21825011f, -0.28938475f, 0.12949085f, 0.22563657f, 0.11563020f, -0.09702347f, 
    0.28588086f, -0.33237565f, 0.10168327f, 0.13031659f, -0.09431528f, 0.04223612f, 0.11189094f, 0.12425195f, 
    -0.64369345f, 0.23717451f, 0.53776896f, -0.43096712f, -0.21913689f, -0.11935543f, -0.31115997f, -0.74515796f, 
    0.08090256f, 0.08665479f, -0.05738967f, 0.04669491f, 0.18015973f, 0.12064293f, -0.09299245f, -0.05475271f, 
    0.40564004f, -0.55788833f, -0.08943768f, 0.14691472f, -0.09121721f, 0.04642709f, 0.70347703f, -0.27960768f, 
    -0.10233146f, -0.32831737f, -0.06479771f, 0.65795261f, -0.64250213f, 0.32997850f, -0.14199653f, 0.20453547f, 
    0.15262648f, 0.47819066f, -0.83077383f, -0.08163586f, 0.36174753f, -0.11752133f, -0.28960389f, -0.65559226f, 
    0.07607613f, -0.26965812f, -0.15458672f, 0.02865516f, 0.18304281f, -0.09735416f, -0.23954226f, -0.45779157f, 
    0.10824683f, -0.42417586f, 0.22135502f, 0.20113191f, 0.22752763f, -0.32186228f, 0.32332867f, 0.02424744f, 
    -0.17526776f, 0.18285987f, 0.08047469f, 0.04960835f, 0.23448253f, 0.10067802f, 0.11144514f, -0.14131550f, 
    0.00532251f, 0.71111017f, 0.16217168f, -0.31870347f, 0.10161635f, 0.01857930f, -0.03315065f, 0.20869076f, 
    -0.06741779f, 0.31806505f, -0.47931385f, 0.11110856f, 0.53847176f, -0.11208574f, -0.44627374f, 0.11819359f, 
    0.03044746f, 0.98072541f, -0.05411312f, 0.25201502f, -0.19855270f, -0.01003280f, -0.58483410f, 0.21562366f, 
    0.08784528f, -0.42143911f, 0.33342513f, 0.16848192f, -0.09697999f, -0.03503380f, -0.00179158f, -0.11093318f, 
    0.05730823f, -0.13917989f, -0.54866433f, 0.04220497f, -0.29832259f, -0.01042950f, 0.26596025f, 0.32108483f, 
    -0.15740278f, -0.13436180f, 0.10982380f, -0.07480935f, 0.05796359f, -0.31701782f, 0.01383263f, 0.32933006f, 
    -0.11816937f, -0.00415431f, 0.09422346f, -0.26989132f, 0.19409795f, -0.17117453f, -0.46458605f, -0.12659012f, 
    -0.22983170f, -0.01685718f, 0.03004318f, -0.17037535f, -0.20751300f, -0.77005661f, 0.01728257f, 0.50485587f, 
    -0.08151160f, 0.06175458f, 0.08937121f, 0.06622682f, 0.60605723f, 0.22332735f, -0.03623858f, 0.27791846f, 
    -0.09058563f, 0.17743258f, -0.47233999f, -0.33576265f, -0.24374540f, -0.00233865f, 0.03432607f, -0.02016981f, 
    -0.19578835f, 0.32995081f, 0.06982577f, -0.11040397f, -0.48959738f, -0.03855871f, -0.48535618f, 0.08636118f, 
    -0.04791573f, -0.19464849f, 0.21244559f, -0.10967569f, 0.00768090f, -0.05622965f, 0.19082627f, -0.19166453f, 
    -0.31630686f, -0.07228117f, -0.11639620f, -0.22001068f, -0.12682752f, -0.18791501f, -0.05873100f, 0.04826008f, 
    0.17003700f, -0.18147378f, 0.28315747f, -0.18843946f, 0.26338276f, 0.33964220f, 0.14201373f, 0.20459066f, 
    0.14037360f, 0.09198131f, -0.31846932f, -0.32820228f, -0.06910919f, -0.27147007f, -0.58558846f, 0.12696296f, 
    0.27151012f, -0.29857156f, 0.07714653f, 0.14748351f, -0.26495948f, -0.13672364f, -0.07235229f, 0.38547677f, 
    0.22798862f, 0.11266034f, -0.24711125f, 0.07756359f, -0.08047349f, -0.12768933f, 0.29504308f, -0.25531235f, 
    -0.00503236f, 0.00769198f, 0.10398425f, -0.04134889f, 0.04045669f, -0.10085820f, 0.02676398f, -0.05694688f, 
    -0.09815335f, -0.05426555f, 0.02098933f, -0.08560886f, 0.12275327f, 0.23301020f, 0.13196169f, 0.03683835f, 
    -0.06390771f, 0.02476964f, 0.15745474f, -0.11627248f, -0.12800342f, 0.02592603f, 0.08656447f, 0.11329237f, 
    0.14804038f, 0.14210983f, 0.04578916f, 0.12656195f, 0.07906875f, -0.07004294f, 0.02464490f, 0.01149359f, 
    0.07408180f, 0.03568949f, -0.05094499f, -0.04447314f, 0.18929875f, 0.12060042f, -0.11784581f, 0.11529450f, 
    -0.00260282f, 0.03420615f, -0.02551967f, -0.17348953f, -0.12051562f, 0.02163683f, 0.16928652f, -0.13641819f, 
    0.20243551f, -0.04524907f, 0.02697033f, 0.02247198f, -0.18561038f, -0.11129635f, -0.10579313f, -0.06694357f, 
    0.11257756f, -0.02866462f, 0.09766766f, -0.03235501f, 0.14667161f, 0.03816263f, 0.18555506f, -0.00853396f, 
    0.07538327f, 0.11820559f, 0.07305425f, -0.11613415f, -0.05042447f, -0.16016708f, 0.00608772f, -0.08472536f, 
    0.03791223f, 0.09857954f, 0.02471079f, 0.01287566f, -0.08037832f, 0.15982634f, 0.06176523f, -0.06252585f, 
    0.02098108f, -0.09323858f, 0.21957010f, 0.22730257f, 0.05456213f, 0.01056323f, -0.17410912f, 0.31264704f, 
    0.07710305f, 0.01939950f, 0.19843039f, 0.01421678f, -0.11422986f, -0.24302422f, 0.05450327f, 0.12190083f, 
    0.08947941f, -0.00694061f, 0.17834568f, -0.15689985f, -0.09070055f, -0.00991279f, 0.09660411f, 0.12280289f, 
    -0.05861263f, -0.03516621f, -0.00170624f, 0.05369769f, -0.06524613f, 0.10957292f, 0.16840053f, -0.13230199f, 
    0.13329798f, 0.02827509f, -0.16204347f, 0.04156911f, -0.05389303f, 0.03448616f, -0.03505130f, 0.14343394f, 
    0.07264205f, 0.05879008f, 0.07192934f, 0.00317815f, 0.04740301f, -0.06455932f, -0.01408389f, 0.06544035f, 
    -0.08024546f, -0.05707213f, 0.10432776f, -0.04733295f, -0.08499071f, -0.08941132f, -0.00031230f, -0.08108453f, 
    0.12271432f, -0.09536090f, 0.00705303f, 0.00668717f, 0.11632293f, -0.01604979f, -0.02207455f, -0.03102230f, 
    -0.05898585f, -0.03373526f, 0.05556210f, 0.02977656f, 0.00095117f, 0.05811157f, -0.04591886f, -0.00685712f, 
    0.01106119f, 0.09183079f, -0.08263091f, -0.09375336f, 0.02334267f, -0.09016278f, 0.12556057f, -0.02217674f, 
    -0.04769038f, -0.01258605f, 0.02444457f, 0.05012983f, -0.06346683f, 0.04666865f, 0.05093667f, -0.01539760f, 
    -0.01772163f, 0.06570131f, -0.02601613f, -0.08702617f, 0.07129448f, -0.06801949f, -0.13147143f, 0.03619589f, 
    -0.07892974f, -0.03555624f, 0.10602540f, 0.07467296f, 0.09919434f, -0.03185668f, -0.02906057f, -0.01415737f, 
    -0.03781600f, -0.09911454f, -0.11843856f, -0.01584821f, 0.09294700f, 0.13116387f, -0.09125213f, -0.13908887f, 
    0.05013432f, 0.09662420f, -0.01161865f, -0.07861515f, -0.02631214f, -0.02290313f, 0.05419320f, -0.14976826f, 
    0.06488328f, -0.00538885f, 0.06106239f, -0.07486559f, 0.11905615f, -0.01535412f, 0.11642255f, 0.16299510f, 
    -0.00311505f, -0.07919032f, -0.00625246f, 0.09337372f, -0.07605288f, -0.10145988f, -0.05860948f, -0.02643205f, 
    0.03521251f, 0.07497116f, 0.08102566f, 0.09995911f, -0.05467110f, 0.06918088f, -0.11587878f, -0.07604570f, 
    0.08625507f, 0.08305923f, -0.00241266f, 0.14201899f, -0.07745335f, 0.07756744f, 0.05733953f, -0.01558305f, 
    -0.05949935f, -0.11007410f, -0.20143354f, 0.05901159f, -0.00355263f, -0.07871676f, 0.14661284f, -0.18280192f, 
    -0.00596207f, 0.04954994f, -0.10812508f, -0.08760602f, -0.21906778f, -0.01052611f, -0.08166070f, 0.04429870f, 
    0.05754824f, -0.05194442f, -0.06309347f, -0.09788019f, -0.04516908f, 0.02430479f, 0.08947556f, 0.12724884f, 
    -0.02494112f, -0.17668916f, -0.04606400f, -0.17884415f, -0.22034773f, -0.08052833f, -0.05634012f, -0.10311961f, 
    0.02293249f, -0.04249916f, 0.10188531f, 0.03992151f, 0.06261057f, -0.00237195f, -0.09703012f, 0.05913127f, 
    0.06865523f, -0.04702895f, -0.04804622f, 0.07435344f, -0.12688211f, -0.04963491f, 0.02989464f, -0.05600617f, 
    0.02671146f, -0.02721738f, -0.04417717f, -0.10745744f, -0.04196885f, -0.02909417f, 0.00132076f, 0.01577030f, 
    0.11640533f, -0.01478521f, -0.12450227f, -0.03772096f, -0.05543870f, -0.12892377f, -0.06072889f, 0.10323865f, 
    0.11763064f, -0.11640809f, -0.01650788f, 0.11336071f, -0.00749367f, 0.22928862f, -0.02751896f, -0.10521038f, 
    0.14940739f, 0.01507155f, -0.03759102f, -0.07552475f, -0.18894492f, -0.09504592f, -0.11143206f, -0.12852530f, 
    -0.03967869f, -0.16757841f, 0.01109700f, -0.20328131f, 0.02241246f, -0.07573323f, -0.07276396f, 0.00466230f, 
    -0.02787683f, -0.05505203f, 0.01652822f, 0.01109362f, 0.16832687f, 0.08221503f, -0.02221876f, 0.27165490f, 
    0.02426007f, -0.03820600f, -0.00561571f, -0.10252593f, 0.02951484f, -0.03834154f, -0.08082252f, -0.15969010f, 
    0.05437861f, 0.10948893f, 0.03823477f, -0.10504182f, 0.10050260f, -0.00810033f, 0.07067333f, -0.06443605f, 
    0.08067719f, -0.03916160f, -0.03254660f, 0.11027401f, 0.05298152f, 0.10103600f, -0.08669849f, 0.03216368f, 
    0.06904632f, -0.12643841f, 0.10387217f, -0.00214267f, -0.05839716f, 0.17789096f, 0.04160130f, 0.01635602f, 
    -0.10694380f, -0.05987605f, 0.09553771f, -0.14917807f, -0.04243282f, -0.00921356f, -0.13536763f, 0.16202272f, 
    -0.09288832f, 0.07117573f, -0.06579768f, -0.10568754f, 0.15319052f, -0.02251836f, -0.05137653f, -0.16006799f, 
    0.21488115f, -0.04934449f, 0.11189750f, 0.14773580f, -0.13864960f, 0.14293508f, 0.00361437f, 0.22297487f, 
    -0.07750192f, -0.07750198f, 0.01827045f, 0.10983711f, -0.06337837f, -0.01819564f, -0.07186825f, -0.08682183f, 
    -0.06264861f, -0.03454948f, -0.02042007f, 0.01150152f, 0.04455250f, 0.01680467f, 0.04068788f, -0.16614255f, 
    0.04556855f, -0.02010408f, 0.11213854f, 0.05356488f, 0.01647715f, 0.10276621f, -0.02555234f, 0.01839890f, 
    0.00415776f, 0.11576301f, 0.06821563f, 0.04876678f, -0.02843486f, -0.00279852f, 0.06162909f, 0.00883382f, 
    0.05310999f, 0.02966261f, -0.00763170f, -0.05987808f, 0.14616169f, 0.04087587f, -0.13976333f, 0.09155202f, 
    -0.06380214f, -0.06438861f, 0.03249251f, -0.04206003f, 0.05853477f, 0.02516410f, 0.02190914f, -0.03106461f, 
    0.08689278f, 0.03937124f, 0.13910007f, -0.05693467f, 0.00320439f, -0.06767812f, 0.00143046f, -0.13373497f, 
    0.12438394f, 0.00255587f, 0.04765783f, 0.07370331f, 0.06368213f, -0.08060452f, 0.01179238f, -0.12377085f, 
    0.08483966f, 0.16591530f, 0.26114905f, -0.17341152f, -0.11719846f, 0.03352863f, -0.19917446f, 0.25901768f, 
    0.12036116f, -0.49751371f, -0.00699386f, 0.20218609f, 0.28775769f, -0.08318914f, 0.78385890f, -0.03307627f, 
    -0.14692399f, 0.32134107f, 0.11519345f, 0.28080633f, -0.03852970f, -0.00326328f, 0.08497923f, -0.33664504f, 
    0.08690082f, 0.16415012f, 0.04423039f, 0.25122541f, -0.40516490f, -0.26277611f, -0.06031829f, -0.35240620f, 
    0.03919771f, -0.52179503f, 0.32914370f, -0.06988346f, 0.07597537f, -0.27655220f, 0.25549802f, 0.10936905f, 
    -0.10820245f, -1.03041458f, -0.03398085f, -0.33024058f, 0.06089279f, 0.61717999f, 0.49519318f, 0.17747752f, 
    0.11826872f, 0.02732305f, 0.28467056f, -0.07607421f, 0.16749234f, 0.22018538f, 0.20965953f, 0.45393950f, 
    -0.19537799f, 0.10013957f, 0.16282259f, -0.17377244f, 0.52654845f, 0.13845502f, 0.14088550f, 0.24056633f, 
    0.06535771f, -0.03071352f, -0.07764687f, 0.11655214f, 0.05129646f, -0.01813111f, 0.01156466f, -0.00452527f, 
    -0.09951341f, 0.06043904f, -0.07247676f, -0.00274042f, -0.12829199f, 0.17257352f, 0.20180511f, -0.03425384f, 
    -0.02041757f, 0.03099945f, 0.06116475f, 0.04082996f, -0.03357256f, 0.03832459f, -0.06562890f, -0.02417344f, 
    -0.17599493f, 0.10095820f, 0.00703564f, 0.17594463f, -0.02743208f, 0.02135236f, 0.08722860f, 0.09442555f, 
    -0.00146945f, -0.05640883f, -0.04496758f, 0.10544477f, 0.14986888f, 0.01041772f, -0.11050033f, 0.11597266f, 
    -0.04272261f, -0.05834043f, 0.14214490f, -0.06414441f, -0.10102311f, 0.00089451f, 0.14467977f, 0.03320450f, 
    0.05253895f, -0.03254008f, -0.04076509f, -0.01849320f, 0.03728574f, 0.02813274f, 0.04109395f, -0.21944587f, 
    0.05894366f, 0.04573055f, 0.00821910f, 0.10923219f, 0.00519982f, -0.11867139f, 0.07611228f, -0.06791536f, 
    0.03631396f, -0.00213536f, 0.05068753f, 0.04454141f, -0.04652861f, 0.06262106f, 0.08553646f, 0.05432972f, 
    -0.01446716f, 0.03126250f, 0.02711538f, 0.16352618f, -0.14371982f, -0.13791682f, -0.07647966f, 0.02631449f, 
    -0.06664139f, -0.01398965f, 0.10407814f, -0.02929144f, 0.13339275f, -0.02703497f, -0.03838595f, -0.08086198f, 
    0.13529557f, -0.08580922f, -0.09745858f, 0.05133159f, -0.05934058f, 0.02435128f, 0.00997322f, -0.01257345f, 
    -0.02400658f, 0.10786946f, -0.02636941f, -0.06638004f, -0.09423905f, -0.04065676f, 0.07159089f, -0.14525492f, 
    0.00297344f, -0.10637162f, -0.03981212f, 0.03748162f, -0.06038849f, 0.04703870f, 0.02319483f, -0.00166604f, 
    0.02659663f, 0.03838016f, 0.02843585f, 0.04057845f, -0.14209045f, -0.12225784f, 0.01904014f, -0.12403224f, 
    -0.01852336f, 0.24940965f, 0.06662603f, -0.01297970f, -0.10079050f, 0.00776683f, 0.01655534f, -0.05473158f, 
    -0.08782285f, 0.23637977f, -0.75164664f, 0.12657584f, -0.35018107f, -0.07915282f, -0.13381289f, -0.13291845f, 
    -0.05480333f, 0.88799882f, 0.11647403f, 0.00975410f, -0.25974733f, -0.08122265f, -0.75577748f, 0.00999780f, 
    0.33419013f, 0.33546036f, 0.83333397f, 0.00824373f, -0.13373673f, 0.06460801f, -0.00871644f, 0.01523280f, 
    0.03840894f, -0.09225358f, 0.16485590f, -0.10090210f, 0.25345856f, 0.11635314f, 0.17140082f, 0.10411941f, 
    -0.02082973f, -0.81052041f, 0.05676054f, 0.06679424f, -0.09556308f, 0.26378465f, 0.01949668f, -0.03877017f, 
    0.09904940f, 0.38857090f, 0.10584710f, 0.12213451f, -0.14406210f, -0.22768177f, -0.31893077f, 0.22598132f, 
    0.11355276f, -0.12648264f, 0.19491202f, 0.03140439f, -0.13291195f, -0.65552622f, -0.04060483f, -0.01208222f, 
    -0.29425558f, -0.22194064f, -0.15540634f, 0.00608956f, 0.50685972f, -0.02337182f, -0.16656093f, -0.20041813f, 
    -0.07576216f, 0.06734422f, -0.16886868f, -0.16799882f, -0.05327138f, 0.07537893f, -0.05734763f, -0.08510467f, 
    0.09005766f, 0.01006064f, -0.05732839f, -0.03037361f, -0.19076008f, 0.05704230f, -0.00585190f, -0.03653577f, 
    0.06984384f, 0.06916783f, -0.16071823f, 0.09439524f, -0.07705126f, 0.04877881f, 0.02131177f, -0.05881195f, 
    0.08920760f, -0.05811610f, 0.13346055f, 0.00366523f, 0.02365068f, 0.02584470f, 0.04581758f, -0.03179825f, 
    -0.01485963f, 0.10646158f, -0.05020413f, 0.03425331f, -0.02337316f, -0.08230486f, -0.03975509f, -0.12607375f, 
    0.07821007f, -0.09627286f, -0.08861735f, 0.02056965f, 0.08435360f, 0.04347476f, -0.08891028f, -0.01452514f, 
    -0.02314299f, 0.16806595f, -0.02379776f, -0.14712611f, 0.08555584f, 0.15273291f, 0.05875409f, -0.04923734f, 
    0.09820177f, -0.02214135f, 0.06165331f, -0.00182338f, 0.05857569f, -0.00663728f, 0.02050078f, -0.08192122f, 
    -0.04460693f, -0.04165649f, 0.09626304f, -0.00614053f, 0.07741967f, -0.08629763f, 0.00781438f, -0.11218543f, 
    0.13926853f, -0.18540655f, 0.03152049f, 0.03667272f, 0.08309913f, -0.05010979f, -0.00618403f, -0.11938136f, 
    -0.07393157f, 0.10586634f, 0.05141979f, -0.01359773f, 0.01415805f, -0.03556347f, -0.01807436f, -0.07226028f, 
    0.07795989f, 0.00423737f, -0.00200043f, 0.09078433f, -0.05876132f, -0.05712092f, -0.01307725f, -0.01144720f, 
    -0.11169709f, 0.00158250f, -0.08041271f, -0.07506730f, -0.02264019f, 0.20581456f, 0.02414225f, -0.16989906f, 
    -0.04406741f, 0.10584152f, 0.05237975f, -0.02099177f, 0.06904273f, -0.24010402f, -0.00479830f, 0.04854605f, 
    0.00327979f, 0.07399390f, -0.04491566f, -0.06262676f, 0.00134395f, 0.00481088f, 0.00673034f, 0.06752817f, 
    0.00736454f, -0.12739336f, 0.16122803f, 0.01650469f, 0.08683059f, 0.08398896f, 0.04938272f, -0.02948229f, 
    -0.27622563f, -0.22663490f, 0.15342779f, 0.43076080f, -0.41564572f, 0.65662640f, -0.32504863f, 0.28544953f, 
    -0.12298884f, 0.03317215f, -0.54450160f, 0.07103932f, 0.26172256f, 0.38720867f, -0.10695659f, -0.17440389f, 
    -0.11119494f, -0.02137691f, 0.39598510f, 0.31410208f, -0.34881261f, 0.28873968f, -0.04127819f, -0.43894964f, 
    0.27374905f, 0.26282141f, -0.31757745f, 0.39215592f, 0.37731937f, -0.05923587f, 0.03289310f, -0.09212034f, 
    -0.09688774f, -0.10468373f, 0.05956142f, 0.03678747f, -0.00488327f, 0.21462640f, -0.03156172f, 0.43257004f, 
    0.07563294f, 0.08329173f, 0.15115482f, -0.14021830f, 0.16614901f, -0.06169119f, 0.23942693f, -0.11711208f, 
    -0.11248025f, 0.49112761f, 0.15944830f, 0.11895154f, 0.12651107f, -0.12181330f, 0.28561077f, 0.06586808f, 
    -0.73309177f, 0.36150765f, 0.27797428f, -0.62899315f, -0.10446067f, 0.15574633f, 0.24081749f, -0.13369487f, 
    -0.11888035f, -0.06911652f, -0.13701476f, -0.05673691f, -0.06273778f, -0.02447155f, -0.00241340f, 0.01713434f, 
    0.04270538f, -0.04971283f, -0.09362613f, -0.11992467f, 0.03189571f, -0.03571832f, -0.12654169f, 0.10551595f, 
    -0.05221998f, -0.10062557f, -0.01035470f, 0.08603729f, 0.07769103f, -0.10612114f, -0.13647370f, 0.16249856f, 
    -0.03079856f, -0.08575314f, 0.05859539f, -0.04852759f, 0.02960115f, -0.02962087f, -0.08483263f, -0.07229462f, 
    -0.00414136f, -0.02124861f, -0.07791578f, -0.00939483f, -0.02829281f, -0.09454547f, 0.07316185f, -0.08782608f, 
    0.01057761f, 0.10860052f, -0.16322412f, 0.00935063f, 0.10121025f, -0.00994483f, -0.02436794f, 0.07994895f, 
    -0.04229499f, 0.12136554f, 0.10600592f, 0.08744164f, 0.08999873f, -0.02618012f, -0.00399757f, 0.16212845f, 
    -0.08987948f, -0.04431418f, -0.19943318f, 0.07197775f, -0.03391240f, 0.09989445f, -0.01498934f, 0.00225725f, 
    -0.07806422f, 0.03419708f, -0.09990020f, -0.12543236f, 0.02083868f, 0.00626371f, 0.00442190f, 0.01876748f, 
    0.06368498f, -0.04709562f, -0.04757004f, -0.11704257f, 0.02195830f, 0.10179851f, -0.01315999f, -0.08592439f, 
    -0.12504029f, 0.07402875f, -0.17433947f, -0.12366476f, -0.04434569f, 0.17179228f, -0.02543328f, -0.13230339f, 
    -0.05051234f, 0.02942944f, 0.06921379f, 0.11164487f, 0.04401143f, 0.05757478f, 0.00080394f, -0.13934624f, 
    -0.04658097f, 0.00979298f, 0.00541568f, -0.05934769f, 0.12457537f, -0.00959262f, 0.01685348f, -0.10010153f, 
    0.04313355f, -0.01172592f, -0.00094051f, 0.24077345f, 0.10101800f, 0.02141865f, 0.05825112f, -0.01669445f, 
    0.06423095f, -0.07573331f, -0.05144791f, -0.07272913f, -0.02955884f, 0.09398164f, -0.02901038f, 0.00305904f, 
    0.08254216f, -0.22878830f, 0.24984580f, -0.01641112f, -0.03015457f, 0.13390946f, 0.05827360f, -0.02579930f, 
    -0.08541554f, 0.00196528f, 0.01355216f, -0.09780379f, 0.04547657f, -0.02876965f, -0.03954570f, -0.09774034f, 
    0.07066078f, -0.05754112f, 0.03292568f, 0.05829864f, -0.15335871f, -0.00145133f, 0.05313605f, -0.03535801f, 
    -0.04628898f, 0.01836756f, 0.01325239f, 0.04347074f, 0.13469465f, -0.11804450f, 0.16870956f, 0.01518384f, 
    0.02990965f, -0.01148809f, -0.08309373f, 0.03755071f, 0.02786612f, 0.03784862f, -0.08675554f, 0.09563207f, 
    -0.10527707f, 0.11852767f, 0.08853805f, 0.12906778f, -0.07525638f, -0.01040674f, 0.02552991f, -0.04989780f, 
    0.05172925f, -0.08513178f, -0.11523408f, -0.01301451f, -0.07746034f, -0.00487882f, 0.07522170f, 0.02374122f, 
    0.09590555f, -0.11365953f, -0.05148653f, -0.02475047f, -0.02554556f, -0.06537146f, -0.09364975f, 0.01636106f, 
    -0.04600297f, -0.04754364f, 0.11502919f, -0.05050345f, 0.06100900f, -0.12039665f, 0.09888712f, 0.18158819f, 
    -0.16489942f, 0.17668174f, 0.09775067f, -0.03321504f, 0.11131833f, 0.08827171f, -0.00241540f, -0.04062788f, 
    0.17096151f, -0.09547404f, -0.04184825f, 0.04589554f, -0.04933532f, 0.07928699f, -0.03042969f, 0.10970543f, 
    -0.14396355f, 0.15160559f, 0.04246452f, -0.09177970f, 0.03061873f, 0.07859865f, 0.06029230f, 0.01303002f, 
    0.20397916f, -0.03940640f, 0.01238600f, 0.03225775f, 0.03765134f, -0.08563769f, 0.12453648f, -0.06900271f, 
    -0.16124098f, 0.06957534f, 0.12203464f, 0.11637265f, -0.01597394f, 0.14733042f, 0.05449865f, 0.01862338f, 
    -0.14159021f, 0.00762423f, -0.00382806f, 0.07359707f, 0.07878995f, -0.10927983f, 0.00717523f, 0.10273340f, 
    0.10056271f, -0.24277520f, -0.23993726f, -0.19822010f, 0.02947906f, -0.08220837f, -0.02048641f, 0.09173898f, 
    -0.00634718f, -0.00402131f, 0.23214166f, -0.00038689f, -0.02698372f, 0.05314701f, -0.04682289f, 0.33908921f, 
    -0.01732098f, -0.08397436f, 0.02443539f, 0.06043577f, -0.07356399f, 0.07204295f, -0.10198179f, 0.04218524f, 
    0.03170526f, 0.13495806f, 0.08507317f, -0.10233508f, -0.02568601f, 0.05223337f, 0.08630718f, 0.09243292f, 
    0.07986156f, -0.03950013f, 0.05681756f, -0.04665185f, -0.02741745f, 0.00507681f, 0.08291323f, 0.06215895f, 
    0.10635991f, -0.07275616f, 0.07103659f, -0.02369335f, -0.02325119f, 0.02492331f, 0.12615094f, 0.12900320f, 
    -0.03331561f, 0.03436072f, 0.13488889f, -0.09014235f, 0.02182584f, -0.11250187f, 0.09106456f, -0.04547131f, 
    0.05271913f, 0.00171000f, 0.01957563f, 0.08676066f, -0.05284269f, -0.05831818f, 0.15672436f, -0.06546946f, 
    0.05186743f, -0.03321768f, 0.13625674f, 0.06362389f, 0.00773085f, -0.03491586f, 0.03946101f, 0.01533640f, 
    0.10651454f, 0.08255334f, -0.02237689f, 0.05280896f, 0.03742811f, -0.12288544f, -0.05523742f, 0.14026897f, 
    -0.15325157f, 0.07225024f, 0.50345737f, 0.17706561f, -0.34652358f, 0.02658498f, 0.06642254f, 0.30605108f, 
    -0.24306849f, -1.36122108f, 0.18903153f, -0.00233625f, 0.32215640f, 0.19629033f, 0.82078469f, 0.07284565f, 
    -0.17277277f, -0.06568523f, 0.04587570f, 0.18952315f, -0.01031042f, 0.13561574f, 0.18711808f, -0.41529873f, 
    0.13392012f, -0.21084364f, 0.29781649f, -0.17093913f, 0.20560983f, -0.05629453f, 0.01770850f, -0.16949895f, 
    -0.18867001f, 0.17776375f, 0.24897178f, 0.10683308f, -0.02211405f, -0.11855247f, 0.02407580f, -0.06748547f, 
    -0.21481790f, -0.83192343f, 0.17151548f, -0.28467137f, 0.28013733f, 0.54514921f, 0.22780101f, 0.20214474f, 
    0.17982221f, 0.00817691f, -0.38621694f, 0.00696596f, -0.11318298f, 0.59653085f, -0.00411279f, 0.35063750f, 
    -0.06141834f, -0.08831740f, -0.22251841f, -0.04391892f, -0.07073811f, 0.07082365f, -0.22560938f, -0.07504599f, 
    0.09252612f, 0.15737280f, 0.02818579f, 0.04110196f, -0.03034417f, -0.02838907f, -0.03360325f, -0.04502140f, 
    -0.08144417f, 0.00629262f, 0.06790106f, -0.01228981f, -0.08723828f, 0.12832910f, 0.07911981f, 0.05095349f, 
    0.11642914f, 0.00602662f, 0.08967110f, 0.01700266f, 0.02834007f, -0.08738754f, -0.02595295f, 0.13552338f, 
    0.00026396f, -0.01222399f, 0.07619797f, 0.06212179f, -0.07017606f, -0.05702513f, 0.12649982f, 0.10093856f, 
    0.07651701f, 0.11848209f, -0.12312819f, 0.07335550f, -0.00629780f, 0.00864158f, 0.00415057f, -0.15481287f, 
    -0.10507294f, -0.04335518f, 0.02179259f, -0.12037867f, -0.12644947f, 0.12651819f, -0.05950105f, -0.09763677f, 
    0.05059918f, 0.04614876f, -0.05130150f, -0.00094230f, -0.05715651f, -0.01229606f, -0.23693319f, 0.01204690f, 
    0.02993618f, 0.20486055f, 0.04117414f, -0.08285255f, 0.09616695f, -0.10053956f, 0.12956657f, 0.15950529f, 
    0.02498294f, 0.08667692f, 0.20453866f, -0.03766287f, -0.09318038f, -0.13285710f, -0.20884573f, 0.03514479f, 
    -0.03562982f, -0.03194375f, 0.05148078f, 0.11899133f, -0.18312539f, -0.15130129f, -0.16838893f, -0.03079741f, 
    -0.02697810f, 0.12040469f, 0.38360360f, 0.00900442f, 0.21705720f, -0.02130629f, 0.16099188f, -0.09839896f, 
    0.01771472f, 0.08094650f, 0.06929332f, 0.22391266f, -0.02603425f, -0.16066308f, 0.06461038f, -0.10386126f, 
    -0.14271879f, 0.28373739f, -0.16939831f, -0.20035459f, -0.23319224f, -0.01045283f, 0.21302220f, 0.10946810f, 
    -0.11490510f, -0.09037701f, -0.01940978f, 0.17896515f, -0.10762988f, -0.10245092f, 0.17750765f, 0.01623742f, 
    0.15078150f, 0.03344755f, -0.06692793f, -0.15314592f, -0.00810267f, -0.01682665f, -0.00132202f, -0.09658166f, 
    0.21455032f, -0.02748078f, 0.17342108f, 0.08052967f, -0.04683733f, 0.17917779f, 0.13091378f, 0.14024653f, 
    0.03053003f, 0.02801367f, -0.01881360f, 0.02845851f, 0.02040599f, 0.04959634f, -0.01346070f, -0.07300543f, 
    0.20402160f, -0.01351644f, -0.00446192f, -0.04841661f, -0.08975115f, 0.09057236f, -0.04634891f, 0.04020228f, 
    -0.00646456f, 0.02503662f, -0.06186368f, 0.05816403f, -0.08980052f, 0.01580284f, 0.01747673f, -0.12535882f, 
    0.00718270f, 0.04840635f, 0.07564856f, 0.04244012f, -0.01174026f, 0.01307784f, -0.00852798f, -0.01158394f, 
    -0.00954245f, -0.05830361f, 0.17795654f, -0.13836488f, -0.02334751f, -0.08938706f, -0.05982307f, -0.09799393f, 
    0.04439211f, 0.06065322f, -0.01515468f, -0.04785579f, -0.02439690f, 0.03222277f, 0.08942866f, 0.06169594f, 
    -0.00274688f, 0.09143539f, 0.00510830f, -0.05744798f, -0.03131615f, 0.02788780f, 0.13550220f, 0.03296230f, 
    -0.05893753f, 0.06849542f, 0.04366447f, 0.09838022f, -0.10526098f, -0.00252079f, 0.17412509f, -0.03420088f, 
    -0.09267148f, -0.37813500f, 0.17795126f, -0.38968146f, 0.15872456f, -0.01821988f, 0.22024447f, -0.28301686f, 
    -0.21232790f, -0.93439519f, -0.01603372f, 0.41865990f, 0.25663361f, -0.04742319f, 0.55417150f, -0.05305956f, 
    -0.14967299f, -0.13578597f, 0.05642018f, -0.41650903f, 0.17811646f, -0.25673789f, -0.00810439f, -0.21608396f, 
    -0.20425184f, -0.14567316f, -0.02915623f, -0.03567076f, 0.11740289f, 0.20707586f, 0.10101026f, -0.01428199f, 
    0.12086458f, 0.59092146f, 0.20481429f, -0.20590200f, 0.07883269f, -0.06188657f, -0.07341157f, -0.21279316f, 
    0.22497031f, -0.69298685f, -0.37597463f, -0.07862779f, -0.10995508f, 0.06723841f, 0.13693000f, 0.10743765f, 
    -0.10232076f, 0.06597314f, -0.49106821f, 0.07742371f, 0.11436249f, 0.42936870f, 0.17168909f, 0.24000740f, 
    -0.10337569f, -0.01411034f, -0.07487594f, 0.01944868f, -0.12925489f, 0.10265332f, -0.00666726f, -0.10383804f, 
    0.02862886f, -0.04896383f, -0.27555802f, 0.06672273f, 0.20275126f, 0.10997020f, -0.28239143f, 0.01120319f, 
    0.12151270f, 0.34207642f, -0.05187918f, 0.16978040f, 0.00686592f, -0.13341454f, -0.66561949f, -0.00684298f, 
    -0.25017184f, 0.01548655f, 0.04929725f, 0.11676745f, 0.08223937f, -0.12091863f, -0.14133622f, 0.21358807f, 
    -0.03166429f, 0.04426384f, -0.10714095f, 0.19354348f, 0.16449307f, 0.28910300f, -0.20986791f, 1.26470900f, 
    -0.00356603f, 0.87234879f, 0.06514499f, 0.09131057f, -0.11935914f, -0.23038134f, 0.04722583f, 0.17775171f, 
    0.00467055f, 0.64639616f, -0.07135434f, 0.19744173f, -0.03155467f, -0.05117073f, 0.03750388f, -0.24824925f, 
    -0.07467965f, 0.28864062f, -0.40652299f, 0.17371099f, 0.29068771f, -0.36232722f, 0.00380178f, -0.06637978f, 
    -0.17543614f, 0.03384186f, -0.02379318f, 0.01639339f, -0.31876677f, 0.09023576f, -0.09607518f, -0.02004807f, 
    -0.02987133f, 0.14606249f, -0.00206602f, 0.00630200f, -0.01671226f, -0.09540432f, -0.02278935f, -0.02309236f, 
    -0.06774853f, 0.05404510f, -0.04990289f, -0.10793822f, 0.03995554f, 0.09488709f, 0.11915272f, 0.14258927f, 
    -0.02376035f, 0.08520281f, 0.08817022f, 0.03103214f, -0.13827024f, 0.10951182f, -0.04526741f, 0.01980871f, 
    -0.01191350f, -0.04050810f, 0.15325511f, -0.04759169f, 0.09559498f, -0.05884028f, 0.04748396f, 0.05563208f, 
    0.00943822f, -0.01137214f, -0.05647785f, -0.01900371f, -0.11689346f, 0.10298693f, -0.01746647f, -0.14151785f, 
    0.06739871f, 0.01303106f, 0.01975855f, -0.09253206f, 0.01097754f, -0.08502298f, 0.04788577f, -0.01930779f, 
    0.00063116f, 0.08831400f, -0.02208978f, 0.00566696f, -0.00798236f, -0.05512310f, -0.01779578f, 0.05406719f, 
    -0.00965546f, 0.06001654f, 0.06762689f, 0.07212374f, 0.05931364f, 0.04864614f, -0.00442440f, 0.05411099f, 
    0.07857277f, -0.06096270f, 0.13124654f, -0.05299291f, -0.04289213f, 0.09882820f, -0.15734026f, -0.11538571f, 
    0.04598551f, 0.09325245f, -0.07547984f, 0.02542385f, -0.23136523f, 0.05721416f, 0.18658605f, -0.10877305f, 
    0.10044786f, -0.05813021f, -0.05761670f, 0.04126900f, -0.09204970f, -0.05702602f, -0.19803840f, 0.03386953f, 
    -0.15525690f, 0.09314737f, 0.05601247f, -0.08337920f, -0.12934397f, 0.05341132f, -0.04985808f, -0.00431643f, 
    0.19176166f, -0.10567293f, -0.09642275f, 0.03461989f, -0.02216454f, -0.29664204f, -0.05387129f, 0.14236122f, 
    0.13746612f, 0.18688244f, -0.18060832f, -0.01911306f, 0.02614739f, 0.07033935f, 0.00857508f, 0.29080465f, 
    -0.05167485f, 0.03148422f, -0.15579997f, 0.01296546f, 0.11380555f, 0.00697334f, 0.07181639f, -0.10066458f, 
    -0.07788979f, -0.08764154f, -0.14225374f, 0.07462183f, 0.09080111f, 0.00777993f, -0.02965513f, 0.02886390f, 
    -0.08985652f, 0.06196719f, 0.04910474f, -0.13406898f, 0.32775280f, 0.14538087f, 0.10011289f, -0.02746084f, 
    0.09997717f, -0.40864840f, -0.06672501f, -0.22342677f, 0.11639708f, 0.12604561f, 0.11398531f, -0.12944327f, 
    0.23091038f, 0.33139259f, 0.30813384f, -0.03436927f, 0.25658995f, 0.08519908f, -0.15777108f, 0.10584476f, 
    -0.04092008f, 0.21219260f, 0.23018558f, 0.01258304f, 0.01852419f, 0.34199503f, -0.22062679f, 0.22159564f, 
    0.06165830f, 0.71102756f, -0.04559656f, -0.14532588f, -0.18283500f, 0.14225034f, 0.11135236f, -0.43176955f, 
    -0.00245502f, 0.45368046f, -0.02569081f, 0.51935935f, -0.24592957f, -0.04616588f, 0.26738840f, 0.09921934f, 
    -0.00510193f, -0.19420052f, -0.01961822f, -0.13094725f, -0.14009242f, 0.17719775f, 0.07931749f, -0.64137316f, 
    -0.15705197f, -0.08983494f, 0.03318493f, -0.29354724f, -0.37968588f, -0.07555709f, 0.00891822f, -0.06188837f, 
    0.08854490f, 0.03803965f, 0.15017872f, -0.22248699f, 0.02623540f, -0.16330691f, 0.00845263f, -0.10667665f, 
    0.10538268f, -0.09701159f, 0.06157406f, 0.05901882f, 0.21093242f, -0.03683600f, -0.03862944f, 0.14621449f, 
    -0.13024901f, -0.01324117f, -0.34026271f, 0.23428614f, 0.05696958f, -0.19638269f, -0.17574751f, -0.20015454f, 
    -0.13465719f, 0.14791770f, 0.08023881f, -0.07011840f, -0.07804888f, 0.06577171f, -0.01226598f, -0.10780223f, 
    0.18126787f, -0.18256009f, -0.08659897f, -0.09921266f, -0.01737691f, 0.00503613f, -0.07162764f, 0.01856751f, 
    0.03144941f, 0.02565272f, -0.11886629f, 0.13834739f, -0.01588646f, -0.12363147f, -0.03343130f, -0.27566200f, 
    -0.10036694f, -0.00721360f, 0.16566274f, 0.14421844f, -0.01193350f, 0.07640927f, -0.06296869f, 0.08688778f, 
    -0.05587567f, -0.02743593f, -0.16603099f, -0.15282471f, -0.06972308f, -0.12362605f, -0.03153544f, -0.02815658f, 
    0.14552166f, 0.13960749f, -0.00031811f, -0.08520063f, 0.04093447f, -0.02686979f, 0.06160485f, -0.05387156f, 
    0.05845215f, -0.09520219f, -0.03529867f, -0.01665717f, -0.04908719f, 0.00069569f, 0.10639851f, -0.07968957f, 
    0.02801030f, 0.00285878f, -0.03824767f, -0.00468138f, -0.11370125f, 0.04783069f, 0.08601284f, -0.04678551f, 
    -0.12563443f, -0.01519789f, -0.08020972f, 0.05290474f, 0.10582012f, 0.09918474f, -0.06461540f, -0.08265750f, 
    -0.11672831f, 0.03119853f, 0.00100312f, 0.02724836f, 0.00415459f, 0.07384625f, 0.09426865f, 0.18022910f, 
    -0.05856503f, -0.03962754f, -0.04859453f, -0.07619511f, -0.01801437f, 0.06208710f, -0.03478039f, -0.01849189f, 
    -0.04023470f, 0.11998975f, 0.05901824f, -0.15347697f, 0.05001518f, 0.07822775f, 0.05189127f, -0.17081365f, 
    0.07223692f, 0.03838581f, 0.09385606f, 0.11663127f, -0.09710816f, -0.00372784f, 0.04675689f, -0.02826172f, 
    0.07736802f, 0.00399149f, -0.09549487f, -0.08456466f, 0.05754611f, 0.13109691f, -0.03959239f, -0.06698232f, 
    0.01836753f, 0.03395724f, 0.17802097f, 0.02287247f, 0.01027411f, 0.06388545f, 0.06795397f, 0.03730749f, 
    0.05322221f, 0.02418132f, -0.01532056f, 0.10507082f, 0.09668989f, -0.04361364f, -0.01628154f, -0.05827248f, 
    0.10577280f, -0.10954560f, 0.04050319f, -0.02535388f, -0.04619407f, 0.07301563f, -0.06545012f, 0.10144951f, 
    0.09825762f, 0.06934343f, 0.02064182f, -0.02411915f, -0.07026584f, 0.04599774f, -0.09811302f, 0.03449100f, 
    0.01048031f, -0.02906253f, 0.02050332f, -0.00981525f, 0.05115435f, 0.02135782f, -0.06552023f, -0.00166923f, 
    -0.08650021f, 0.09110589f, 0.03721578f, -0.06449232f, -0.02063989f, 0.08794315f, -0.12775400f, 0.06033796f, 
    0.02841499f, 0.00072038f, -0.10235126f, -0.12976214f, 0.12798661f, -0.18904328f, 0.03308025f, 0.13707055f, 
    -0.02318196f, 0.15285315f, -0.79667747f, 0.21524513f, 0.31190127f, 0.24975002f, -0.21444951f, -0.05500876f, 
    -0.12810609f, 0.24987318f, 0.05888113f, 0.03946684f, -0.05278104f, -0.03010060f, 0.30867767f, 0.03880046f, 
    0.32636318f, 0.04053263f, 0.73493671f, 0.25199628f, -0.22975807f, 0.11547486f, 0.27278164f, 0.03460772f, 
    0.15077379f, -0.04029011f, -0.13533755f, 0.08630043f, 0.32467332f, 0.14311540f, 0.38449314f, -0.49861199f, 
    -0.25877687f, -0.83709353f, 0.44775116f, -0.00363959f, -0.02709517f, 0.00775998f, 0.15699238f, -0.07472571f, 
    -0.11648667f, 0.50267011f, 0.15032756f, 0.62524837f, -0.31558383f, -0.21881342f, 0.27002546f, 0.12021863f, 
    -0.18646824f, 0.24039568f, 0.11603411f, 0.05736654f, 0.01216032f, -0.33534342f, -0.02297220f, -0.30995858f, 
    -0.12327018f, -0.24457623f, 0.08130562f, -0.02649133f, 0.11064884f, 0.26406172f, 0.25083193f, 0.10385613f, 
    0.04634735f, 0.21269229f, -0.74523395f, 0.15070626f, 0.28997713f, -0.18196197f, 0.01039498f, -0.03319109f, 
    0.16626434f, 0.29476458f, -0.05044298f, 0.22317621f, 0.20048060f, -0.03281197f, -0.42199746f, 0.22281301f, 
    0.08254658f, 0.31905916f, 0.35001904f, 0.15425153f, -0.13008983f, -0.01890189f, 0.00428797f, 0.24948454f, 
    0.08003189f, 0.10215963f, -0.30927736f, -0.01355128f, 0.49656361f, 0.21339162f, 0.07887039f, -0.02884377f, 
    0.03713433f, 0.45132864f, 0.11196920f, 0.06991871f, 0.06565837f, -0.26554403f, 0.18105644f, -0.22947827f, 
    0.01039866f, 1.23954797f, 0.00881882f, 0.77425218f, -0.12864499f, -0.29025063f, 0.20419505f, -0.43728754f, 
    -0.18285304f, 0.17374434f, -0.19024177f, 0.01293049f, -0.05827064f, -0.15290062f, -0.03052199f, -1.24403358f, 
    -0.27425104f, 0.63856065f, 0.20696864f, -0.06028400f, -0.01144663f, 0.06494954f, -0.03420318f, -0.13353977f, 
    0.02520859f, -0.03878669f, -0.26441419f, -0.07112909f, 0.22375517f, 0.03627911f, -0.03423215f, 0.06378052f, 
    0.03698580f, 0.02131961f, -0.03956523f, -0.09843769f, 0.01011598f, -0.07762291f, -0.06775103f, 0.16396311f, 
    -0.00006356f, -0.08142149f, -0.15147541f, 0.00876006f, -0.06726436f, -0.06694607f, 0.09643438f, -0.20270473f, 
    0.13775390f, 0.06826945f, -0.11038650f, 0.04535531f, 0.09058125f, 0.03393225f, -0.09193078f, -0.08323135f, 
    0.04110956f, 0.05301352f, 0.06846423f, 0.23506743f, -0.10617757f, 0.09244450f, -0.05196474f, 0.03714909f, 
    -0.11001855f, -0.14774002f, -0.10923502f, -0.26509964f, -0.08273504f, -0.05137773f, -0.06439149f, 0.00046254f, 
    -0.10036719f, 0.12225225f, 0.08597411f, 0.07385928f, 0.19501476f, 0.11092676f, -0.15772259f, -0.03671975f, 
    -0.20020252f, -0.13023461f, -0.23227377f, 0.03700848f, -0.24697345f, -0.07099234f, -0.01245382f, 0.09392950f, 
    0.08239439f, 0.08136856f, 0.02461867f, -0.02631937f, 0.03158302f, -0.10221899f, -0.02889239f, 0.08277714f, 
    -0.08443291f, -0.10420999f, 0.05215783f, -0.05967721f, -0.08486316f, -0.02073881f, -0.00786910f, 0.00338347f, 
    0.00309738f, -0.00399456f, 0.01212906f, 0.10862089f, -0.12392104f, -0.02394561f, 0.02014489f, 0.09771217f, 
    -0.00582009f, -0.08244913f, 0.09174413f, -0.16723368f, -0.10793932f, -0.07780660f, -0.00647777f, 0.15542600f, 
    -0.12677470f, -0.14298211f, -0.06665885f, 0.07974026f, 0.03966703f, 0.11758098f, 0.01308704f, -0.08439287f, 
    0.09080960f, 0.04854678f, 0.10245341f, -0.03089744f, 0.07000845f, -0.01340083f, 0.04703077f, 0.02268110f, 
    -0.05921485f, 0.02973424f, 0.05561090f, 0.00198299f, -0.02311059f, 0.00436894f, -0.02813621f, 0.02579381f, 
    -0.12894234f, -0.01806513f, 0.04570014f, 0.04665581f, -0.01742585f, -0.08754554f, -0.02631668f, -0.02771066f, 
    -0.10150634f, 0.03855572f, -0.00141486f, -0.14157595f, -0.09503537f, -0.14906232f, -0.01764530f, -0.03455583f, 
    -0.03994115f, -0.05831993f, -0.02558606f, 0.01283196f, 0.11964787f, -0.00112133f, 0.14288075f, 0.05756967f, 
    0.00560900f, -0.12198331f, -0.04732260f, -0.05448349f, -0.09023488f, 0.06421171f, 0.12139725f, 0.01409187f, 
    -0.03252969f, 0.01361026f, 0.02485787f, 0.02347912f, -0.10528161f, -0.04692370f, 0.14233105f, 0.17714182f, 
    -0.12980649f, -0.00475693f, -0.10075199f, 0.08053266f, -0.04976122f, -0.15775841f, 0.03242014f, 0.09958713f, 
    -0.02305588f, -0.04744392f, -0.09133194f, 0.14575361f, -0.02237257f, -0.11144957f, 0.03481415f, -0.01934731f, 
    0.04627945f, -0.01297027f, -0.03014483f, -0.01208120f, -0.07870888f, 0.03521810f, 0.01329849f, -0.14393437f, 
    0.04724575f, 0.00557081f, 0.06575353f, -0.14820667f, 0.15157011f, -0.06411034f, 0.03107699f, -0.04587305f, 
    0.10329700f, -0.32208842f, -0.43681678f, -0.08817016f, 0.30007473f, 0.12491799f, 0.41036606f, -0.05816987f, 
    0.02977025f, 0.35876220f, 0.09409982f, 0.13011865f, -0.23075745f, -0.03422946f, 0.12241106f, 0.36198229f, 
    -0.10382771f, -0.63272119f, -0.39510611f, -0.13186406f, 0.03059297f, -0.04367693f, 0.10042291f, -0.09308210f, 
    0.02124245f, 0.05971292f, -0.36618412f, 0.06704364f, -0.35836467f, -0.05171836f, 0.26841232f, -0.14177378f, 
    -0.02272678f, -1.17433047f, -0.39536342f, -0.01359751f, 0.11605895f, -0.10903350f, 0.12851298f, 0.17535883f, 
    -0.12871081f, -0.77617222f, -0.08915754f, -0.10454226f, 0.11807426f, -0.16393238f, -0.24368729f, -0.49984697f, 
    -0.33324191f, -0.25984421f, -0.25629973f, 0.13165487f, -0.11669265f, -0.63280219f, 0.07299627f, 0.87555361f, 
    0.31126168f, 0.19417582f, 0.42478734f, 0.11013700f, 0.42495459f, 0.07989796f, 0.01709078f, -0.14346354f, 
    0.22182673f, -0.24157047f, 0.09703602f, -0.16093636f, 0.15802814f, 0.07493123f, -0.09880684f, -0.11314850f, 
    0.03028346f, 0.02805677f, 0.11673260f, -0.03303963f, -0.28080565f, -0.08201410f, -0.24502203f, 0.28226122f, 
    -0.12278883f, -0.15559886f, 0.27731824f, 0.44277203f, -0.49959004f, 0.17945692f, 0.25803855f, 0.22645815f, 
    -0.12445576f, 0.20369215f, -0.30356431f, -0.09531418f, 0.04855906f, 0.33076414f, 0.12028825f, 0.43927941f, 
    -0.03063993f, 0.59920776f, -0.01161270f, -0.04892863f, 0.38268769f, 0.08158790f, -0.03195939f, -0.14128551f, 
    0.00023431f, 0.71235073f, 0.14535594f, 0.37477586f, -0.01105445f, -0.27512473f, -0.21387002f, 0.42621189f, 
    -0.29439944f, 0.17179832f, -0.58930117f, 0.09127830f, 0.12546721f, 0.04448166f, 0.05668351f, -0.09947808f, 
    0.17447679f, 0.11770274f, -0.23673585f, -0.08343486f, -0.29328293f, 0.03281097f, 0.33169281f, -0.13700294f, 
    0.00968459f, -0.10016625f, 0.06172475f, 0.01494653f, -0.04543722f, -0.03664327f, -0.04845698f, -0.08873969f, 
    0.14544454f, -0.09118216f, -0.10512499f, -0.09985963f, -0.06834092f, 0.03175230f, -0.15147786f, -0.10579751f, 
    -0.00132743f, 0.09650207f, -0.02512113f, 0.06802773f, 0.02158298f, 0.01673211f, 0.00912448f, -0.06059315f, 
    -0.10115974f, 0.03750139f, 0.01546236f, -0.04191419f, 0.01554361f, 0.08675805f, -0.06489216f, -0.12655608f, 
    -0.04051427f, -0.12465636f, -0.07185768f, 0.06315936f, 0.14900173f, -0.14986281f, -0.13151950f, 0.02088474f, 
    0.01716464f, 0.05490917f, -0.01038811f, -0.06634083f, -0.01105661f, -0.02373768f, 0.03474478f, 0.16054800f, 
    -0.03720299f, 0.02792506f, 0.08628730f, 0.11894291f, 0.20596495f, -0.03386147f, 0.16472633f, -0.02210478f, 
    -0.03772324f, -0.06607192f, -0.07199215f, 0.21317343f, -0.14347903f, 0.05077516f, 0.04613612f, 0.07583293f, 
    0.00345801f, 0.06759762f, 0.12584752f, 0.01934597f, 0.12011702f, 0.09792556f, 0.08695369f, -0.00668793f, 
    -0.00964784f, -0.13528249f, 0.00302888f, 0.10627185f, 0.02200887f, -0.15783477f, -0.06508657f, 0.02491224f, 
    -0.00107936f, 0.17281279f, -0.13870418f, -0.09939189f, 0.03561779f, 0.06823854f, -0.02685235f, -0.13379626f, 
    -0.04577180f, -0.03529657f, -0.10589200f, -0.01700781f, 0.02953103f, -0.08860626f, -0.07301279f, -0.21691251f, 
    0.03312346f, 0.03942749f, -0.07754371f, 0.04310267f, 0.18676642f, 0.17594558f, 0.10772616f, 0.17145441f, 
    0.03756479f, 0.00769844f, 0.09906733f, 0.11489432f, 0.07587142f, -0.10179559f, -0.01219580f, 0.09223381f, 
    -0.08595859f, -0.00490391f, -0.00402548f, 0.01046881f, 0.05536465f, 0.01109978f, 0.13828416f, -0.12257204f, 
    -0.02182358f, 0.00779626f, 0.10593027f, 0.08306207f, -0.03977042f, 0.09146528f, 0.00462638f, -0.10331661f, 
    0.01278454f, 0.06030117f, 0.16530806f, 0.09937183f, -0.07142586f, 0.03267246f, -0.43573031f, 0.03314506f, 
    -0.24004075f, -0.95289356f, 0.04712808f, -0.19073445f, 0.12806115f, -0.11860815f, 0.76293391f, 0.13351350f, 
    0.18604973f, -0.08050884f, 0.29449004f, 0.16908018f, -0.00655619f, -0.05246418f, 0.04338417f, -0.19188184f, 
    -0.01958291f, -0.18690236f, -0.16223685f, 0.09059647f, 0.22574487f, -0.02549602f, 0.11471226f, -0.78364205f, 
    -0.11840925f, -0.21651450f, 0.64837897f, 0.10769590f, 0.22007994f, -0.24389249f, 0.14385512f, -0.07739989f, 
    0.02115647f, 0.21451855f, 0.00391464f, 0.25912720f, -0.03901000f, -0.36425725f, 0.02857987f, 0.31405982f, 
    0.08885381f, 0.39281929f, -0.37465227f, -0.15605158f, -0.17188285f, 0.49043792f, -0.02921670f, -0.27876461f, 
    -0.10316517f, -0.12840970f, -0.34727022f, 0.10324820f, -0.42378947f, 0.08501881f, 0.23583527f, 0.03357076f, 
    -0.00317152f, -0.08664517f, 0.50584120f, -0.18833582f, -0.00421365f, -0.09504060f, -0.05713540f, 0.19162944f, 
    0.16453293f, -0.20059632f, 0.00929634f, -0.37734121f, -0.18919769f, 0.39290205f, 0.23487483f, 0.25956449f, 
    0.38876030f, -0.00439699f, 0.40815735f, -0.17613599f, -0.17427550f, 0.01770464f, -0.00998301f, -0.31564042f, 
    0.01617888f, 0.09228648f, 0.21327680f, -0.12528168f, 0.04393021f, 0.04388490f, 0.00677931f, -0.73108810f, 
    0.15406303f, -0.01870531f, -0.19456612f, -0.17993730f, -0.17471485f, 0.11900780f, 0.19161445f, -0.18545026f, 
    -0.26007405f, -0.61140782f, -0.04324011f, -0.22002487f, 0.09867056f, -0.22863765f, -0.52954507f, -0.01329424f, 
    -0.01676882f, -0.65757859f, 0.04625748f, 0.43633673f, -0.55489588f, 0.34357756f, -0.03926530f, -0.03871301f, 
    -0.04419727f, -0.41467744f, 0.29338703f, -0.17278039f, -0.13639486f, -0.07649132f, -0.24171114f, -0.20552443f, 
    0.14055507f, 0.03576903f, 0.14506456f, 0.20865980f, -0.49407825f, 0.13531882f, 0.38756594f, -0.07027842f, 
    -0.23162657f, 0.12304994f, -0.09199998f, 0.35148957f, -0.01263742f, -0.26020563f, -0.66608834f, 0.12258068f, 
    -0.28195456f, -0.28317922f, -0.11223649f, 0.14687610f, -0.18756878f, -0.00367348f, -0.17915151f, -0.33088094f, 
    -0.13008256f, 0.07958523f, 0.35357031f, 0.13407005f, -0.12205967f, 0.31560534f, 0.03259218f, 1.24553049f, 
    0.10719737f, 0.75551254f, -0.50902182f, -0.01123731f, -0.08175875f, 0.23635794f, 0.32744345f, 0.35969085f, 
    0.10342223f, -0.17168972f, 0.11382314f, -0.07216364f, 0.07604355f, 0.41831401f, 0.14601071f, 0.11920206f, 
    -0.33081579f, -0.32462507f, 0.07390316f, -0.00788736f, 0.50499636f, 0.07879029f, -0.01963825f, 0.37287784f, 
    0.28024125f, -0.10559894f, 0.04070771f, 0.12037011f, -0.17552288f, 0.08962560f, 0.14018531f, 0.16380358f, 
    -0.08224344f, 0.08290811f, -0.04236600f, -0.24980462f, -0.03745100f, 0.12588058f, 0.14448850f, 0.08471513f, 
    0.00152134f, 0.02358839f, 0.09980715f, 0.01119613f, -0.03512989f, -0.10203011f, -0.04283706f, -0.07709278f, 
    -0.08164138f, 0.08646254f, -0.12324601f, 0.16073985f, 0.02190708f, -0.16523978f, -0.08154117f, -0.04857128f, 
    0.00069854f, 0.12690112f, -0.02644022f, -0.05488036f, 0.02483161f, 0.03336383f, -0.01539363f, -0.14476438f, 
    0.14141941f, -0.01532776f, 0.02935121f, 0.06010199f, -0.11663821f, -0.03956084f, -0.05407186f, 0.23909007f, 
    0.01004389f, -0.17874567f, -0.06335074f, -0.00879190f, 0.03475380f, 0.08867689f, -0.05744688f, 0.05010344f, 
    -0.05735215f, 0.00323675f, -0.10539842f, -0.04179347f, 0.09886781f, 0.01352902f, -0.11911801f, -0.14741914f, 
    -0.11830860f, -0.18451032f, 0.16612187f, 0.00435204f, -0.15068464f, -0.00789987f, -0.14510538f, -0.06893642f, 
    0.09995783f, 0.44488567f, -0.52866918f, -0.06233138f, -0.85066140f, -0.37331411f, -0.40422744f, 0.31008905f, 
    -0.30642706f, 0.67057472f, 0.12400831f, 0.32019806f, -0.24636081f, 0.09183163f, -0.64724338f, -0.23237340f, 
    0.11441094f, -0.10214864f, 0.79424590f, -0.11206429f, -0.15865009f, -0.15132156f, -0.07450696f, -0.42440420f, 
    -0.07774258f, -0.14030530f, 0.16821644f, -0.01332103f, -0.00535724f, -0.03288842f, -0.28453693f, -0.08512001f, 
    0.31420666f, -0.05519270f, 0.41915751f, -0.26108524f, 0.44271955f, 0.24328178f, -0.01687863f, 0.24994691f, 
    -0.11262333f, 0.23018427f, -0.02172913f, -0.19220255f, 0.20420356f, -0.17152625f, -0.12052687f, 0.61808866f, 
    0.15527232f, -0.01930897f, 0.26067635f, 0.05479426f, 0.03471327f, 0.08923800f, 0.07982962f, -0.44211659f, 
    -0.39222091f, -0.26757208f, 0.00804835f, 0.08102196f, 0.35082278f, -0.19427173f, 0.09725680f, 0.12160043f, 
    0.03668304f, -0.06478824f, 0.88155180f, -0.26055664f, 0.55475318f, -0.17868899f, -0.15631156f, 0.22590676f, 
    -0.20660858f, -0.44905901f, 0.05188532f, -0.51578075f, -0.27888203f, 0.09365807f, 0.28181735f, 0.14798722f, 
    -0.07759971f, -0.38062713f, -0.15904085f, 0.18203208f, 0.13009576f, -0.16829804f, -0.10841662f, 0.01099813f, 
    -0.08401106f, -0.11322620f, -0.54650837f, -0.12273175f, 0.53370517f, 0.02027878f, -0.04988913f, 0.15873255f, 
    0.07109837f, 0.76051486f, 0.30732051f, -0.00923830f, 0.55446982f, -0.20443375f, -0.11431040f, -0.40568414f, 
    0.03478328f, -0.28714517f, -0.20504700f, 0.23317952f, -0.19554867f, -0.71720278f, -0.32012370f, 0.21835336f, 
    0.20642208f, 0.17425455f, -0.13046522f, 0.00286538f, -0.54647148f, 0.15057960f, 0.02821340f, -0.07744720f, 
    -0.03718512f, -0.00513469f, 0.15389267f, -0.16626209f, -0.62256593f, 0.05020224f, -0.00927787f, -0.10087430f
};

static const float weights_2[] = {
    0.09561378f, 0.05412515f, -0.02738466f, -0.01877764f, -0.01965371f, 0.01022118f, -0.02043516f, 0.01538077f, 
    0.00412432f, -0.11773586f, 0.03614003f, 0.02013310f, 0.14462872f, 0.00462668f, 0.05704929f, -0.05361225f, 
    0.02238035f, -0.08018822f, 0.02565211f, 0.01338424f, 0.00420626f, -0.00111600f, -0.01818071f, -0.00392065f, 
    0.00406039f, 0.17096767f, 0.01937868f, -0.00061030f, 0.16092408f, -0.00949983f, 0.01248363f, 0.02508542f, 
    -0.00889396f, 0.00206947f, 0.00614492f, 0.02490852f, 0.02220689f, -0.12533678f, 0.00068995f, -0.00936316f, 
    0.00211567f, -0.01366302f, -0.28102157f, 0.01259221f, -0.03304070f, -0.08465222f, -0.06892718f, 0.00092420f, 
    0.00146943f, 0.26240507f, -0.02623303f, -0.01911655f, 0.00267571f, 0.01985440f, 0.17704751f, -0.05488263f, 
    -0.01495644f, -0.00118478f, 0.16080122f, -0.02669066f, -0.28071228f, -0.04259437f, 0.04890622f, -0.14635871f, 
    0.21816558f, -0.06021514f, 0.01080607f, 0.00188755f, -0.01569388f, -0.01217998f, -0.00387116f, -0.00020230f, 
    -0.00094725f, 0.04184230f, 0.02933718f, 0.00511481f, -0.17117357f, 0.00231086f, -0.09133483f, 0.04486319f, 
    -0.17763682f, -0.16336939f, -0.00740041f, -0.00336927f, -0.00435406f, 0.00500277f, 0.00324529f, -0.00991385f, 
    0.00491863f, 0.11128108f, -0.00348521f, 0.00031957f, -0.12140227f, 0.01460468f, -0.00511045f, 0.01828946f, 
    0.00114059f, 0.00946832f, -0.00985954f, -0.00294304f, -0.00006697f, 0.15022101f, -0.00096478f, -0.02634205f, 
    0.01044410f, 0.12395038f, -0.20014824f, 0.00276437f, -0.00494476f, 0.04667202f, 0.02412919f, 0.00296167f, 
    0.00040974f, -0.01047512f, 0.00642205f, 0.00680175f, -0.00105984f, -0.00702845f, 0.01829574f, -0.05306307f, 
    0.00518778f, -0.00877371f, 0.27368176f, 0.00198940f, 0.00254814f, 0.00378495f, -0.17384705f, 0.01771122f, 
    0.02941585f, -0.00195063f, -0.00375893f, 0.00188102f, 0.01032225f, -0.00242617f, -0.00389584f, 0.00342364f, 
    -0.00214788f, -0.19181179f, 0.09731836f, -0.00023940f, -0.21688132f, 0.00600732f, 0.06196213f, 0.11018251f, 
    -0.06428616f, -0.00129804f, -0.01363254f, 0.01497153f, -0.00173512f, -0.00761014f, -0.01080755f, 0.01320657f, 
    -0.00248169f, -0.22734991f, 0.00138552f, -0.00626830f, -0.00905379f, -0.00168922f, -0.01101763f, -0.06973130f, 
    0.00265764f, -0.02564404f, -0.01683202f, -0.02217516f, 0.00169642f, -0.14419688f, 0.00132431f, -0.02437922f, 
    0.01447945f, 0.00351732f, -0.00305464f, 0.00949434f, 0.00442678f, 0.11772625f, 0.01471425f, -0.00066477f, 
    0.00247428f, 0.17976080f, 0.33148006f, 0.00164942f, 0.00615255f, -0.00829291f, -0.24953328f, 0.12091158f, 
    0.00624969f, -0.01287983f, 0.12376513f, -0.12957922f, -0.07718303f, -0.01922079f, 0.10922381f, 0.08300294f, 
    -0.00561073f, -0.00756068f, 0.02573312f, 0.00630575f, -0.01684178f, -0.01475503f, 0.01057365f, -0.01983974f, 
    0.03175943f, 0.16048624f, 0.00518849f, -0.01592647f, -0.19630270f, 0.01644790f, 0.01112105f, -0.15706527f, 
    -0.25665206f, 0.03644446f, -0.00259407f, -0.05462062f, 0.02243127f, -0.02662822f, -0.03859751f, 0.08216688f, 
    -0.00525340f, 0.37158415f, -0.00831283f, -0.04185130f, 0.13550271f, -0.00233521f, 0.01506468f, -0.07439054f, 
    0.01782585f, 0.05724190f, -0.00853700f, 0.06805576f, -0.01257740f, -0.05346609f, -0.03584177f, 0.03450526f, 
    -0.00613746f, -0.24324200f, -0.00664388f, 0.01553214f, -0.01247505f, -0.01525520f, -0.07738283f, -0.00258216f, 
    -0.00249926f, 0.13949519f, 0.19330263f, 0.00883585f, -0.00861633f, -0.01299576f, -0.27713913f, -0.13120130f, 
    0.01887711f, 0.00809094f, -0.10773450f, -0.07840644f, 0.11157037f, -0.00252334f, 0.08613221f, -0.16027839f
};

static const float biases_0[] = {
    -0.04853743f, 0.01589005f, 0.19146574f, -0.25596142f, -0.10632157f, 0.22228476f, 0.10450056f, 0.18946373f, 0.27225700f, 0.18748939f, -0.08050358f, 0.11393888f, -0.13364357f, -0.20971480f, 0.16455118f, -0.03671104f, 0.07176757f, 0.31600428f, -0.17421770f, 0.19336051f, -0.00897706f, 0.10258658f, 0.06279895f, -0.17883955f, -0.18383808f, 0.20192850f, -0.09436893f, 0.02561860f, -0.27444676f, -0.15430816f, -0.05367106f, 0.11059593f, 0.04007734f, 0.04530362f, 0.02115530f, -0.03887802f, 0.14762929f, 0.01814565f, 0.00296537f, -0.06170982f, 0.14729820f, 0.17970294f, -0.17272601f, -0.14633717f, -0.04882381f, 0.18000087f, -0.16833544f, 0.12276624f, 0.03025245f, 0.14090756f, 0.09243458f, -0.22191216f, 0.00692880f, -0.03726552f, 0.11811587f, 0.00068750f, -0.03147262f, -0.11644967f, -0.23820740f, 0.02170645f, 0.00762489f, 0.00294665f, 0.14917973f, -0.03138958f
};

static const float biases_1[] = {
    -0.38890368f, -0.23014049f, -0.03000450f, -0.04271501f, -0.01609697f, 0.03090861f, -0.00607132f, 0.00578457f, -0.03374332f, 0.04050985f, 0.02792130f, -0.05935077f, -0.09021162f, 0.02735474f, -0.28938469f, -0.01941721f, 0.02289825f, 0.07806280f, -0.02112872f, -0.05109556f, -0.03274767f, 0.02200073f, -0.00232868f, -0.01053613f, 0.01962156f, 0.04319945f, 0.03664294f, 0.05907211f, -0.11318929f, 0.00364005f, 0.05523023f, -0.27174500f, -0.02914922f, 0.07346296f, 0.06540173f, 0.08437648f, 0.01778361f, 0.10560215f, 0.00214743f, 0.12454051f, 0.00223896f, 0.08542549f, 0.24163350f, -0.00490960f, -0.05797695f, -0.02590858f, 0.03125397f, -0.05598652f, 0.02935613f, -0.09275115f, -0.11091593f, 0.04782548f, 0.00080151f, -0.00140177f, -0.10771514f, 0.08291456f, -0.00153005f, -0.02562311f, -0.00041975f, -0.26515967f, 0.14064981f, -0.05213987f, -0.34445986f, 0.05343523f
};

static const float biases_2[] = {
    -0.72767872f, 0.02298819f, 0.07377015f, -0.14251313f
};

void policyLoadWeights(void);
void policyForward(const float* observations, float* actions);
void policyForwardRaw(const float* observations, float* actions);
#endif // POLICY_H
