#ifndef POLICY_H
#define POLICY_H

#include <math.h>

#define NUM_LAYERS 3
#define INPUT_SIZE 21
#define OUTPUT_SIZE 4

static const int layer_sizes[] = {21, 64, 64, 4};

static const float weights_0[] = {
    -1.25522876f, 0.40794724f, -0.82486832f, -0.23497351f, -0.17859221f, -0.68498373f, 0.23514253f, 0.15617263f, 
    0.75150037f, 1.10290909f, -0.71481639f, -0.09797011f, 0.53503031f, -0.91537428f, -0.03488152f, -0.94603121f, 
    0.27505895f, -0.49749300f, -0.62476051f, 0.12033548f, -0.13231090f, -0.01135162f, 0.50891668f, 0.15229210f, 
    -0.27879095f, -0.21989964f, 0.86857706f, 0.20948148f, -0.58685255f, 0.78425306f, 0.11217324f, -0.70734423f, 
    -0.34535637f, -0.77144587f, -0.99196374f, -0.00046595f, -0.29903874f, 0.44845533f, 0.20409231f, 0.20655732f, 
    -0.18891408f, 0.25975004f, 0.12590006f, -1.52818549f, 0.90955454f, -0.10682009f, -0.01886519f, 0.85444504f, 
    0.19990768f, -0.07956738f, -1.09867251f, 0.11911193f, 1.69458044f, 0.08955961f, -0.58019036f, 1.10975802f, 
    -0.01941711f, -0.07487704f, -1.16193438f, 0.68352890f, -0.12738582f, 0.04482501f, -0.60924423f, 0.29746956f, 
    0.07552407f, 0.14115521f, -0.23011376f, 0.37517285f, 0.67559552f, -0.33202147f, -0.26042491f, -0.72739285f, 
    -0.56728864f, 0.35639060f, 0.25059104f, -0.34766406f, 0.69084847f, -0.25045380f, -0.58263856f, -0.95519835f, 
    -0.74157172f, 0.46631131f, -0.12709598f, -0.22146858f, -0.53334379f, 0.35261095f, -0.56280226f, 0.22827394f, 
    -0.56229675f, 0.10601909f, 0.16175357f, 0.61171073f, 0.83169228f, 0.18565959f, -0.78205371f, 0.18619503f, 
    -0.12630895f, -0.62979519f, -0.49798352f, -0.19741547f, 0.12403636f, -0.15742564f, -0.33560699f, -0.42408898f, 
    -0.41305372f, 0.09357173f, -0.30317226f, -0.34630436f, 0.00949583f, 0.88385403f, 0.05953201f, -1.41081083f, 
    0.05829285f, 0.48086244f, 0.43401089f, -0.39906034f, 0.14557822f, -0.13904735f, -0.25101385f, -0.14813492f, 
    -0.21933101f, 0.17955646f, -0.28958771f, 0.50397432f, 0.08231241f, 0.04554443f, -0.03842468f, -0.25050506f, 
    -0.12475289f, -0.19498320f, 0.10981650f, 0.02802811f, -1.42176771f, 0.20131354f, -0.09984791f, 0.50545698f, 
    -0.18842509f, 0.12368464f, 0.06275457f, 0.39481813f, 0.06419966f, -0.57450300f, 0.54263836f, -0.19211060f, 
    -0.35564718f, -0.68298167f, 0.75976986f, 0.38019541f, -0.67875791f, 0.27055180f, -0.23372401f, -1.03297794f, 
    -1.46805465f, 0.35001770f, 0.16371515f, -0.93408442f, 2.18233442f, 0.63472229f, -0.12956186f, 1.33532000f, 
    0.68159509f, 0.04058006f, -0.32398978f, -0.50668025f, 0.07201733f, -0.27620989f, 0.41179127f, -0.47365996f, 
    -0.64379954f, 0.06876543f, 0.18976000f, -0.17388530f, 0.60075539f, -0.58745587f, -0.15134923f, 0.20576255f, 
    -0.26534879f, 0.41842973f, 0.63282353f, -0.21811834f, 0.68989062f, 0.19449182f, 0.19760661f, -0.64862847f, 
    0.18979605f, 0.64578754f, -0.31981072f, 0.25438112f, -0.80535573f, -0.42534271f, 0.77936941f, 0.35288441f, 
    -0.06853602f, -0.04153929f, -0.45266879f, 0.26543996f, -0.24333334f, 1.47919273f, 0.03910301f, -0.88316929f, 
    -0.07294493f, 0.43948880f, -1.56957603f, -0.06768347f, -0.23468588f, 0.57487357f, -0.02352816f, 0.72228581f, 
    0.36649036f, -0.25414634f, 0.35561198f, -0.00697310f, 0.08203604f, 0.08681312f, 0.30764988f, -0.00620841f, 
    -1.47278774f, -0.24725999f, 0.69540423f, -0.15497665f, 0.23871095f, 0.17797555f, 0.11287222f, -0.51300275f, 
    -0.15120769f, -0.01531681f, -0.48585442f, -0.15999439f, -0.38195136f, -0.07892364f, -0.14276877f, 0.38238677f, 
    -0.66699201f, 0.82819152f, 0.14566128f, -0.28894824f, 0.39958659f, 0.52201295f, -0.26735759f, -0.59612083f, 
    -0.85140097f, 0.89643449f, -0.26968879f, -0.30136427f, 0.77264071f, -0.01159452f, 0.39635876f, -0.63664329f, 
    0.59478325f, -0.57605737f, 0.11096715f, -0.40716407f, 0.02912329f, -0.09251899f, -0.82076645f, 0.22978811f, 
    -0.53707254f, 0.00192588f, -0.73540533f, 0.36437246f, 0.31693003f, 0.16299169f, -0.39568430f, 0.62668175f, 
    0.17573802f, -0.51550829f, -0.52018023f, 0.01636503f, 0.08352130f, 0.09992670f, -0.08768746f, -0.05009632f, 
    -0.33052608f, -0.48220190f, -0.28382802f, -0.57263041f, 0.20093028f, 0.73365748f, -0.15411307f, -0.66137069f, 
    0.10434954f, -0.32212609f, 0.21633770f, -0.31805813f, 0.00945109f, 0.31031501f, 0.10213911f, 0.09035867f, 
    -0.25267807f, -0.37255880f, -0.40672916f, 0.13874900f, 0.11971248f, 0.17116369f, -0.38598871f, -0.66986424f, 
    0.67407709f, -0.96600312f, 0.24686600f, 0.35801575f, 0.16520883f, -0.75328672f, -0.53581583f, 0.19023709f, 
    0.28218886f, -0.51514828f, -0.39506334f, 0.51540315f, 0.43949720f, -0.23635593f, -0.33567503f, -0.08243155f, 
    0.14382781f, 0.01071831f, 0.31817627f, 0.80478430f, -0.44833219f, -0.14521746f, 1.30303752f, 0.44631103f, 
    -0.29095584f, -0.34450457f, 0.25839111f, 0.38409743f, -0.58131546f, -0.25376943f, 0.78381723f, 0.33842063f, 
    -0.26502427f, -0.76171291f, 0.19227238f, -0.34334388f, 0.56300390f, 0.26177451f, -0.20715670f, 0.20537128f, 
    0.71769649f, 0.28634417f, 1.14836681f, -0.08145648f, -1.00930560f, 0.26383537f, 0.64916468f, 0.04047727f, 
    0.38186997f, 0.16146213f, -0.17829326f, -0.02999800f, -0.47718701f, -0.45060402f, 0.07246345f, 0.68412668f, 
    0.07157608f, 0.32018724f, 0.08888236f, 0.12048217f, 0.76833361f, -0.35342777f, -1.09741342f, -0.22592340f, 
    -0.18548645f, -0.52920109f, -0.24613196f, 0.46435699f, 0.31469116f, -1.08268988f, -0.31613031f, 1.43827260f, 
    -0.12854406f, 0.03563402f, 1.14571464f, 0.13115510f, -0.22382185f, -0.75554591f, -0.14396410f, -1.32013655f, 
    0.45252228f, 0.12272140f, 0.19348109f, 1.01237893f, 0.55142903f, 0.08547670f, -0.03161922f, -0.69743544f, 
    -0.59882617f, 0.21888191f, -1.05390072f, 0.09092981f, 0.68595457f, 0.00978999f, 0.91692233f, 1.11495423f, 
    -0.02809257f, -0.42547566f, -0.97135192f, 0.26159981f, 0.39204308f, 0.03126132f, -0.06235451f, 0.96134317f, 
    0.48802316f, -0.15501072f, -0.21551198f, 0.67509133f, 1.13225460f, -0.23871559f, 0.15075324f, 0.89849520f, 
    0.35665616f, -0.73874635f, -0.05257158f, -1.07721221f, -0.54750931f, -0.06239930f, -0.42712536f, 0.24427409f, 
    0.02621476f, 0.71794528f, 0.08077294f, -0.32446444f, -0.02007026f, -0.25058147f, 0.13469593f, 0.09453615f, 
    -0.17959619f, -0.06031409f, 0.45666075f, -0.25032148f, -0.25322196f, -0.57534760f, -0.02217035f, 0.07706619f, 
    0.04610224f, 0.17440654f, -0.14138927f, -0.22421913f, -0.14842901f, -0.33066103f, 0.68662053f, -0.35569891f, 
    -0.38933545f, -0.47756121f, -0.00067516f, -0.17120613f, -0.16023767f, 0.20860162f, -0.37990138f, 0.03079686f, 
    -0.03957641f, -0.50909775f, 0.92250472f, 0.39114147f, 0.17643046f, 0.40285960f, 0.16828522f, 0.22259586f, 
    -0.29665133f, 0.67575252f, -0.29684195f, 0.05961892f, -0.55409002f, -0.43588102f, 0.95488292f, -0.42290679f, 
    0.49124563f, -0.05807019f, 0.12870958f, 1.13406920f, -0.00660980f, -0.19728526f, -0.29441589f, -0.66943628f, 
    1.09562993f, -0.01375278f, -1.20354974f, 0.17610624f, -0.19720101f, 0.85494721f, -0.56387919f, 0.76677310f, 
    -0.17794052f, -0.38519308f, 0.01380476f, 0.54403841f, 0.10329928f, -0.20419475f, 0.17486364f, -0.32839608f, 
    -0.54431957f, 0.90551972f, -0.18992203f, 0.67820162f, -0.17553638f, -0.34478793f, 0.07896322f, 0.52761954f, 
    -0.83206862f, -0.01388431f, 0.16966823f, 0.73359299f, -0.25237101f, 0.45979688f, 0.26719052f, -0.22490370f, 
    0.10068072f, -0.31816465f, 0.26186606f, 0.08302145f, -0.23070006f, 0.76024234f, -0.47424179f, 0.12240886f, 
    -0.85250330f, -0.91012549f, 0.63429087f, 0.13475339f, -0.79382503f, 0.81123912f, 0.06911462f, 0.38654199f, 
    0.01177125f, -0.32824802f, -0.10428585f, -0.26905227f, -0.49013481f, -0.19275065f, 0.55978578f, 0.16829002f, 
    0.02458639f, 0.16132219f, -0.78380209f, 0.89808160f, -0.19904661f, -0.51688951f, -0.24164009f, 0.83147258f, 
    -0.05321730f, 0.85883087f, 0.26170823f, 0.03881947f, -0.79626226f, -0.15006365f, -0.03760840f, -0.23061344f, 
    0.05552529f, -0.25874203f, -1.92462420f, -0.08331779f, -0.09266827f, 0.15986827f, 0.68366176f, -1.57898724f, 
    -0.59733152f, -0.16040020f, -0.25524622f, 1.92096627f, 0.15763272f, -0.09208076f, 1.50844443f, 0.30753481f, 
    -0.16911814f, -1.42952096f, -0.13049187f, 0.12419067f, 0.02915943f, 0.81569600f, 0.18161350f, 0.44099513f, 
    0.02471745f, -0.03284451f, 0.27469200f, -0.00913248f, -0.33461440f, 0.85324574f, -0.19225994f, 0.52468926f, 
    -0.76771700f, -0.47923577f, -0.02777892f, 0.48086306f, -0.40622628f, -0.06345754f, -0.27680135f, 1.48712480f, 
    -0.01019088f, -0.07257559f, 0.01378635f, 0.76708746f, 0.38878489f, 1.67513120f, -0.52270550f, 0.01393658f, 
    0.50891584f, 0.37989628f, 0.45200875f, 0.09379825f, 0.14884350f, -0.23269197f, -0.03970100f, 0.12204941f, 
    -0.36023679f, -0.41997463f, -0.07511152f, -0.29247296f, 0.43759164f, 0.05605625f, -0.03651555f, 0.19777191f, 
    0.42237285f, -0.11982898f, -0.75814825f, -0.07048848f, 0.40138745f, 0.32227641f, 1.83827567f, -0.41204304f, 
    -0.02498336f, 0.07540470f, -0.75984907f, 0.05239800f, -0.19193707f, -1.55443656f, 0.00713575f, -0.12193415f, 
    0.31021702f, -0.20975548f, 0.19405617f, 0.27079049f, -1.04348111f, 0.09273052f, 0.53673142f, 0.01257751f, 
    0.37743664f, -0.03362151f, -0.19864024f, 0.42989397f, 0.31179303f, -0.42877042f, -0.38500431f, -0.60987830f, 
    0.45033756f, -0.02892485f, -0.41341314f, 0.23605108f, -0.08125227f, 0.29386669f, 0.18749605f, 1.23611748f, 
    -0.49489334f, -0.22525936f, -0.24746439f, 0.07563542f, 1.59963715f, -0.81863761f, -0.12743044f, -1.02940917f, 
    0.22675638f, 1.10872436f, -0.03958648f, 0.83438540f, -0.39173070f, -0.64124519f, 0.14723621f, -0.36059624f, 
    -0.73317397f, 0.21843481f, 0.05154857f, 0.85860205f, -0.25425816f, 0.44550106f, -0.64149356f, -0.24863011f, 
    -0.97653884f, -0.33971128f, 1.04501426f, 0.19458859f, 0.38391238f, -1.18674445f, -0.23901987f, -0.06767269f, 
    0.03727347f, -0.14700244f, 0.01382260f, 0.01846203f, 1.27547264f, 0.30322543f, -0.06477068f, -0.64481825f, 
    -0.31045198f, 0.35851958f, 0.40283230f, -0.14522576f, 0.00307128f, 1.11147964f, -0.19387086f, -0.99595612f, 
    0.17203751f, -1.08730447f, 0.79223198f, 0.61006862f, -0.04738235f, -0.00014088f, -0.45880979f, 0.60125768f, 
    -0.01857368f, -0.76566017f, 0.10417324f, 0.06614496f, 0.69678420f, -0.49202022f, -0.45593402f, -0.13228372f, 
    -0.47267064f, -1.34910297f, 0.42473936f, -0.71348804f, -0.31377473f, 0.08429766f, -0.04154338f, -0.03992394f, 
    0.40527412f, -0.12365737f, -0.51673353f, 1.20083880f, 0.35006684f, 0.07560884f, 0.43098637f, 0.30695453f, 
    0.10821767f, -0.28881297f, -0.66411525f, 0.33192229f, -0.26055771f, -0.21843742f, -1.31445634f, -0.13188331f, 
    -0.11901934f, -0.74553549f, 0.26772082f, -0.50884372f, -0.19538906f, 1.09566402f, 0.42924523f, 0.20610771f, 
    -0.44142023f, 0.52351773f, 0.37477061f, -0.09223469f, -0.29177734f, -0.29870528f, -0.17842917f, 0.27331871f, 
    0.02933071f, 1.45995402f, 0.04044060f, 0.27306333f, 0.16369203f, 0.50359958f, -0.49464649f, 0.04316107f, 
    -0.02787741f, 0.06812744f, 0.44082978f, 0.27998561f, -0.98409444f, -1.44877648f, 1.21684444f, 0.39169747f, 
    -0.10476100f, 0.99882329f, -0.13080391f, -0.66404992f, -0.43171534f, -0.14139122f, -0.10409630f, 0.13796389f, 
    0.62906897f, 0.80100518f, 0.93967587f, -0.17753467f, -0.05895114f, -0.37284428f, 0.02491781f, 0.57069826f, 
    0.08388781f, 0.71904540f, -0.10497646f, -1.17663932f, 0.15346164f, 0.03645862f, -0.81076050f, -0.07164928f, 
    0.81068397f, 0.70448810f, 0.29223716f, -0.05573683f, -0.32707354f, -0.73796713f, 0.27581656f, -0.29427272f, 
    -0.30031916f, 0.02460379f, 0.49291295f, -0.63883609f, -0.64751726f, 0.09770571f, 0.65907425f, -0.28418055f, 
    -0.27339607f, -0.02414431f, 0.38341025f, -0.51746148f, 0.10902963f, 0.04662469f, 0.51722997f, 0.46176147f, 
    -0.32524621f, 0.39075473f, 0.10839614f, -0.41936806f, 0.63302386f, -0.56497282f, 0.12119287f, 0.65366048f, 
    0.05709768f, -1.21197402f, 0.20961586f, -0.02291550f, 0.00362456f, -0.16912651f, 0.05088668f, -0.13314165f, 
    -0.03762782f, 0.00626287f, -0.20669697f, -0.11469599f, -0.67655766f, -0.14060490f, -0.26519686f, 0.54235864f, 
    0.49396136f, 0.14868143f, 0.10064173f, 0.38541645f, 0.23742206f, -0.47272545f, -0.59136671f, 0.34210476f, 
    -0.77638566f, -0.62275541f, 0.18036893f, 0.73374772f, 0.32705155f, 0.67043108f, -0.48756707f, 0.15579225f, 
    -0.41008973f, -0.41456124f, 0.18734637f, -0.39878827f, 0.19260541f, 0.86454862f, 0.30931526f, -0.39073095f, 
    0.25541344f, 0.03940210f, -0.03821846f, -0.98322219f, -0.03480915f, 0.43265116f, 0.82983994f, -0.51092088f, 
    -0.18854076f, 0.03189992f, -0.39169142f, 0.00318443f, 0.69321585f, 0.37922993f, -0.52760410f, 0.36014310f, 
    -0.02722126f, 0.00118865f, -0.11672798f, 0.11119921f, 0.00148165f, 0.18240811f, 0.15814698f, -0.69736928f, 
    1.50252652f, 0.21652184f, -0.65550923f, 0.38335785f, -0.43112338f, 0.35239819f, 0.43052423f, 0.63432795f, 
    -0.39231801f, 0.64843833f, -0.14212167f, 0.38328537f, 0.39990735f, -0.01936887f, 0.92402625f, 0.99849135f, 
    -0.38057551f, 0.31963748f, -0.33180681f, 0.97096682f, 0.65417397f, -1.75850964f, 0.09988213f, -0.28742290f, 
    -0.60636401f, 0.27822924f, 0.21194734f, -0.59918261f, 0.17266683f, -0.17865019f, 0.75090790f, -0.51689261f, 
    0.38870239f, -0.56949729f, -0.44163406f, 1.20310569f, -0.07220799f, -0.58622974f, 0.10578821f, -0.12478972f, 
    0.52938515f, -0.44023412f, -0.20014639f, 0.03840430f, -0.63063067f, 0.33201957f, 0.75684994f, 0.10814252f, 
    0.65379983f, 0.23672855f, 0.18350682f, -0.33435032f, -0.43963179f, -0.46521536f, -1.50493932f, 0.04881981f, 
    -0.30173150f, 0.03023968f, -0.59273708f, -0.16992436f, -0.00730709f, -0.37531635f, -0.95008200f, 0.72553039f, 
    -0.23356117f, -1.61020613f, -0.64025658f, 1.26476455f, 0.03651449f, 0.69813222f, 1.50836158f, 0.00235496f, 
    0.07960557f, -0.46665412f, 0.05149758f, -1.18907356f, -0.30485982f, -0.57952905f, 0.39054626f, -0.04598913f, 
    0.01056277f, 0.05588494f, -0.48983932f, 0.11732570f, 1.24884570f, -0.05241460f, 0.59081954f, -0.70210081f, 
    -0.30086607f, 0.01254440f, -0.28721637f, -0.59540898f, 0.11654750f, -0.13809539f, 0.35709438f, -0.48145223f, 
    0.16841866f, -0.86507833f, -0.91254264f, 0.61813164f, -0.76988828f, 0.19530664f, 0.62710869f, 0.34786642f, 
    -0.62556177f, 0.20844300f, 0.50257456f, 0.45223144f, 0.07756165f, -0.30469996f, 0.22393146f, 0.62449056f, 
    -0.45886847f, -0.39333037f, -0.05358670f, 0.17280377f, 0.30156952f, -0.08270809f, -0.71778989f, -0.15498203f, 
    -0.34864596f, 0.25032619f, 0.03713880f, -0.18147452f, -0.85951287f, -0.12686455f, 0.82249242f, 0.04759539f, 
    0.39777285f, -0.01157311f, -0.34670457f, -0.01325533f, 0.10080226f, -0.34535798f, -0.05064634f, 0.40346324f, 
    0.43930757f, -0.29282367f, -0.04430151f, 0.47987753f, -0.02603928f, 0.85796148f, 0.55274886f, 0.28656045f, 
    -0.19004120f, 0.22089289f, 0.82376671f, 0.02833473f, -0.59235573f, 0.14566207f, -1.09591818f, 0.31897530f, 
    -0.47976756f, -0.63543051f, -0.25407347f, 0.21578652f, 0.53764629f, -0.20579702f, -0.08057055f, 0.02275155f, 
    -0.52719551f, 0.52209055f, -0.35137567f, -0.37813160f, -0.29892197f, 0.36099145f, 0.49859914f, -0.03239609f, 
    1.15424955f, 0.25935954f, 0.24508713f, -1.97197807f, -0.80005985f, 0.32212088f, 0.10362136f, 0.14824042f, 
    -0.22562094f, -0.12767968f, 0.39564702f, -0.17763986f, 0.24188748f, 0.47518057f, -0.18985927f, -0.96035582f, 
    0.89585239f, -0.06913648f, 0.12970281f, -1.01729691f, 0.16255134f, 0.62441725f, 0.23506846f, 0.64916098f, 
    0.14652358f, -0.75091976f, 0.08396332f, -0.39598224f, -0.53984070f, 0.14973132f, 0.13092333f, -0.09464660f, 
    0.32139379f, -0.23467587f, 0.08219251f, 0.04726476f, -0.31080315f, 0.13863838f, -0.01167280f, -0.18237196f, 
    0.16189149f, 1.73184514f, -0.22416571f, -0.07673586f, -0.28223506f, -1.78439021f, -0.28466579f, 0.16918106f, 
    -2.07998872f, 0.36399144f, -0.17930421f, 0.28835505f, -0.03498329f, -0.20815043f, -0.67640460f, -1.53909385f, 
    0.42749372f, -0.14684604f, -0.80427533f, -0.15784980f, 0.04169036f, -0.56778747f, 0.37248972f, 0.97867149f, 
    0.10040843f, -0.01185905f, -0.50958943f, 0.02059324f, -0.11247612f, -0.59432012f, -0.32735473f, -0.24457450f, 
    0.37776101f, -0.23430613f, 0.07636703f, -0.53110027f, -0.17026396f, 0.51944208f, 0.17902008f, -0.49095488f, 
    -0.50177956f, -0.03344602f, -0.43053943f, -1.63025248f, 0.63241440f, 0.21985012f, 0.80548018f, 0.38053301f, 
    -0.18635465f, -0.17930913f, 1.46458769f, -1.09457898f, 0.07868077f, -0.11138469f, 0.26475826f, -0.33056921f, 
    0.20645441f, 0.25597602f, 0.64884436f, -0.30579007f, -0.13979234f, 0.32236239f, -0.11415368f, 0.16151246f, 
    -0.95653653f, 0.28779328f, -0.30696481f, 0.02155391f, 0.06427406f, -0.07803457f, -0.00434580f, 0.74409723f, 
    0.07274529f, -0.08509138f, -0.30205399f, 0.73122430f, -0.36847523f, -0.52962565f, -0.48588639f, 0.61622566f, 
    0.29835349f, -0.14803232f, 0.11595996f, -0.01158724f, -0.26393226f, -0.61291426f, 0.72854149f, -0.33124542f, 
    -0.03296944f, -0.11996633f, -0.28065461f, 0.17173149f, 0.71633971f, -0.29619423f, -0.01113523f, 0.06401838f, 
    0.25885275f, 0.21362290f, 0.26327470f, 0.17493594f, 0.45156944f, -0.02757606f, -0.34058166f, 0.14063226f, 
    0.13293438f, 0.71931225f, -0.37552539f, -0.26209846f, -0.00262568f, -0.97884768f, -0.18331833f, 1.22877777f, 
    0.01454721f, 0.43368670f, 0.79152870f, -0.15435597f, -0.22005184f, -0.67836267f, -0.05241505f, -2.45177794f, 
    -0.24297009f, 1.04370344f, -0.09305691f, -0.02465148f, -0.37955928f, -0.08837885f, -0.14336084f, -0.19629733f, 
    -0.05842398f, 0.16960816f, -0.62129325f, -0.05792718f, 0.24932709f, -0.06692396f, 0.39060390f, 0.68746823f, 
    -0.15131420f, -0.16167222f, 0.52857333f, 1.70257568f, 0.18639341f, 0.12174372f, 0.90004700f, -0.31778768f, 
    0.33788171f, 1.97265041f, -0.04106924f, -0.30919999f, -1.28405046f, -0.04598839f, -0.19722523f, -0.17169838f, 
    0.89890116f, -0.06881212f, 0.08302035f, 1.36958885f, 0.17268182f, -0.15304081f, -0.49774972f, -0.04074023f, 
    0.23527159f, -0.97713774f, 0.01813683f, -0.22762406f, -0.05469638f, 0.95702797f, 0.95601588f, -0.21419668f, 
    0.27782243f, 0.13292754f, 0.20942575f, 0.11412863f, 0.45989439f, 0.23676649f, 0.20440361f, 0.10889190f, 
    -0.23986073f, -0.39898062f, 0.02745705f, -0.41163799f, 0.60696578f, 0.57795632f, -0.04458655f, 0.29280433f, 
    -0.12639271f, -0.07242668f, -0.04160363f, 0.12876655f, -0.19291276f, -0.77487957f, 0.88226950f, 1.45407379f, 
    -0.39007363f, -0.98010427f, -0.07212505f, 0.68976170f, -0.26449299f, -0.99168104f, 0.66751039f, 0.01383571f, 
    0.23486701f, -0.26288247f, 0.41285416f, -1.41283882f, -0.26396835f, 0.10245619f, 0.05325577f, 0.15505444f, 
    0.39346430f, 0.09540566f, 0.55406880f, 0.77905506f, -0.92176592f, 0.07083267f, -0.07671204f, -0.77946663f, 
    -0.24312834f, -0.35173365f, -0.86789697f, 0.42670977f, -0.02198792f, 0.19068056f, 1.33885145f, -0.34431940f, 
    0.19230960f, 0.06474061f, 0.09090879f, -0.28760278f, -0.28819183f, 0.39262077f, -0.14726071f, -0.62585157f, 
    0.05570536f, -0.17511229f, -0.19478330f, -0.30845407f, -0.08508461f, 0.34175998f, -0.36172652f, -0.18651380f, 
    0.21903057f, 0.17087209f, -0.21431513f, -0.15699300f, -0.08659500f, -0.07907215f, -0.75969839f, 0.98917890f
};

static const float weights_1[] = {
    0.13528296f, -0.60501349f, 0.15703498f, 0.16054663f, 0.64852679f, 0.58992064f, 0.29176307f, 0.11948025f, 
    0.46394894f, -0.37344512f, 0.28423521f, -0.01632663f, 0.62268847f, 0.28084758f, -0.16253559f, -0.10395022f, 
    -0.29103309f, -0.15935592f, -0.14379048f, -0.15817723f, 0.38716274f, 0.24737307f, -0.13348548f, -0.04662305f, 
    0.26778755f, 0.15615682f, 0.03285687f, -0.08446395f, -0.08088274f, 0.10523476f, -0.34801912f, -0.15241529f, 
    -0.22420691f, -0.04952931f, 0.19120121f, 0.53975207f, -0.10434891f, -0.18342793f, -0.18859734f, 0.30793849f, 
    0.06477074f, -0.10233504f, 0.32592988f, -0.39704943f, 0.28038642f, 0.01995325f, 0.01888254f, -0.03646630f, 
    -0.25626189f, -0.72952825f, 0.11909363f, 0.20210443f, 0.03074300f, 0.09239203f, -0.03458227f, -0.05952377f, 
    -0.31742114f, -0.46511140f, 0.08293454f, 0.04567870f, -0.00988715f, -0.68635690f, 0.01147811f, -0.35313076f, 
    0.51897311f, 0.10862752f, -0.30931887f, -0.11202762f, -0.01284635f, -0.19757356f, -0.02766202f, 0.22062130f, 
    -0.14375971f, 0.35793948f, -0.50836730f, -0.15384693f, 0.16023555f, -0.08763313f, 0.29194498f, -0.26417241f, 
    -0.02533442f, -0.30906498f, -0.22742777f, 0.21435609f, 0.22257432f, -0.11526618f, -0.21378584f, 0.28879189f, 
    -0.10859883f, -0.20916864f, -0.31258804f, -0.09592167f, 0.11974931f, -0.33066753f, -0.33926344f, 0.73909140f, 
    -0.44601744f, 0.78444487f, 0.17235251f, 0.37654778f, -0.08584952f, 0.63708186f, -0.03888300f, -0.04434801f, 
    -0.35610354f, 0.08034321f, -0.14011413f, -0.97411823f, -0.10410069f, 0.04020331f, 0.46025506f, -0.44769594f, 
    0.29157963f, -0.09057518f, -0.09846286f, 0.20908177f, -0.05035112f, 0.28014281f, 0.29146862f, -0.09801695f, 
    -0.06441934f, -0.95747000f, 0.15799113f, -0.11661354f, 0.05737888f, -0.27739912f, -0.09840014f, -0.09770247f, 
    -0.46183693f, 0.18612541f, -0.21838318f, 0.20076962f, 0.27287310f, -0.17337728f, 0.22984973f, -0.54620850f, 
    -0.48941991f, -0.00631841f, -0.18766525f, -0.17591025f, -0.08130284f, 0.01591746f, -0.17082565f, 0.03054732f, 
    0.23919266f, -0.08403370f, -0.01491299f, -0.08583735f, -0.34657395f, -0.40900561f, 0.31031612f, -0.20838240f, 
    -0.13058297f, -0.14438915f, -0.75175941f, -0.06894468f, 0.34782416f, -0.07900462f, -0.01527401f, 0.04526256f, 
    -0.75230843f, 0.43733302f, -0.43945751f, -0.16469854f, 0.08841702f, 0.19333936f, 0.00694936f, 0.30842221f, 
    -0.00671163f, 0.18750097f, 0.01264141f, 0.80404663f, -0.05580866f, -0.27441207f, -0.25052953f, 0.02180951f, 
    0.24888235f, 0.28883103f, 0.00412855f, 0.22046369f, 0.75302392f, 0.18490049f, 0.03417721f, 0.01788617f, 
    -0.03990376f, -0.14573818f, 0.08494811f, -0.76259148f, -0.53806609f, 0.04117122f, 0.26403654f, 0.17911477f, 
    -0.02300325f, 0.14246522f, 0.18037218f, 0.14246918f, 0.05561668f, -0.05364541f, 0.03842838f, -0.05416444f, 
    -0.03895557f, 0.10484892f, -0.13564722f, 0.11750325f, 0.00259312f, 0.08810411f, -0.28975144f, 0.09331056f, 
    0.16158575f, 0.08748050f, -0.06321377f, 0.09297059f, -0.00656299f, -0.21307103f, -0.11041941f, 0.19483706f, 
    0.11955157f, -0.19663689f, 0.12966342f, 0.05802542f, 0.05524982f, 0.19616742f, -0.05249190f, 0.10336181f, 
    0.04262251f, -0.11105207f, -0.06066922f, -0.18803987f, 0.02847762f, 0.11945069f, 0.08528054f, 0.00135156f, 
    0.06674904f, 0.04838324f, -0.16146430f, -0.07126592f, 0.10782264f, -0.04802888f, -0.01776738f, 0.11855947f, 
    -0.05723165f, 0.06521169f, -0.09517346f, 0.02435247f, -0.27215183f, -0.01352606f, 0.19181977f, 0.09045987f, 
    -0.19919585f, -0.12786204f, 0.03773106f, -0.12993447f, -0.26840553f, 0.21941210f, 0.04272118f, 0.07883780f, 
    -0.17629549f, 0.14794153f, -0.05336888f, 0.19015241f, 0.11194041f, -0.03855864f, 0.04315077f, 0.17352527f, 
    -0.02098530f, 0.08430050f, 0.08916966f, -0.01977037f, 0.08219931f, -0.01109159f, -0.12159690f, -0.03587934f, 
    -0.18492335f, 0.06517068f, -0.16812342f, -0.14978465f, -0.04851991f, -0.05429629f, 0.10358173f, 0.03995908f, 
    -0.14532217f, 0.07686198f, 0.14124554f, 0.03471450f, 0.05384039f, -0.01867424f, 0.00723636f, 0.05342527f, 
    0.13435261f, 0.18322611f, -0.12389646f, -0.08592420f, -0.01009893f, -0.08862406f, 0.04773488f, -0.14699233f, 
    -0.06765499f, 0.05506779f, 0.09636524f, 0.01140054f, -0.10744907f, -0.06788031f, 0.00465064f, 0.07647268f, 
    -0.08488953f, 0.03999044f, 0.02906087f, 0.11891750f, 0.07494773f, 0.02117570f, 0.11628876f, -0.00579522f, 
    0.03027389f, 0.00120148f, -0.15708451f, 0.00347710f, 0.00869291f, 0.12718703f, 0.13569556f, -0.08150644f, 
    -0.00768004f, -0.02949070f, 0.08602393f, 0.15820681f, 0.06513518f, 0.00836412f, 0.05529553f, 0.10360886f, 
    0.14991741f, -0.11430863f, 0.03717681f, 0.05773193f, -0.07158569f, 0.05532756f, -0.03205582f, 0.01612427f, 
    0.02789607f, -0.11203674f, 0.14775465f, 0.03180957f, -0.17839740f, -0.14340711f, -0.13399693f, 0.14012024f, 
    0.05121566f, -0.14234106f, 0.00508431f, -0.01700724f, -0.20279101f, -0.09579517f, -0.12225116f, 0.10384489f, 
    -0.12413719f, -0.01734351f, -0.16176772f, -0.10147245f, 0.07959796f, -0.04550589f, 0.15331291f, -0.05965763f, 
    0.07425094f, -0.06105003f, -0.02013903f, 0.00472131f, 0.02039069f, -0.00390455f, 0.08536582f, 0.14007027f, 
    -0.14237809f, -0.00399825f, 0.18725485f, 0.14421582f, 0.11655522f, -0.01605563f, 0.01003000f, 0.08115339f, 
    0.06768651f, -0.08896154f, 0.02317745f, -0.12623231f, -0.01165230f, 0.15188183f, -0.04109541f, 0.12612619f, 
    0.10254885f, 0.07287589f, -0.02100644f, 0.04485810f, 0.07383320f, 0.01046544f, 0.05688415f, -0.13297747f, 
    -0.17910381f, 0.13467896f, -0.01612343f, 0.06759825f, -0.08116870f, -0.05772142f, -0.08065223f, 0.04359384f, 
    0.02742409f, 0.03985034f, -0.07426681f, 0.04015129f, -0.09308208f, 0.00725375f, 0.08807798f, -0.11173915f, 
    0.06364698f, 0.05426948f, -0.00539963f, -0.15818572f, -0.05311975f, -0.08345684f, 0.01431435f, -0.07966457f, 
    -0.01283360f, 0.01482354f, 0.06169152f, 0.04089525f, 0.01568254f, -0.08892965f, 0.00651347f, 0.04013374f, 
    -0.02347029f, -0.00746949f, 0.07093479f, -0.06065500f, 0.04306254f, 0.19012538f, -0.01208155f, 0.14183483f, 
    0.02683221f, -0.00167627f, -0.00648846f, 0.03366096f, -0.06974379f, -0.09609561f, 0.18311781f, -0.07309660f, 
    0.06700249f, -0.02901629f, 0.00465397f, -0.08272278f, 0.09009118f, 0.02571275f, 0.05172834f, 0.04202265f, 
    -0.21463978f, 0.52212280f, 0.35506481f, 0.18172409f, -0.54359055f, -0.14774488f, 0.34972805f, 0.17769611f, 
    0.60398507f, -0.16079518f, -0.50023663f, 0.11973402f, -0.75765491f, 0.11747640f, 0.45843232f, -0.27097902f, 
    0.42484516f, -0.23945664f, 0.40298492f, -0.08755664f, 0.28554830f, -0.12386977f, -0.35778335f, -0.23411880f, 
    -0.06814665f, -0.07708911f, 0.86356157f, -0.32912812f, 0.20517705f, -0.29686865f, -0.26115754f, -0.07378373f, 
    -0.13076596f, -0.16855726f, -0.21044971f, -0.24406254f, -0.02583516f, 0.15368921f, -0.25398305f, -0.40530753f, 
    -0.45650414f, -0.33533052f, -0.17380117f, -0.10271536f, 0.67583382f, 0.02732607f, 0.08489478f, -0.64587474f, 
    0.04343864f, 0.06716529f, -0.31218320f, -0.06063970f, 0.00546870f, 0.14308688f, -0.17585686f, 0.14346896f, 
    0.14892614f, -0.09351446f, 0.08520252f, 0.06224777f, -0.24159198f, 0.07230277f, 0.17207281f, 0.75327808f, 
    0.06147494f, -0.02919313f, 0.07614694f, 0.34213772f, -0.18628104f, 0.33924446f, 0.13839214f, 0.00093324f, 
    0.13736317f, 0.25917140f, -0.08956665f, -0.47332656f, 0.23181851f, 0.13791002f, -0.06403417f, -0.03473799f, 
    -0.44089672f, -0.02726684f, -0.21437684f, 0.33330351f, -0.11792022f, 0.06587046f, -0.14828861f, -0.18735023f, 
    -0.06268939f, -0.30630237f, 0.69033611f, 0.13320148f, 0.02843301f, -0.14908130f, -0.17570774f, -0.26810837f, 
    0.38899449f, -0.50830710f, -0.17994606f, -0.31440645f, 0.01154487f, -0.33890486f, 0.43022776f, 0.12407009f, 
    0.13162912f, -0.06129164f, -0.10563309f, 0.13593429f, -0.06307513f, -0.58861876f, -0.24265677f, 0.13337703f, 
    -0.14819819f, -0.04693871f, -0.19267440f, -0.14501755f, -0.08403414f, -0.46573606f, -0.22696903f, -0.21876265f, 
    -0.19375773f, 0.12413956f, 0.06465266f, -0.07856272f, -0.16794224f, -0.20128193f, 0.26010877f, -0.09860423f, 
    -0.07236996f, 0.11447845f, 0.06850803f, -0.08156572f, -0.00207026f, 0.10932676f, 0.01902979f, -0.02017946f, 
    0.11355120f, -0.02111759f, -0.06327616f, -0.09435770f, -0.07243478f, 0.15226829f, -0.04293882f, 0.04809547f, 
    0.03456371f, 0.08194993f, -0.00458689f, 0.05768978f, -0.00247583f, -0.01049874f, -0.05007675f, 0.02087418f, 
    -0.05956696f, 0.18168190f, -0.16748726f, -0.03141476f, -0.07467273f, -0.03913105f, 0.08714028f, 0.00583436f, 
    -0.01316904f, 0.05402747f, -0.07463682f, -0.04504698f, -0.05751276f, -0.13346504f, -0.04226107f, -0.02506245f, 
    -0.03035757f, 0.03522516f, 0.08434182f, 0.03111899f, 0.00578988f, 0.10587519f, -0.04253360f, 0.11459493f, 
    -0.01812757f, 0.02365976f, -0.14724728f, 0.12473376f, 0.10414273f, 0.03017260f, 0.08762154f, -0.02014739f, 
    -0.01539976f, -0.12016992f, -0.00752954f, 0.12524413f, -0.03149142f, -0.08640104f, 0.05448099f, -0.10834038f, 
    0.24645126f, 0.00287761f, -1.16489398f, -0.03421964f, 0.32331851f, 0.04438465f, 0.04647846f, -0.56695330f, 
    0.05704823f, 0.66212541f, -0.14855531f, -0.70650047f, 0.40311822f, 0.10221227f, 0.15052399f, -0.00684836f, 
    0.04229998f, -1.08792055f, -0.16047531f, 0.33374104f, -0.20249477f, 0.15578160f, -0.44812161f, 0.14657164f, 
    -0.34115514f, 0.18091355f, -0.45863032f, 0.15384483f, 0.54452199f, -0.09923333f, -0.32998282f, 0.82826489f, 
    -0.46325594f, -0.09995431f, -0.23963693f, 0.69124871f, -0.21888998f, 0.90258247f, -0.11057545f, 0.44870761f, 
    -0.18272100f, 0.34757146f, -0.05126690f, -0.66123080f, 0.04434295f, -0.78007108f, 0.38313979f, -0.17825201f, 
    0.21797436f, -0.21807911f, 0.01664065f, 0.38639516f, -0.17050475f, -0.17981699f, -0.03105898f, -0.05183981f, 
    -0.07536447f, -1.47429156f, 0.16863889f, 0.09548593f, 0.27629387f, -0.47568232f, 0.06366573f, -0.40263921f, 
    0.28699651f, 0.25839430f, 0.13842079f, -0.13922080f, -0.55185467f, -0.21656482f, 0.40308008f, -0.10062339f, 
    -0.16359916f, -0.11857639f, -0.10719910f, -0.09206672f, -0.35922703f, 0.33423492f, 0.55282992f, -0.20526214f, 
    -0.02036417f, -0.26786113f, -0.82989532f, 0.30116054f, -0.25997549f, -0.26233310f, 0.12687396f, 0.04637235f, 
    0.31902707f, -0.35942501f, 0.02118605f, -0.01316237f, -0.04184578f, 0.40976787f, 0.02036487f, -0.26483554f, 
    -0.54411340f, 0.16118678f, 0.09773425f, -0.14299597f, -0.62254339f, 0.28900665f, 0.37830117f, 0.06677169f, 
    -0.24807155f, 0.00411168f, -0.55963051f, 0.22760634f, 0.42037934f, -0.36758542f, 0.17008010f, -0.14370841f, 
    0.23387247f, 0.65234470f, -0.42589211f, 0.34717754f, 0.18179186f, 0.08547928f, -0.02545603f, -0.17861781f, 
    0.12947202f, 0.28551909f, 0.53237414f, -0.05263173f, -0.01115933f, 0.51515168f, -0.54197204f, 0.04418403f, 
    0.79193443f, -0.12648895f, -0.22066410f, -0.22798307f, 0.13001789f, -0.10495986f, 0.30414927f, 0.03221546f, 
    0.12178928f, 0.26214537f, 0.06068691f, -0.13974762f, 0.17023619f, 0.21267040f, -0.16332407f, -0.11964478f, 
    -0.10768440f, -0.05170119f, -0.08453947f, -0.09314449f, -0.10778920f, 0.03873155f, -0.44378102f, -0.41226855f, 
    -0.22860843f, -0.01045290f, 0.79011422f, -0.13505901f, -0.02641308f, -0.28001794f, -0.20457222f, 0.11493925f, 
    -0.21984756f, -0.33413896f, -0.22850424f, -0.15992862f, 0.02144081f, -0.22466624f, 0.21103370f, 0.35434932f, 
    0.01642550f, -0.35288459f, -0.17405517f, -0.16537964f, 0.19111785f, -0.31889802f, -0.04126411f, 0.05956912f, 
    0.05927784f, -0.24283575f, -0.02306061f, 0.06835539f, -0.00462650f, -0.04825349f, -0.32709381f, 0.04795726f, 
    -0.14819326f, -0.14161925f, 0.09450031f, 0.48547778f, 0.18068048f, 0.02354835f, -0.10018848f, 0.11408988f, 
    -0.14072417f, -0.60375184f, 0.05069396f, -0.09865240f, 0.33753267f, 0.36680296f, -0.18181960f, 0.12150429f, 
    0.11231469f, -0.39518842f, -0.17547235f, 0.29101098f, 1.02032876f, 0.20551355f, -0.14982530f, 0.09088896f, 
    -0.00759714f, -0.05832856f, -0.37265617f, 0.13834554f, 0.21808931f, -0.25962582f, 0.08007339f, 0.09691396f, 
    0.11710931f, -0.10670537f, -0.27367198f, -0.03325428f, -0.02446685f, 0.14990596f, -0.24705453f, -0.31607118f, 
    -0.24258959f, 0.01995650f, 0.40361488f, 0.74078792f, 0.14823191f, 0.20624059f, 0.20968160f, 0.26384801f, 
    0.06423063f, -0.07202906f, 0.26003993f, -0.29838768f, -0.26697168f, 0.07074355f, -0.35511282f, 0.03709079f, 
    0.00663166f, -0.59017932f, 0.40144509f, 0.05499119f, -0.03754812f, 0.33931261f, -0.09726565f, -0.12634784f, 
    -0.15288348f, -0.14015259f, 0.48582855f, -0.13753532f, 0.07209517f, -0.54973799f, -0.03603934f, -0.39069307f, 
    -0.09298393f, -0.04060572f, 0.31907067f, -0.10219292f, 0.15376043f, -0.01440386f, 0.07676751f, 0.10636709f, 
    0.00322258f, 0.16901252f, 0.09557962f, -0.00568158f, -0.09419684f, 0.05665442f, -0.00102444f, -0.04994743f, 
    -0.10192546f, 0.09683786f, 0.08183217f, 0.03006394f, -0.21048924f, -0.03680464f, 0.10702226f, 0.05494871f, 
    -0.07539957f, 0.13033463f, 0.25788793f, 0.08662079f, -0.15466568f, 0.06969474f, -0.00948249f, 0.21082872f, 
    0.22045532f, 0.05556776f, -0.04093453f, -0.14204678f, 0.03986094f, -0.01518564f, -0.03630318f, 0.04796034f, 
    0.00796840f, 0.26202962f, 0.04207253f, -0.03395720f, 0.02332673f, -0.16863067f, 0.16509667f, -0.03188352f, 
    0.06038752f, -0.15325925f, 0.01709388f, 0.04377427f, 0.18631060f, 0.09587712f, 0.09937847f, 0.21982148f, 
    -0.07855816f, -0.02310873f, 0.27436203f, -0.16153686f, -0.01571023f, 0.09334455f, -0.18025775f, 0.03115755f, 
    -0.01835929f, 0.03628806f, -0.07949876f, 0.01759699f, 0.11956553f, -0.01900797f, -0.03051049f, 0.13164589f, 
    -0.11410383f, -0.21607502f, 0.01571489f, 0.12343883f, 0.26300377f, 0.00865880f, -0.14237610f, -0.09474946f, 
    0.04150496f, 0.13140087f, 0.01379039f, -0.08157434f, -0.08239130f, 0.07476552f, 0.05322651f, 0.09647998f, 
    -0.22624180f, 0.10989913f, 0.03364759f, -0.04188395f, 0.16718303f, 0.22773512f, -0.13065341f, -0.11486469f, 
    0.10599315f, 0.01506268f, -0.19778009f, 0.00681400f, -0.02023803f, 0.01259979f, 0.07052051f, -0.08289843f, 
    -0.14121161f, 0.03584882f, -0.01661559f, -0.01041027f, -0.02173034f, -0.18233909f, 0.06055908f, 0.00368291f, 
    -0.02272549f, 0.00785516f, -0.00934136f, 0.03201152f, -0.13356303f, -0.16107312f, -0.08678043f, 0.01899551f, 
    0.05262396f, 0.02713946f, -0.09817675f, -0.13903049f, 0.02611038f, 0.10303400f, 0.08022265f, 0.16360492f, 
    -0.05920725f, 0.11776479f, 0.50146037f, 0.01334617f, -0.62855166f, -0.15260279f, 0.02300652f, 0.36088336f, 
    -0.01079780f, -0.58827037f, -0.12449362f, 0.15165038f, -0.72746003f, 0.03941554f, -0.07367013f, -0.27539486f, 
    -0.14970994f, 0.07228802f, 0.20090559f, -0.05121043f, 0.15913962f, -0.20189427f, 0.21857716f, -0.35239065f, 
    0.24154884f, -0.12369065f, 0.30041733f, -0.21808596f, -0.18672398f, 0.61124206f, 0.27987158f, -0.33176950f, 
    0.32841119f, -0.18232840f, 0.03509834f, -0.37987083f, -0.41517845f, -0.13515468f, 0.30351195f, -0.71423072f, 
    -0.35940328f, -0.13195859f, -0.28842884f, 0.25452873f, 0.19332795f, -0.05055631f, -0.33189178f, -0.03102357f, 
    -0.53356105f, 0.39560184f, -0.46292427f, -0.19952054f, -0.46703100f, -0.05096048f, -0.20941414f, -0.24903414f, 
    -0.01482049f, -0.05895065f, 0.19799593f, -0.06640015f, -0.42580706f, 0.31387174f, -0.09951912f, 0.56309783f, 
    0.06023918f, 0.09855426f, -0.29453459f, 0.13404636f, 0.14599927f, 0.12628360f, -0.13310994f, 0.13160901f, 
    -0.06996813f, -0.00375076f, -0.11386331f, 0.22182447f, -0.08711437f, -0.01893663f, -0.01682279f, -0.07238247f, 
    0.30840808f, -0.01432104f, -0.16172113f, -0.02894116f, 0.11821698f, 0.04407421f, -0.07147273f, -0.04133724f, 
    0.27544022f, 0.02323544f, -0.37458599f, -0.14550471f, 0.18697532f, -0.06031837f, 0.08656040f, 0.09118482f, 
    0.01098126f, 0.04557830f, 0.16197196f, 0.05865578f, -0.04525131f, 0.07650883f, -0.06566621f, -0.03645413f, 
    -0.14871168f, 0.19436918f, -0.15933093f, -0.16542286f, -0.02605454f, -0.09506136f, -0.15838103f, -0.09239002f, 
    -0.00989509f, -0.15261990f, -0.08367477f, -0.08296598f, -0.13465579f, 0.07084065f, -0.07611731f, -0.01004349f, 
    -0.21064281f, -0.07823169f, 0.02710591f, 0.31781462f, -0.08199334f, -0.21893069f, 0.21274009f, -0.05761837f, 
    0.09499741f, -0.64669871f, 0.08173651f, -0.07095039f, 0.39352226f, 0.34707811f, -0.30445355f, 0.22003576f, 
    0.04049797f, -0.31740689f, -0.03619643f, 0.02833172f, 0.74737263f, 0.30582744f, -0.00898561f, -0.00140591f, 
    -0.41400012f, 0.05606844f, -0.02013062f, 0.11656268f, -0.04815026f, 0.05618969f, -0.03586509f, 0.08023199f, 
    0.01059304f, 0.28999525f, -0.29530320f, -0.20066679f, 0.18102169f, 0.37514448f, -0.20767967f, -0.41804779f, 
    -0.15350258f, -0.07241080f, 0.07610705f, 1.30196309f, 0.45363417f, 0.01610897f, 0.12672339f, 0.41107592f, 
    0.21181214f, 0.15602721f, 0.07040401f, -0.33362895f, -0.49700600f, -0.04482738f, 0.13339755f, 0.15521237f, 
    -0.37229103f, -0.37979740f, 0.00651288f, 0.13912377f, -0.24526621f, 0.07408337f, 0.14629842f, -0.77458996f, 
    0.10600194f, -0.72921318f, 0.78540564f, 0.17004733f, 0.15046440f, -0.15811162f, -0.17888446f, -0.55956966f, 
    0.00262290f, -0.11612476f, 0.13092624f, -0.09408101f, -0.08172280f, 0.03938623f, -0.10545565f, -0.10442404f, 
    0.09943672f, 0.21871631f, 0.01043918f, 0.13464133f, -0.15016341f, 0.10074077f, 0.03848612f, 0.04093710f, 
    0.02876932f, -0.11757209f, -0.12640549f, -0.00122164f, 0.07646801f, 0.14389940f, 0.06210397f, 0.20435567f, 
    0.10493342f, -0.16235693f, 0.06213386f, 0.06295351f, 0.27819756f, 0.05899829f, 0.03030246f, 0.17547344f, 
    -0.06807791f, 0.05256152f, 0.24215616f, 0.16640925f, -0.02066728f, -0.07812658f, 0.11515015f, 0.07899967f, 
    -0.02190912f, -0.00321771f, -0.00776104f, 0.10339260f, -0.09449209f, 0.01946485f, 0.04929079f, -0.04917989f, 
    0.12936293f, 0.05037180f, -0.09395238f, 0.06663104f, 0.05400841f, -0.04292545f, -0.06305507f, 0.00274110f, 
    -0.14542212f, 0.00725398f, -0.07493289f, 0.16989832f, -0.13238575f, -0.07118005f, -0.00044237f, -0.12789665f, 
    0.23010477f, -0.25855851f, 0.51411355f, -0.01539325f, 0.18289514f, -0.32175383f, -0.02036727f, 0.19923910f, 
    0.63786727f, -0.04403986f, 0.11035907f, 0.04729119f, 0.54370463f, -0.11783407f, 0.02102668f, -0.13042115f, 
    -0.17342587f, 0.38181037f, 0.10487456f, -0.45320848f, -0.33504766f, -0.16248541f, -0.15378216f, -0.09533272f, 
    -0.19457212f, 0.04332135f, 0.43290120f, -0.11121801f, -0.06757765f, -0.65980709f, -0.29189759f, -0.29693493f, 
    -0.04080473f, 0.06360407f, 0.20948111f, -0.16330369f, -0.09349928f, 0.22656043f, 0.21819313f, -0.24160986f, 
    -0.05421353f, 0.12064683f, -0.03095584f, -0.35549179f, 0.20023434f, 0.16724350f, -0.35290810f, -0.12139313f, 
    -0.02594202f, -0.18588799f, 0.21115588f, 0.33074015f, -0.36710325f, -0.50930858f, -0.03858320f, -0.22053371f, 
    0.16736446f, -0.28609481f, -0.03941597f, 0.41711780f, 0.04293716f, 0.43029040f, -0.03326500f, -0.36257744f, 
    0.02766196f, -0.04607680f, -0.16096862f, 0.10935760f, -0.15126058f, 0.06501962f, -0.05958826f, -0.09786698f, 
    0.12145629f, -0.08525506f, 0.06033526f, -0.19327541f, -0.02510656f, -0.05132827f, 0.07374011f, 0.12344512f, 
    -0.00463002f, -0.12898883f, 0.07634495f, 0.03611327f, 0.01748209f, 0.08238801f, 0.01163688f, 0.01888737f, 
    0.12987572f, 0.01573491f, -0.02838124f, -0.04665446f, -0.06138740f, -0.00752962f, -0.22013351f, -0.01039418f, 
    -0.06556850f, -0.04997130f, -0.08959385f, 0.04311507f, -0.05537821f, -0.00164340f, 0.18521172f, -0.13866872f, 
    -0.03633932f, -0.09201249f, -0.02124859f, 0.18654236f, -0.02270439f, 0.05222763f, 0.09441065f, -0.01529980f, 
    -0.16258883f, -0.07671110f, 0.08586185f, 0.14084509f, -0.07786845f, 0.05053362f, -0.03009112f, -0.04845621f, 
    -0.01011990f, 0.03190518f, -0.02302543f, 0.13755091f, -0.03476867f, 0.09700261f, -0.05580821f, -0.03428888f, 
    -0.29963723f, 0.09437527f, 0.06066334f, -0.00059349f, -0.08635823f, -0.06437330f, 0.27129170f, -0.09764969f, 
    0.11602503f, -0.17719749f, -0.13011478f, -0.10815200f, -0.05886916f, 0.06994977f, 0.08925944f, -0.02205448f, 
    0.06055748f, 0.32839385f, 0.25566795f, 0.08215527f, -0.06012530f, 0.12987752f, -0.04614601f, -0.05219230f, 
    -0.08711586f, -0.02246786f, -0.19811785f, 0.17991050f, -0.11871880f, -0.21622281f, -0.25166899f, -0.06270301f, 
    -0.08327019f, 0.05999791f, -0.30667949f, -0.14157537f, -0.12321455f, -0.09504935f, -0.10561441f, 0.08671133f, 
    0.05918939f, -0.06100115f, 0.17433496f, 0.12997416f, 0.12386056f, 0.07206088f, -0.14436054f, -0.06200708f, 
    -0.12478527f, 0.01572755f, 0.18807295f, -0.37931690f, 0.15595949f, -0.07600626f, 0.16328280f, 0.27843910f, 
    0.01430006f, 0.31886718f, -0.22855355f, -0.39913735f, -0.09910893f, -0.02753693f, 0.15936327f, 0.16149694f, 
    0.04143235f, -0.00373024f, -0.21683149f, -0.41573474f, 0.41114125f, 0.74283028f, -0.11117961f, 0.03195238f, 
    -0.40170053f, 0.29317287f, 0.14420067f, 0.11873546f, 0.53247523f, 0.28495005f, -0.54084432f, 0.85763580f, 
    0.05296307f, -0.19951552f, 0.10832578f, 0.13959014f, -0.14780149f, 0.00448718f, 0.07909838f, 0.62747365f, 
    -0.14892395f, -0.21458575f, -0.22187376f, 0.52018130f, -0.07358494f, -0.17186339f, -0.00494799f, 0.23744342f, 
    0.53951621f, -0.65347272f, -0.36977437f, 0.05932297f, 0.09379346f, 0.16321421f, -0.10646599f, 0.35960528f, 
    0.62667024f, -0.25084046f, 0.86592120f, -0.29734689f, -0.33787683f, -0.13038065f, 0.19378345f, 0.22843270f, 
    0.05864955f, -0.26924792f, 0.74073917f, -0.30872896f, -0.13401668f, -0.21725301f, 0.44948724f, 0.10458509f, 
    0.42429915f, 0.18588312f, 0.08349103f, -0.14858128f, -0.20559764f, -0.05560836f, 0.16082107f, -0.34677130f, 
    0.06600143f, -0.09501707f, 0.00509504f, -0.15426300f, 0.01835214f, -0.01224840f, -0.05693408f, -0.15310645f, 
    -0.02767786f, -0.06697711f, 0.06076812f, 0.03973172f, 0.04711554f, -0.07774313f, 0.11832800f, -0.11405445f, 
    0.02954797f, -0.09882341f, -0.01664245f, -0.09427292f, -0.16361690f, -0.04378862f, 0.07525708f, -0.01483683f, 
    -0.01190762f, 0.09500969f, -0.05507648f, 0.00992973f, -0.05649236f, 0.05660754f, -0.06051008f, -0.05322648f, 
    0.01389928f, 0.08068293f, -0.04833381f, 0.13635516f, 0.15325996f, -0.01467756f, 0.02018755f, -0.00281455f, 
    -0.07444553f, -0.02776422f, 0.02196308f, -0.15527762f, 0.02455941f, -0.00197393f, -0.01272027f, -0.17060211f, 
    -0.15991160f, 0.05201313f, 0.06870302f, -0.08514548f, -0.02244947f, -0.07512260f, -0.02900215f, 0.01571359f, 
    0.13009471f, -0.02223280f, -0.06496733f, 0.11230276f, -0.02003609f, -0.16170675f, 0.02809395f, 0.04441288f, 
    -0.09143685f, -0.25938219f, 1.01803422f, -0.22935441f, -0.14800109f, -0.10009804f, -0.43970260f, 0.43076664f, 
    0.41476926f, -0.23275858f, -0.14843927f, 1.13105989f, 0.14135206f, -0.12113803f, 0.04798936f, -0.04377363f, 
    0.51337647f, 0.18722065f, 0.14753960f, -0.34610403f, 0.01480669f, 0.08553448f, 0.58342451f, -0.04204899f, 
    0.08261421f, 0.16347499f, -0.08970947f, -0.02278105f, -0.41613799f, -0.06223270f, 0.50580019f, -0.73856735f, 
    0.43934706f, -0.54208028f, 0.10587496f, -0.04591341f, 0.25854197f, -0.25354022f, -0.23200826f, -0.12680578f, 
    0.01472009f, -0.64504325f, 0.22081402f, 0.32039663f, -0.03690049f, 0.36680099f, 0.20839161f, 0.11068253f, 
    0.10200908f, -0.27987689f, 0.28983474f, -0.08390543f, 0.31614554f, 0.06685525f, -0.05562805f, -0.07839602f, 
    -0.08332486f, 0.51172996f, -0.28121769f, 1.08060801f, 0.63012815f, 0.14060999f, -0.30594251f, 0.01116105f, 
    0.07914941f, 0.23115978f, -0.61355025f, -0.00975606f, -0.23426230f, 0.10195570f, -0.18484269f, -0.34534392f, 
    -0.05235707f, 0.61456966f, -0.25236085f, -0.15728936f, -0.19514418f, -0.27677149f, 0.12786727f, -0.16922629f, 
    0.24220283f, -1.20598078f, 0.15361741f, 0.31802350f, 0.10163809f, -0.09406333f, -0.11503078f, 0.33846015f, 
    0.20069696f, -0.07027988f, -0.14688788f, 0.38329738f, -0.06595714f, 0.19229002f, 0.27202296f, 0.47221014f, 
    0.25775725f, -0.44437227f, -0.32706898f, 0.29537407f, 0.29167598f, 0.28172937f, -0.28612721f, -0.14800325f, 
    -0.00731840f, 0.18439676f, 0.03936226f, -0.34221676f, -0.36127096f, -0.75029415f, -0.02744285f, 0.00891013f, 
    0.07936793f, 0.05083544f, -0.03917596f, -0.07548983f, -0.15540895f, 0.05424062f, -0.01314285f, -0.36155018f, 
    0.14586145f, -1.31044519f, 0.22603819f, 0.46094659f, 0.53727186f, -0.44677797f, 0.43065706f, 0.13864630f, 
    0.09868080f, -0.04960189f, -0.08798680f, 0.07487310f, -0.01309514f, 0.11770818f, 0.02209902f, 0.10130697f, 
    -0.00631712f, -0.03185280f, -0.00604091f, 0.04138638f, -0.09588823f, -0.13736591f, -0.06180370f, 0.07026348f, 
    -0.08385930f, -0.20941448f, -0.10294983f, -0.13443688f, 0.01659083f, 0.10351435f, -0.03540451f, -0.07718594f, 
    0.08605302f, -0.06281920f, -0.05230722f, -0.00831523f, 0.10384832f, 0.10548119f, 0.04607837f, -0.09009825f, 
    -0.09180416f, 0.08531202f, -0.01230447f, -0.02368315f, 0.06500929f, -0.07643331f, 0.03606733f, 0.00211444f, 
    -0.01830268f, -0.14608347f, 0.02344287f, -0.08779380f, 0.04067979f, -0.10088743f, -0.07157539f, 0.05893612f, 
    -0.00372194f, 0.10832796f, -0.12561303f, 0.07543831f, -0.06934044f, -0.02476855f, 0.07783513f, -0.14953089f, 
    0.06217428f, 0.00336735f, -0.04892501f, 0.07493808f, 0.02453940f, 0.01173412f, 0.01410832f, -0.13213412f, 
    0.72444588f, 0.10727114f, -0.46137166f, 0.01169819f, -0.34251755f, -0.06585141f, 0.16197202f, -0.39786673f, 
    -0.06213697f, 0.46705082f, 0.30506179f, -0.32383701f, 0.06480273f, -0.05693076f, -0.30860472f, -0.09277487f, 
    -0.24145268f, -0.76992226f, 0.15997057f, 0.16579027f, -0.09182376f, -0.27217317f, -0.29849476f, 0.01901713f, 
    -0.13606057f, -0.24416974f, 0.67481512f, -0.08687107f, 0.32533908f, 0.02176376f, -0.17345414f, 0.06173692f, 
    -0.08355071f, -0.60276067f, -0.18040958f, -0.06200252f, -0.07047860f, -0.02950060f, 0.34680369f, 0.06566358f, 
    -0.05225257f, -0.09057004f, 0.00773790f, 0.10826414f, -0.17759511f, -0.58574682f, -0.36194566f, 0.12951666f, 
    -0.00884849f, 0.17056343f, -0.08862071f, 0.12930194f, 0.08178943f, -0.34938699f, 0.04103309f, -0.11055590f, 
    0.02757663f, -0.17164016f, 0.16414753f, 0.40506285f, 0.21931273f, -0.13366808f, 0.00695154f, -0.56206298f, 
    0.26417059f, 0.07715690f, -0.15875056f, -0.04879345f, -0.13867424f, -0.05544321f, -0.07800841f, 0.23964520f, 
    0.13584013f, -0.21547514f, -0.10245900f, -0.08000004f, -0.05106607f, -0.04115606f, -0.11647910f, -0.10841670f, 
    0.10849640f, -0.07697336f, 0.06991035f, 0.18914221f, -0.08012444f, -0.06002850f, 0.06853666f, -0.09705194f, 
    0.27245891f, -0.00799469f, -0.03729581f, -0.03090426f, 0.01182558f, 0.11757755f, 0.12015142f, 0.03804811f, 
    -0.13741875f, 0.04890394f, -0.21678223f, 0.09414572f, 0.02102462f, 0.05864955f, -0.02401347f, 0.00658634f, 
    0.07066306f, 0.03543768f, -0.06390135f, 0.14102547f, 0.25816759f, 0.10201087f, -0.01983608f, 0.25153247f, 
    0.06592070f, 0.06107444f, 0.08478942f, 0.00442055f, -0.06150569f, -0.02813359f, -0.10836557f, -0.17572379f, 
    -0.06212443f, -0.13972336f, -0.01522870f, 0.38035178f, 0.06125002f, -0.07924446f, 0.04386238f, -0.04599358f, 
    -0.09858883f, -0.15962195f, 0.06065494f, 0.02906066f, 0.07335898f, 0.00292312f, -0.00166459f, -0.37960583f, 
    -0.11209133f, -0.04907173f, -0.03706054f, -0.03581485f, 0.12876998f, 0.09229787f, 0.04585936f, -0.09672777f, 
    -0.14227393f, 0.11932253f, 0.00267689f, -0.12164056f, -0.22642723f, -0.00210190f, 0.00642473f, 0.03974510f, 
    -0.16995293f, -0.09984480f, 0.25080609f, 0.04907581f, -0.20702145f, -0.09547555f, -0.10825238f, -0.07949822f, 
    -0.00829043f, -0.26191857f, -0.02189662f, -0.07976694f, -0.05939524f, 0.08628528f, -0.12326474f, -0.04386865f, 
    -0.01074442f, -0.09467284f, 0.07126706f, -0.06304592f, -0.05523755f, -0.27390438f, 0.01632597f, -0.00190843f, 
    -0.10837965f, 0.16651133f, -0.11908925f, -0.16224121f, 0.06796435f, 0.13281375f, 0.30047241f, 0.08727898f, 
    -0.03038393f, 0.25727403f, 0.02530515f, -0.16688299f, 0.05318872f, 0.20354314f, -0.26203385f, 0.00844069f, 
    -0.06422692f, 0.08180475f, 0.19561672f, -0.06622608f, 0.19787151f, 0.00656656f, -0.07652012f, 0.15852286f, 
    0.11527733f, -0.14107876f, -0.03826305f, 0.04359988f, 0.01976112f, 0.02268319f, 0.08262733f, 0.10002010f, 
    -0.01605017f, 0.01525456f, 0.20168087f, 0.04038232f, -0.00459632f, 0.06461582f, -0.06168919f, 0.03011710f, 
    -0.09621909f, 0.12347233f, -0.12697609f, 0.08666663f, 0.01531941f, 0.03388384f, 0.11248419f, -0.16972174f, 
    0.01862420f, 0.03630364f, -0.10288360f, 0.04021284f, 0.07004567f, 0.00726998f, 0.07339265f, 0.13295364f, 
    -0.08000589f, 0.11056170f, 0.04862295f, 0.05247616f, 0.09684695f, -0.14328042f, -0.14673577f, -0.13744096f, 
    0.02137781f, 0.01596449f, 0.11631732f, -0.08431353f, 0.10165063f, 0.08342825f, 0.13772620f, 0.02517601f, 
    -0.03289398f, 0.05211395f, -0.22780089f, -0.21600553f, 0.08533309f, 0.07619339f, -0.02677351f, 0.12817027f, 
    -0.03931031f, -0.05621941f, -0.00411671f, -0.05547812f, -0.10141487f, 0.11121881f, 0.01157993f, -0.02566600f, 
    0.04763994f, -0.07476545f, -0.03365926f, -0.02728724f, -0.03530417f, 0.11225568f, -0.19687903f, 0.01873544f, 
    0.08028750f, -0.00403285f, 0.02817414f, -0.01275646f, -0.01981588f, 0.00961443f, 0.04868132f, 0.16669659f, 
    -0.02339078f, -0.01441954f, 0.08838669f, -0.03033063f, 0.02268525f, -0.07853117f, -0.10498473f, -0.03100900f, 
    -0.05624519f, 0.01874198f, 0.03119675f, -0.04071634f, 0.01151611f, 0.11364269f, -0.12958901f, -0.06355768f, 
    -0.13848568f, -0.03568580f, 0.00133779f, 0.03208665f, 0.01724481f, -0.06061648f, -0.00781009f, 0.00801672f, 
    -0.10544345f, -0.03442769f, -0.13174194f, 0.03459716f, 0.08862687f, -0.01190023f, -0.09649753f, 0.05679596f, 
    0.08231068f, -0.02489910f, -0.00891156f, -0.00290464f, -0.10594615f, 0.07693819f, 0.02897895f, 0.06543506f, 
    0.10063391f, 0.02537601f, 0.46833810f, 0.04832610f, 0.32637197f, 0.18083550f, 0.04845497f, 0.38688579f, 
    0.10352456f, -0.46234062f, -0.12590249f, -0.04190816f, -0.14861716f, 0.48786390f, -0.13322252f, 0.17807291f, 
    -0.61291999f, 1.10190594f, -0.34266755f, -0.40373543f, -0.01388650f, 0.46958172f, -0.01807533f, -0.30312169f, 
    -0.19950461f, -0.24894412f, 0.20573674f, -0.00859926f, -0.30280200f, 0.09465005f, -0.19971499f, -0.27966419f, 
    0.24870844f, 0.30332544f, 0.15276946f, 0.21284345f, 0.09179270f, -0.44992909f, -0.01618719f, -0.17784406f, 
    0.19460428f, -0.38817677f, -0.16281644f, -0.09266953f, 0.09606114f, 0.57763773f, 0.10298905f, -0.10194045f, 
    0.13772880f, -0.07170344f, -0.08053181f, -0.05971489f, 0.01949750f, 0.62940288f, 0.15943520f, 0.01107605f, 
    -0.43509406f, 0.35448900f, -0.11172730f, -0.32228044f, -0.51223147f, 0.28067565f, -0.07606062f, -0.11706728f, 
    -0.13048506f, -0.10298692f, -0.09472562f, -0.08493891f, 0.03488212f, 0.05066215f, 0.07912331f, -0.00567302f, 
    0.10043631f, -0.02465235f, 0.09831538f, 0.11748765f, -0.21896964f, -0.19189806f, 0.05876495f, -0.10379882f, 
    -0.26882842f, -0.05185370f, -0.07085083f, 0.04661790f, 0.15293233f, 0.18302956f, -0.00800361f, 0.01243274f, 
    -0.05733811f, 0.04758745f, -0.02956444f, -0.08116033f, 0.11882388f, 0.13483141f, -0.09580439f, -0.01362461f, 
    -0.18594444f, 0.11486709f, -0.11262260f, 0.24816146f, -0.05183981f, 0.00812763f, -0.00330038f, 0.00911531f, 
    -0.01373881f, -0.06048448f, -0.00170003f, 0.18193555f, -0.02546798f, -0.00906553f, -0.17660031f, -0.05919242f, 
    0.13534626f, -0.02787524f, -0.03725655f, 0.06519808f, -0.07607248f, 0.10899241f, -0.06257385f, -0.05745909f, 
    0.18691322f, 0.04964151f, -0.16219181f, 0.06251548f, 0.12004937f, -0.17635660f, -0.03761868f, 0.12561893f, 
    -0.00313896f, 0.23648481f, 0.12141079f, -0.10537096f, 0.13103850f, 0.01473456f, -0.15810724f, -0.02543901f, 
    -0.03750140f, 0.09882788f, 0.01676620f, 0.06318133f, -0.21103369f, -0.13453388f, -0.16423340f, 0.29642344f, 
    -0.26800013f, 0.21639700f, -0.03633826f, 0.01567016f, -0.10937694f, -0.15370974f, -0.04279543f, 0.13498786f, 
    -0.03248324f, -0.08186013f, -0.00216765f, 0.01850221f, 0.02558864f, 0.10573263f, 0.14371397f, 0.02019686f, 
    0.14173742f, -0.10554063f, -0.11172217f, -0.20413859f, 0.14533673f, -0.07277071f, 0.00939419f, 0.05917062f, 
    0.06771453f, 0.02505621f, -0.07776628f, -0.27770665f, -0.07481849f, -0.07397280f, -0.09628618f, 0.13900001f, 
    -0.09809987f, 0.11179004f, -0.31185946f, -0.08138417f, -0.11620338f, -0.05376180f, 0.11119067f, 0.00124926f, 
    0.03776823f, 0.00314994f, -0.15869713f, -0.02671592f, -0.18971318f, 0.20016316f, -0.04131281f, 0.02556523f, 
    -0.05574487f, -0.17821357f, 0.01165305f, 0.05872765f, -0.03721005f, 0.09489959f, -0.10929765f, -0.01689233f, 
    0.22503863f, 0.13961926f, 0.10261679f, -0.15892678f, -0.09157802f, -0.16108307f, -0.11090741f, 0.02530080f, 
    0.07648502f, -0.08569523f, -0.10995570f, -0.05482535f, -0.04298077f, 0.04283276f, 0.11050116f, 0.06601792f, 
    0.10271731f, 0.01200074f, 0.03105395f, 0.01717609f, 0.11369824f, 0.16088794f, 0.06209701f, 0.10917511f, 
    0.01509253f, 0.02740577f, 0.02758500f, -0.07244490f, 0.12492029f, -0.21058176f, 0.10042433f, 0.06302390f, 
    -0.07697761f, -0.03304815f, -0.06844059f, 0.03039567f, 0.03757375f, 0.09023270f, 0.05220130f, 0.10866736f, 
    0.06565437f, 0.07131796f, -0.07560027f, 0.19627780f, 0.00865993f, -0.05666950f, 0.01916556f, 0.02359773f, 
    0.24712646f, -0.02586551f, -0.13481283f, -0.11469241f, -0.22567973f, -0.04674483f, 0.02408227f, -0.12467843f, 
    -0.13933958f, -0.11720832f, -0.22169714f, -0.03418649f, -0.14714572f, 0.03833669f, -0.04831495f, -0.15654412f, 
    0.02724062f, -0.08560879f, 0.02726004f, -0.03918786f, 0.09410441f, 0.00230919f, 0.14118773f, -0.08078624f, 
    0.09223222f, 0.00398042f, -0.04483100f, 0.09360671f, 0.03992206f, 0.10219154f, -0.06759773f, 0.21850665f, 
    0.05286504f, -0.03504063f, 0.00639071f, -0.12017027f, -0.10917625f, -0.00080264f, 0.00971984f, 0.07518756f, 
    0.25109127f, 0.09554771f, -0.00969423f, -0.02114576f, -0.00464750f, -0.12118271f, 0.11940867f, -0.04499236f, 
    0.00578784f, -0.12811632f, 0.01262529f, 0.00626524f, -0.04140985f, 0.09458891f, -0.07352906f, 0.09539866f, 
    -0.10930330f, 0.01818686f, -0.14812352f, 0.10548879f, -0.02170748f, 0.00354547f, 0.00490122f, -0.01130673f, 
    -0.10979040f, 0.11892170f, -0.05255140f, -0.02188076f, 0.04006327f, -0.02383367f, 0.05748624f, -0.20195155f, 
    -0.17154993f, -0.08007448f, 0.02001694f, 0.01316884f, 0.18612599f, 0.06619661f, -0.05049751f, 0.00006004f, 
    0.00984289f, 0.10866388f, 0.08665814f, 0.08343224f, 0.04492427f, 0.04818905f, 0.23363522f, 0.05407105f, 
    0.05295618f, -0.00918297f, 0.04756219f, 0.03116939f, 0.05277550f, 0.00348475f, -0.04116952f, 0.05330759f, 
    -0.03120529f, -0.02361903f, 0.07702979f, 0.09093411f, 0.03965786f, 0.09083730f, 0.16186881f, -0.08044240f, 
    0.05452347f, 0.11762983f, 0.00013108f, 0.01909314f, 0.12263080f, -0.05744102f, 0.07536308f, 0.04605567f, 
    -0.16421212f, 0.06655851f, 0.02476124f, -0.05726918f, -0.10893901f, 0.09615394f, -0.01572477f, -0.12228154f, 
    0.10773234f, 0.02199959f, 0.00692792f, 0.07737440f, 0.01321957f, -0.02150690f, 0.23169962f, 0.04834992f, 
    -0.15097950f, 0.02559322f, -0.10874956f, -0.05945880f, 0.07611914f, 0.01886785f, 0.03733116f, 0.12469596f, 
    0.04537313f, 0.05650884f, 0.22884160f, -0.10152252f, 0.01097275f, -0.04021915f, 0.02134739f, 0.11320174f, 
    -0.14058208f, -0.03141497f, 0.06006881f, -0.12950417f, 0.05976242f, -0.19230606f, -0.13055594f, 0.02507150f, 
    -0.16505843f, -0.00542614f, 0.03618965f, 0.06474528f, 0.14431973f, -0.03362292f, -0.06046104f, 0.05875972f, 
    0.00497600f, -0.04678020f, 0.14109024f, -0.10312055f, 0.04512266f, -0.05615868f, -0.10445744f, -0.12116028f, 
    0.08918364f, 0.03591554f, -0.17054607f, -0.13912022f, -0.17696315f, 0.04580393f, 0.13667066f, 0.07507595f, 
    0.17411120f, -0.03775855f, -0.10633496f, -0.04466098f, -0.06703346f, 0.03741248f, 0.18761760f, 0.05503362f, 
    0.09557071f, 0.17358640f, -0.05025125f, -0.01171981f, 0.00294804f, 0.11090383f, -0.15886699f, -0.07463259f, 
    0.06019064f, 0.04755455f, 0.22297868f, -0.04757415f, 0.01953652f, 0.10923001f, -0.05295104f, -0.01250011f, 
    -0.04853929f, 0.11511175f, 0.12182871f, 0.07264929f, -0.09121333f, -0.28678322f, -0.01864636f, -0.15058738f, 
    0.08758458f, 0.22391255f, -0.04059601f, -0.23909047f, -0.03615203f, 0.01973462f, -0.17549446f, 0.11898807f, 
    -0.10673651f, -0.08779047f, -0.12036151f, -0.02386186f, -0.15901405f, -0.15839367f, 0.13708138f, -0.11745860f, 
    -0.12062183f, -0.14740805f, 0.17195605f, -0.05970808f, -0.06092418f, 0.03715257f, 0.01375250f, 0.14573732f, 
    0.12645403f, -0.11415497f, 0.09245526f, -0.20217369f, 0.06010570f, 0.12730215f, 0.08941241f, -0.16839679f, 
    0.23121916f, -0.04716447f, -0.00920694f, -0.17265472f, 0.04230004f, -0.09920384f, 0.19363366f, 0.21119314f, 
    0.10038498f, 0.22062966f, 0.06329319f, 0.21946350f, -0.09579861f, -0.06580968f, -0.14636689f, -0.15361668f, 
    -0.01310153f, -0.32164073f, -0.19414937f, 0.09394062f, -0.01559281f, -0.06052184f, -0.11458937f, -0.22817300f, 
    -0.10463949f, -0.65263587f, -0.01504326f, -0.05243480f, 0.33588082f, 0.02475961f, -0.30749169f, -0.32468927f, 
    -0.17709990f, -0.13971341f, -0.16416596f, 0.26487353f, 0.27964833f, -0.13818948f, -0.29306495f, 0.37028825f, 
    -0.05762652f, 0.34966972f, 0.10037158f, 0.05110081f, -0.04884081f, -0.06911261f, 0.25680745f, -0.16195166f, 
    0.09258364f, 0.10440560f, -0.26283795f, 0.32385802f, 0.03198868f, -0.26939711f, 0.05496792f, 0.36494842f, 
    0.01208150f, -0.29759052f, -0.30108571f, -0.18686345f, 0.58579320f, -0.48939306f, -0.11374120f, 0.07993211f, 
    0.57841766f, -0.27802941f, 0.54039764f, -0.08827204f, 0.15988544f, 0.55959707f, 0.20661409f, 0.39447427f, 
    -0.21528715f, 0.05225482f, 0.64870787f, -0.31002423f, 0.08987916f, 0.05130839f, 0.39237204f, -0.06115816f, 
    -0.06169257f, 0.52407610f, 0.28733003f, -0.24524523f, 0.40116331f, 0.24663424f, 0.00143333f, -0.51499587f, 
    0.00225124f, 0.09545636f, 0.17190246f, 0.26822242f, -0.00262431f, 0.08713609f, -0.04938878f, 0.03643847f, 
    -0.20044492f, 0.37772137f, 0.15794726f, -0.08164183f, -0.42651129f, -0.17098382f, -0.27141282f, 0.18594447f, 
    -0.24662293f, 0.20488152f, 0.09407501f, 0.26747686f, 0.44176602f, 0.44650486f, -0.28065690f, 0.32904184f, 
    0.37376612f, 0.41796544f, 0.03954265f, 0.11329367f, -0.11326192f, -0.34604576f, -0.37000230f, 0.25907528f, 
    0.22966772f, 0.11049793f, 0.02522491f, -0.12368298f, 0.19514905f, -0.42624816f, -0.43864435f, 0.36482355f, 
    0.14588942f, -0.13124816f, 0.05812703f, -0.56150895f, 0.02195803f, 0.03896592f, 0.37193874f, 0.06286331f, 
    0.35068861f, 0.00526794f, 0.01790161f, -0.22355674f, 0.02389134f, -0.34175366f, 0.08349397f, 0.27897069f, 
    -0.32460630f, -0.14049549f, -0.61587864f, -0.13094661f, -0.32203168f, -0.17602305f, 0.29896343f, -0.00053448f, 
    -0.13940196f, 0.05350002f, 0.13017896f, -0.07323937f, 0.08059300f, -0.00074390f, -0.06700558f, -0.06811526f, 
    -0.24788895f, 0.02573591f, 0.08907440f, -0.19279316f, 0.11561444f, 0.08268622f, -0.08404323f, 0.09287421f, 
    -0.04594793f, 0.17169766f, -0.05543131f, 0.03928181f, -0.08997065f, 0.06794259f, -0.16205169f, 0.02369888f, 
    -0.13176562f, -0.13292153f, 0.09687141f, -0.00429209f, -0.04596234f, -0.11437497f, 0.05993493f, -0.01561508f, 
    0.10477222f, 0.01584195f, -0.04328777f, -0.19102034f, -0.12227864f, -0.14848161f, 0.01858675f, -0.13629037f, 
    0.17505249f, -0.06117330f, -0.11467008f, -0.01560703f, -0.13115026f, -0.00045090f, 0.19458272f, 0.06565592f, 
    0.05621115f, 0.12238274f, -0.19108625f, 0.03001233f, -0.02504449f, -0.14629397f, -0.09150236f, 0.06987592f, 
    -0.08997855f, 0.00730325f, 0.17468753f, 0.02955666f, 0.00024051f, 0.13648152f, -0.08996364f, -0.11550397f, 
    0.59929264f, 0.17634471f, -0.02659817f, 0.21322107f, -0.08998483f, -0.00260440f, -0.14906392f, 0.00055941f, 
    0.34689805f, 0.40572008f, -0.33320141f, -0.35876217f, -0.10693325f, -0.11751635f, -0.13390470f, -0.02220550f, 
    -0.53607357f, -0.14912258f, -0.05018608f, -0.21327047f, 0.13808534f, 0.32844129f, -0.25160187f, -0.12265496f, 
    0.33139524f, 0.07851868f, 0.66353279f, -0.35924619f, -0.41907704f, -0.64720953f, -0.21223360f, 0.10676274f, 
    0.57376748f, -0.34702477f, 0.01535052f, 0.09831202f, -0.07785736f, -0.12652621f, -0.39770484f, 0.01072199f, 
    0.10826579f, -0.27935371f, -0.13907567f, -0.62420774f, -0.16782859f, -0.22460538f, 0.06875712f, 0.24894688f, 
    0.22706302f, -0.00287379f, -0.14299330f, -0.13730323f, -0.34530884f, -0.34179232f, -0.13204096f, -0.07065958f, 
    -0.48822191f, -0.05147342f, -0.10148959f, 0.17899565f, 0.24103251f, -0.15402223f, -0.01806729f, -0.03452305f, 
    0.22240719f, 0.10504673f, -0.01136838f, -0.37951466f, -0.02509356f, -0.01602440f, -0.03646898f, 0.51868045f, 
    -0.51994818f, 0.58943832f, 0.51376438f, 0.30336219f, -0.17717196f, -0.39094099f, 0.04484857f, 0.10656044f, 
    0.34430072f, -0.35455236f, -0.50811499f, 0.20737638f, -0.02404349f, 0.02220685f, -0.40863365f, 0.73745739f, 
    0.00911431f, -0.01518238f, -0.56333637f, 0.45659968f, 0.05934946f, 0.11373334f, -0.26087937f, 0.30791479f, 
    -0.35409978f, 0.56121600f, 0.33070239f, 0.20474799f, 0.05057729f, 0.70004666f, 0.28233004f, -0.33851224f, 
    0.08619879f, 0.27602106f, -0.03492735f, -0.69054532f, 0.03660416f, -0.15413432f, 0.75474131f, 0.16731960f, 
    0.05673163f, 0.31740534f, -0.01939474f, -0.22571586f, 0.10155040f, 0.07152315f, 0.36937106f, 0.17378713f, 
    0.12599505f, -1.36771631f, -0.21866925f, 0.11474733f, -0.03327401f, -0.12324139f, 0.02121103f, 0.22198932f, 
    -0.12687320f, -0.07956813f, 0.02955056f, -0.35406223f, -0.05237007f, 0.28184760f, -0.01701864f, -0.13668497f, 
    0.35965282f, -0.34388405f, 0.09541932f, -0.00807365f, 0.31420103f, -0.08967678f, -0.18754432f, -0.12501794f, 
    -0.36058867f, -0.22086470f, -0.53746891f, 0.43994477f, -0.14610977f, -0.04001642f, 0.42136085f, 0.02474526f, 
    -0.15761825f, -0.17632025f, -0.04551676f, 0.13206656f, 0.02780230f, 0.36757365f, 0.37732989f, -0.17295542f, 
    -0.15837571f, -0.14397657f, 0.09426498f, -0.19277085f, -0.17574237f, 0.22729202f, 0.95242441f, -0.18861997f, 
    -0.24705428f, 0.09176186f, -0.03412200f, 0.74205768f, -0.01704712f, -0.11375593f, -0.03490572f, -0.05658691f, 
    -0.36123526f, -0.09377888f, -0.06412793f, -0.04582027f, 0.17080161f, -0.07429783f, -0.24611259f, -0.08522423f, 
    0.03482720f, -0.38036510f, 0.43430766f, -0.25140417f, -0.15507931f, -0.14891352f, 0.31344897f, -0.07938389f, 
    0.62651724f, 0.12568857f, -0.07750615f, 0.12548344f, -0.13914938f, -0.07574199f, -0.29971382f, -0.10844254f, 
    0.15282881f, -0.15660420f, -0.24982971f, -0.06089842f, -0.10199320f, 0.15932748f, 0.20658988f, 0.20749488f, 
    -0.07985419f, 0.28724384f, 0.41818905f, -0.27860454f, -0.20750333f, -0.37880960f, -0.13515596f, 0.03823634f, 
    -0.58606607f, 0.17013492f, 0.63834280f, -0.34146205f, 0.16609471f, -0.23610851f, -0.17896704f, 0.43920085f, 
    0.11691798f, -0.07146714f, 0.02242309f, 0.04075556f, 0.25916651f, -0.48923039f, -0.23164903f, 0.14872333f, 
    0.12978131f, -0.10118512f, -0.02051968f, -0.34460601f, 0.15221559f, 0.33236364f, -0.38067123f, -0.04033300f, 
    -0.00581565f, 0.17205806f, 0.14536975f, 0.07554857f, -0.52727824f, 0.21255358f, 0.10942324f, -0.24837106f, 
    0.35411891f, -0.30994710f, 0.01620254f, -0.25724098f, 0.10435534f, 0.13347124f, -0.00276984f, -0.01043771f, 
    0.09095415f, -0.06667991f, 0.07637179f, 0.11498976f, -0.16353825f, -0.00526144f, -0.03005632f, 0.25358647f, 
    0.27183297f, -0.40889910f, 0.31865621f, -0.08395287f, 0.19415472f, 0.07007416f, -0.24561124f, 0.20459612f, 
    -0.21868850f, 0.75923312f, 0.30944943f, -0.02320584f, -0.25812268f, -0.18019363f, -0.10063050f, 0.26798373f, 
    -0.22177987f, 0.05748757f, 0.60536504f, 0.00897945f, 0.17905828f, -0.72818017f, 0.00779770f, -0.05436431f, 
    0.23520130f, -0.33041912f, 0.17387892f, -0.27791128f, -0.00195943f, -0.34248346f, 0.22265555f, -0.04805681f, 
    0.11370706f, 0.01555679f, 0.10678619f, 0.22928096f, 0.24403413f, 0.39653492f, -0.31916550f, 0.26364765f, 
    0.01967846f, 0.06996767f, -0.20929748f, -0.39716968f, -0.70385224f, -0.30328798f, -0.02248835f, 0.00038931f, 
    0.35513094f, 0.89752424f, -0.18898489f, 0.04242234f, -0.24220140f, 0.14171642f, 0.00940482f, -0.20364439f, 
    -0.13606438f, 0.02733471f, -0.06619725f, -0.17748408f, 0.12997174f, 0.05962620f, -0.01514763f, -0.08854242f, 
    0.06750999f, -0.00180682f, 0.02969985f, -0.05512791f, -0.02206855f, -0.13818337f, 0.09028278f, -0.12431411f, 
    -0.11079051f, -0.05222196f, -0.03548323f, 0.00321007f, -0.05495942f, -0.07965182f, 0.01565096f, 0.04000187f, 
    -0.03227253f, -0.09705246f, -0.09003363f, 0.00599420f, -0.00190652f, -0.09579766f, 0.03187652f, -0.03327596f, 
    -0.01223927f, -0.06463308f, 0.00114898f, -0.03707616f, 0.14795093f, -0.22131222f, -0.10655736f, 0.07243677f, 
    -0.03155329f, 0.03230061f, -0.04595146f, 0.04442770f, -0.12277634f, 0.00991550f, 0.10606350f, 0.00569406f, 
    -0.08333228f, -0.10338574f, 0.08676450f, -0.01275655f, -0.11306690f, 0.02533213f, -0.04454138f, 0.04097541f, 
    0.05328742f, -0.00096535f, -0.08753894f, 0.08547916f, 0.03930642f, -0.00745982f, -0.06687649f, 0.02462304f, 
    -0.34936747f, 0.03534231f, 0.15165523f, 0.35124356f, 0.08721898f, -0.12825669f, 0.05550487f, -0.23541482f, 
    -0.56771106f, -0.43167046f, 0.36018473f, 0.44443306f, 0.18152443f, 0.05070206f, -0.06557622f, 0.19782349f, 
    0.11591855f, 0.20634824f, -0.01417826f, -0.04151029f, -0.00056523f, 0.35181072f, 0.54907006f, -0.24914880f, 
    0.39020014f, 0.25851026f, -0.30787268f, -0.18449871f, -0.04588211f, 0.56599283f, 0.34270328f, -0.03750790f, 
    0.27504641f, 0.31523642f, 0.01910951f, -0.19742075f, -0.08614550f, -0.15015419f, -0.36528209f, 0.20180066f, 
    0.10420956f, -0.12889567f, 0.04364267f, 0.30500954f, 0.00095487f, 0.24886230f, 0.41743422f, -0.02887207f, 
    -0.24914798f, 0.06099427f, -0.07388678f, -0.00357620f, 0.47668895f, -0.05525266f, -0.41807628f, 0.27645406f, 
    -0.00673724f, 0.73349082f, -0.27259019f, 0.00214039f, -0.10056954f, 0.23537834f, 0.07120728f, 0.23744550f, 
    -0.57824230f, 0.09178086f, -0.09626471f, 0.62237507f, 0.11924354f, 0.16571620f, 0.03195318f, -0.17403105f, 
    0.02435928f, -0.28723449f, 0.54434890f, -0.06896015f, -0.27954814f, -0.16392919f, -0.08101889f, 0.09712229f, 
    0.21972488f, -0.55329907f, 0.44988585f, 0.69802988f, 0.33965588f, -0.28002742f, 0.38166106f, -0.09536961f, 
    0.20690113f, -0.09008381f, -0.63520443f, -0.32256654f, 0.18253538f, 0.21900278f, 0.55457133f, 0.26392925f, 
    -0.12484331f, 0.21584207f, -0.06596649f, -0.24811772f, 0.06997533f, 0.21363729f, -0.30272231f, 0.02890073f, 
    -0.00558670f, -0.01735757f, 0.16002400f, 0.85135847f, -0.05827048f, 0.11048695f, -0.35117498f, -0.05784837f, 
    -0.47495285f, 0.12715603f, 0.14476083f, -0.40437138f, 0.55724639f, -0.21058354f, -0.30838650f, -0.24359988f, 
    -0.22338949f, 0.28183007f, 0.17930633f, -0.36696410f, -0.08345579f, -0.04261827f, 0.24542326f, 0.37173176f, 
    -0.09092613f, 0.16301794f, -0.45115373f, -0.03840163f, 0.11540929f, 0.11122566f, 0.27843553f, -0.27849373f, 
    -0.24456498f, -0.13446334f, -0.10790751f, -0.21560079f, -0.05495124f, 0.00642475f, -0.12782577f, 0.13557869f, 
    0.16670531f, 0.30176875f, -0.05990411f, 0.01566489f, 0.07924815f, -0.27778721f, 0.24533492f, 0.08703890f, 
    -0.06445936f, -0.43623361f, -0.10570309f, 0.15817663f, -0.16241950f, -0.03184529f, -0.00569057f, 0.31685847f, 
    -0.38210204f, 0.24324280f, -0.46618217f, -0.10001878f, -0.04543459f, 0.18761155f, 0.09859852f, 0.06457617f, 
    0.02727346f, 0.44221967f, 0.19751792f, 0.45605651f, 0.15136053f, 0.06041707f, -0.08431644f, -0.04260029f, 
    -0.13886519f, 0.24793512f, 0.12802891f, -0.26486418f, 0.46800390f, 0.06674892f, 0.23980227f, 0.13639489f, 
    0.14133723f, 0.19545951f, -0.17233267f, -0.48673248f, -0.47556317f, 0.09239269f, 0.37989292f, 0.03350097f, 
    0.14983410f, 0.00896541f, 0.06083703f, -0.07225764f, -0.12174201f, 0.06250966f, -0.05609499f, -0.23972158f, 
    0.15466015f, 0.01840502f, 0.12451550f, 0.05327752f, 0.08736650f, -0.09351971f, 0.20155191f, 0.19953735f, 
    0.10483573f, -0.05130533f, 0.13762125f, 0.02964976f, 0.15246575f, 0.14661492f, 0.05494438f, 0.08379256f, 
    0.11394490f, -0.15972494f, -0.13610564f, -0.23011285f, -0.04084020f, -0.26493865f, -0.04043265f, -0.03393753f, 
    0.01572699f, -0.07581484f, 0.11508923f, 0.12075010f, -0.05215694f, -0.08317018f, 0.07388341f, 0.18807745f, 
    -0.10724033f, -0.07292094f, -0.06423652f, 0.03605711f, 0.03206031f, 0.14439726f, 0.20710966f, -0.12771885f, 
    -0.00849622f, -0.04634969f, 0.08213561f, 0.00006123f, 0.04274988f, 0.05371559f, -0.11472008f, -0.15920635f, 
    0.01882673f, 0.08239295f, 0.00653216f, -0.08154769f, -0.01670046f, -0.04357907f, 0.04926737f, -0.02843772f, 
    0.22694731f, -0.23794761f, -0.23454158f, 0.02104209f, 0.03664837f, 0.19093327f, 0.16525224f, -0.00815050f, 
    -0.09076109f, 0.10469140f, 0.06268553f, 0.02339550f, 0.08212669f, -0.12254124f, -0.11185434f, -0.11184579f, 
    0.05925098f, -0.07428866f, -0.12559502f, -0.13143267f, -0.30463335f, -0.16949013f, -0.13497172f, -0.17447834f, 
    -0.28401259f, -0.01813529f, 0.25130355f, -0.07798416f, -0.15915361f, 0.00976759f, -0.03710930f, 0.01976252f, 
    0.15223740f, -0.54837745f, -0.36175197f, -0.12420717f, 0.07354101f, -0.16733624f, 0.19041930f, 0.06008441f, 
    -0.15481317f, -0.08486605f, -0.16770838f, 0.48539194f, 0.09728409f, -0.42456234f, -0.57640570f, -0.01344905f, 
    -0.13914125f, -0.06215917f, -0.24548800f, -0.25951234f, -0.23130864f, -0.01864279f, 0.23963653f, 0.08422625f, 
    0.14354832f, -0.05878283f, 0.54785591f, 0.05125105f, 0.06265195f, -0.11263485f, 0.25864130f, 0.02634827f, 
    -0.23760453f, 0.39079878f, 0.50083244f, -0.01247418f, -0.82297546f, -0.11587060f, 0.06077745f, 0.28950471f, 
    -0.07242968f, 0.24888346f, 0.21932909f, 0.41361615f, -0.93697673f, -0.39495257f, 0.18765980f, 0.18613520f, 
    0.47818825f, 0.18119159f, 0.53567648f, -0.13663346f, 0.01993930f, -0.16208346f, 0.15973145f, -0.12343775f, 
    0.10297290f, 0.00009806f, 0.04343210f, -0.03451557f, -0.46250033f, -0.06053445f, 0.27616227f, 0.10743083f, 
    0.29663882f, -0.08759710f, -0.36505780f, -0.57515234f, 0.02940620f, -0.24385585f, -0.19948959f, -0.43541515f, 
    -0.01455054f, -0.14544703f, -0.15213758f, 0.59339595f, 0.39238492f, -0.24624117f, -0.10379266f, -0.04242247f, 
    -0.11479478f, 0.51364321f, -0.29580852f, -0.23696066f, 0.02334739f, 0.12595093f, -0.16189392f, -0.02880220f, 
    -0.01533207f, 0.15275685f, -0.07907390f, 0.00830245f, 0.05125953f, 0.25802159f, 0.10201641f, 0.59730434f, 
    -0.04653572f, 0.10492567f, 0.05459519f, -0.03680291f, -0.11128642f, 0.01737934f, 0.00108474f, 0.09620827f, 
    0.08087405f, -0.09177470f, -0.00769999f, -0.06427857f, 0.08904392f, 0.03431171f, -0.20978644f, -0.14565320f, 
    0.07122245f, 0.13397677f, -0.10601167f, 0.04685360f, -0.02443140f, -0.00167319f, 0.16336662f, -0.14759283f, 
    -0.03495215f, -0.00656772f, 0.02620398f, -0.07725469f, 0.01590585f, -0.00289994f, 0.04990615f, 0.01407121f, 
    -0.00430559f, -0.06485844f, -0.06993262f, -0.19527200f, 0.10355359f, 0.03930390f, -0.07741413f, 0.04155976f, 
    -0.06043582f, 0.06119834f, -0.08572802f, -0.17500760f, -0.08737934f, -0.19559915f, 0.02580904f, 0.28440034f, 
    0.03627787f, -0.03618687f, 0.02004366f, 0.03038203f, 0.05513850f, -0.08293194f, 0.08201940f, 0.02058688f, 
    0.04783262f, 0.04903365f, -0.02300217f, -0.00180377f, -0.17374371f, -0.01536511f, 0.04265296f, -0.06160497f, 
    0.08477025f, 0.22158490f, -0.32751307f, 0.04046975f, 0.39351669f, 0.17685211f, -0.05219361f, -0.36804983f, 
    -0.27862093f, 0.14001265f, 0.31344566f, -0.38906211f, 0.31506437f, 0.21353193f, -0.31353459f, 0.83965605f, 
    0.13301803f, 0.19931287f, 0.10446920f, -0.09210987f, -0.09409828f, 0.08408020f, 0.05064810f, 0.16930446f, 
    0.27396822f, 0.18300644f, -0.03692124f, 0.18814901f, 0.07462408f, -0.54775739f, -0.44124064f, 0.23321885f, 
    0.10567524f, -0.01418308f, -0.30366474f, 0.03408117f, 0.73152995f, 0.04219240f, -0.01898457f, 0.48253071f, 
    0.33695242f, -0.09108488f, 0.56451255f, -0.33955306f, -0.10252916f, -0.15077251f, 0.44803333f, 0.12442321f, 
    0.18932414f, -0.30686355f, 0.84501511f, -0.12410086f, 0.49724355f, -0.01567190f, 0.19826856f, 0.21643060f, 
    -0.00207406f, 0.34977126f, 0.04525784f, 0.21097407f, 0.30853000f, -0.37887883f, 0.08869093f, -0.34966931f, 
    -0.16865969f, -0.03710146f, 0.04070412f, 0.04167261f, -0.06013938f, -0.32629320f, 0.09327141f, 0.10416060f, 
    0.15063852f, -0.36421946f, -0.05710471f, 0.34730724f, 0.08581101f, -0.35729662f, 0.26188359f, -0.02264809f, 
    0.40209651f, 0.57921505f, 0.19351357f, -0.11991430f, -0.10716975f, 0.18842500f, 0.15606247f, -0.11724880f, 
    0.21406521f, 0.17983542f, -0.15201540f, -0.25042266f, 0.00909268f, 0.22505610f, 0.09394284f, -0.38337430f, 
    -0.03351084f, -0.00238597f, 0.13502821f, 0.23796690f, 0.15158728f, 0.04963908f, -0.25961682f, -0.06851169f, 
    0.08228009f, -0.24932075f, 0.06919175f, -0.08242818f, 0.03004312f, 0.47375238f, -0.00256118f, 0.00814893f, 
    0.10838480f, -0.09189028f, 0.08882727f, -0.07576872f, 0.13252817f, 0.47525951f, -0.07472313f, 0.08177327f, 
    0.13255812f, 0.28534549f, -0.08688238f, 0.41550216f, 0.05217434f, 0.23677628f, -0.07782640f, 0.10881704f, 
    0.10127766f, -0.07206218f, -0.03334824f, -0.05104167f, 0.04948954f, 0.11176504f, 0.03129168f, 0.19090016f, 
    -0.02407056f, -0.04116472f, 0.00973041f, -0.09945387f, 0.06810775f, -0.06823023f, -0.05122036f, -0.04775467f, 
    0.07612140f, 0.01798580f, 0.03264941f, 0.01992844f, 0.04743294f, 0.12400530f, 0.14399756f, -0.06367748f, 
    0.16195987f, 0.09042495f, -0.04748677f, -0.05718657f, 0.25224936f, 0.16208611f, 0.04148446f, -0.07347188f, 
    -0.08684346f, 0.02577912f, -0.13391837f, 0.07862545f, -0.09097843f, 0.03184745f, -0.08419342f, 0.01968875f, 
    -0.17887661f, -0.09812094f, -0.01280741f, -0.00207927f, -0.04186412f, -0.09148737f, -0.02794295f, -0.07495701f, 
    0.07338664f, -0.13065772f, -0.14414206f, 0.01840597f, -0.00809466f, 0.16260608f, 0.09283234f, -0.03927340f, 
    0.11727566f, 0.00071495f, -0.01223385f, 0.09933007f, 0.09873763f, -0.09941966f, -0.08183998f, 0.04416017f, 
    -0.31727165f, 0.19855395f, 0.00810646f, -0.01288225f, -0.04613948f, -0.01514239f, -0.01074790f, -0.11411759f, 
    0.01574307f, 0.12500747f, 0.11875619f, -0.06545009f, -0.04653862f, -0.02547902f, 0.07148054f, 0.11438353f, 
    -0.07524201f, 0.07593718f, -0.00668033f, -0.13110632f, -0.06840701f, 0.05024004f, -0.02483794f, -0.01587230f, 
    -0.09397165f, 0.07632061f, 0.01276544f, 0.05941541f, -0.02920577f, -0.08633138f, 0.07849552f, -0.04174116f, 
    0.08502947f, 0.21111551f, -0.11993790f, -0.13696426f, 0.04513309f, -0.12763567f, 0.04860962f, -0.03025837f, 
    -0.02736987f, -0.06634295f, 0.03642721f, -0.06417210f, -0.01416068f, 0.06292525f, 0.04945344f, 0.01596871f, 
    -0.14273863f, -0.07470109f, -0.05124175f, 0.03640181f, 0.03452249f, 0.00781951f, 0.10246024f, -0.00944971f, 
    -0.00242469f, -0.02115696f, -0.10146292f, -0.06201567f, -0.01968651f, -0.01983212f, 0.06096465f, -0.16058458f, 
    -0.15254289f, -0.03724610f, 0.00216918f, -0.02515548f, -0.11361840f, 0.12420548f, 0.12622593f, 0.15675102f, 
    -0.06188702f, 0.21116185f, 0.06522278f, 0.16610277f, -0.08478510f, 0.06580448f, -0.07292543f, -0.08815539f, 
    -0.09996016f, -0.14002652f, -0.18283840f, 0.09215545f, -0.18144390f, -0.12389510f, 0.12259032f, -0.21855254f, 
    0.02882730f, 0.23254396f, 0.01148162f, -0.04371547f, 0.09274987f, -0.05693350f, -0.03904986f, 0.07866755f, 
    0.19578008f, 0.09196862f, -0.05511685f, -0.03859216f, -0.10077053f, 0.01825486f, 0.01223832f, 0.06563045f, 
    -0.11049831f, 0.16345170f, 0.08222690f, -0.17288715f, -0.04736196f, -0.03010463f, -0.05586923f, 0.06718865f, 
    0.04795691f, -0.14210144f, 0.08558808f, -0.09829924f, 0.18072364f, 0.10458333f, 0.08088983f, 0.07190830f, 
    -0.08206502f, 0.09089550f, 0.15543883f, 0.03184745f, -0.02949852f, 0.07064309f, -0.05122280f, 0.01650628f, 
    0.19714129f, -0.01406760f, -0.12488039f, -0.02250241f, -0.17377900f, 0.06541692f, -0.00686620f, -0.02398559f, 
    0.18788740f, 0.10112794f, -0.05233359f, 0.03278888f, 0.07085828f, -0.03470410f, -0.14780623f, -0.19274522f, 
    -0.11819003f, -0.26147437f, 0.00657176f, 0.03239953f, 0.07764855f, 0.13846044f, -0.00935257f, -0.06977154f, 
    0.18344273f, 0.03464649f, -0.08587726f, 0.06994344f, 0.02256863f, 0.03056157f, 0.02005890f, -0.06644715f, 
    0.03935980f, -0.07834202f, 0.13461541f, 0.12238067f, 0.10786542f, -0.01794212f, -0.09902994f, 0.01694116f, 
    -0.17569366f, 0.11451510f, -0.23885149f, 0.14186171f, -0.02871286f, -0.07824466f, 0.10944882f, 0.07691976f, 
    -0.04358301f, -0.08109758f, -0.11439805f, 0.06344066f, -0.03543797f, 0.04502332f, -0.19188996f, -0.21791096f, 
    -0.03361065f, -0.02633169f, 0.11240894f, 0.29775819f, -0.06118942f, -0.16512980f, -0.01408842f, -0.12425754f, 
    0.05647477f, -0.08540098f, 0.20001468f, -0.04045607f, 0.16554797f, -0.11787442f, 0.04111565f, -0.04938558f, 
    -0.10562088f, -0.01613501f, 0.14472863f, 0.04038984f, -0.13895486f, 0.02914909f, 0.13206360f, -0.07879525f, 
    0.04931012f, -0.12564860f, -0.05539635f, 0.01863685f, -0.02652055f, 0.06531532f, -0.11736292f, -0.01814851f, 
    0.05525951f, 0.04409986f, -0.04940720f, -0.02475299f, -0.05335619f, -0.03491174f, 0.01138841f, 0.01041510f, 
    -0.03164848f, 0.02610772f, 0.15860856f, 0.03390247f, 0.13674223f, 0.00286984f, -0.08093248f, -0.06264613f, 
    -0.11371511f, 0.02388825f, -0.01145289f, 0.01159748f, -0.11377291f, -0.16881548f, -0.13954929f, -0.00377259f, 
    0.11492067f, -0.10881490f, -0.07392176f, -0.13744009f, 0.02890115f, -0.08159618f, -0.01075859f, 0.03466113f, 
    -0.07789795f, 0.12491944f, 0.20990245f, 0.07725675f, -0.12248760f, -0.00856537f, 0.03310432f, -0.08911608f
};

static const float weights_2[] = {
    0.12859809f, -0.00678300f, -0.04825241f, -0.04614004f, -0.02066637f, -0.00325486f, -0.00348112f, 0.01743751f, 
    -0.07099357f, 0.01156376f, 0.75374001f, 0.28017589f, 0.23322122f, 0.18439493f, -0.00660864f, -0.03119443f, 
    0.26453722f, 0.03089455f, 0.28814581f, -0.00297678f, -0.02575530f, 0.02657453f, 0.08870982f, -0.18509875f, 
    -0.01395573f, 0.33362141f, 0.39403930f, -0.01823428f, 0.03615283f, 0.05244758f, -0.03183067f, -0.02902014f, 
    0.00826319f, -0.26779708f, -0.00042313f, -0.04375298f, -0.03547829f, 0.01261492f, -0.03641325f, 0.00256295f, 
    -0.07212596f, -0.13218199f, -0.13345447f, -0.00367905f, 0.04450413f, 0.12844861f, 0.00333555f, -0.06140772f, 
    -0.08113964f, -0.00337624f, -0.07592499f, -0.02395199f, 0.09491839f, 0.03245212f, 0.01795262f, -0.13368133f, 
    0.00005110f, -0.21332738f, 0.16310604f, 0.00390452f, -0.00188766f, 0.02469651f, 0.01898815f, -0.00103033f, 
    0.02292990f, -0.19128036f, -0.05929546f, 0.03178764f, -0.00046446f, 0.00120009f, 0.00819872f, -0.12126909f, 
    0.02860348f, -0.00191613f, -0.07909430f, -0.00193954f, -0.07091683f, 0.08216532f, -0.07816775f, 0.00529929f, 
    -0.12269689f, 0.03395595f, 0.01519322f, -0.01387292f, -0.04274039f, 0.01781145f, 0.00795802f, 0.10587031f, 
    -0.01073175f, 0.48498097f, 0.08709656f, -0.00076573f, 0.01378912f, 0.04716666f, -0.01672816f, -0.00787767f, 
    -0.01870573f, -0.02562689f, -0.00755908f, 0.00324210f, -0.02154480f, -0.00177972f, -0.01490998f, 0.00270751f, 
    -0.01433843f, 0.15069816f, -0.12190466f, -0.00391162f, 0.04870847f, -0.08162039f, 0.04724607f, 0.02728439f, 
    -0.00203263f, -0.00642083f, 0.00882150f, 0.04938520f, 0.01478795f, -0.00697505f, -0.02088788f, -0.25582466f, 
    -0.01028822f, 0.16706628f, 0.04354934f, 0.00289877f, -0.00812957f, -0.01412382f, -0.02245028f, -0.04303654f, 
    0.20853394f, 0.07990951f, 0.18296772f, -0.00220046f, 0.00395952f, -0.01986431f, -0.00340055f, 0.33436081f, 
    -0.05201172f, 0.00114326f, 0.06801447f, -0.11052972f, -0.22258517f, -0.01014712f, 0.00402779f, 0.00266076f, 
    -0.02469165f, 0.00773714f, -0.16700351f, -0.00239159f, -0.16022711f, -0.00736382f, 0.01979243f, -0.05101059f, 
    0.01361759f, 0.00088385f, -0.03571456f, -0.01100457f, -0.17504084f, 0.00201660f, -0.01335149f, 0.00479889f, 
    0.00456914f, -0.07769392f, -0.00310947f, 0.01705034f, -0.02059132f, -0.01247917f, 0.01402284f, -0.01449639f, 
    -0.02137899f, -0.00594002f, -0.04933195f, -0.00457220f, -0.19253057f, 0.03027420f, -0.03590780f, -0.01258086f, 
    -0.08248276f, 0.00385584f, 0.03737536f, 0.10672110f, 0.05568955f, -0.00635393f, -0.03769417f, 0.10527144f, 
    0.00027471f, 0.11074849f, -0.00245095f, -0.00012303f, 0.01457398f, 0.00155476f, 0.00214782f, 0.00253579f, 
    -0.12787186f, 0.28359583f, -0.03221614f, 0.01631214f, 0.01121677f, -0.00204504f, 0.00431094f, -0.05597611f, 
    0.05554325f, 0.00566503f, -0.01444308f, 0.00921525f, 0.01941371f, -0.08283630f, 0.00734058f, -0.00108647f, 
    0.00343707f, -0.01281127f, 0.06168761f, -0.00211992f, 0.05945307f, 0.00498889f, 0.03696070f, 0.06443012f, 
    -0.00708697f, 0.06761659f, 0.02991787f, -0.00290144f, -0.10762618f, -0.02803702f, 0.06584451f, 0.00286305f, 
    0.00460529f, 0.04595303f, 0.00978512f, 0.01465168f, 0.00150182f, -0.00331378f, 0.00060499f, -0.01211354f, 
    -0.00373826f, 0.16736437f, -0.03900082f, 0.00327874f, 0.00072128f, 0.03471018f, -0.05518195f, 0.13106768f, 
    -0.04811018f, 0.00637668f, 0.05655477f, 0.02706941f, 0.00510082f, -0.01946046f, 0.08236335f, 0.02136124f, 
    -0.00697863f, 0.02019387f, 0.05741834f, 0.00163625f, 0.01143328f, 0.00004313f, -0.02910169f, -0.01170007f
};

static const float biases_0[] = {
    -0.06477117f, -0.22522885f, 0.14896575f, -0.40856537f, 0.40673983f, 0.33070287f, -0.08280749f, 0.10978057f, 0.19823529f, 0.13768920f, -0.04449129f, 0.17090057f, 0.13283533f, -0.01560676f, -0.28211242f, 0.96011680f, -0.04673913f, 0.39703119f, -0.22683921f, 0.12683769f, 0.02196781f, 0.24895456f, 0.09008498f, -0.01838708f, -0.11908372f, 0.23677954f, -0.30567831f, 0.18306099f, -0.08284954f, -0.22214125f, -0.27580112f, 0.08949273f, -0.04472220f, 0.12837458f, 0.02688208f, 0.30806199f, 0.42439395f, -0.07138541f, -0.06725068f, 0.01122880f, 0.43971285f, 0.03914518f, 0.13131614f, -0.22863699f, -0.22573192f, 0.23383440f, 0.09604131f, 0.35927740f, -0.00986440f, -0.07670816f, 0.74541676f, -0.23467933f, 0.17035884f, 0.02643404f, -0.03654573f, 0.03960834f, 0.09976104f, 0.03615583f, -0.16249079f, 0.00383733f, -0.16221783f, -0.10978000f, 0.39984789f, -0.17790025f
};

static const float biases_1[] = {
    -0.11714065f, 0.13783512f, 0.12990336f, 0.21029286f, -0.08561661f, -0.08368502f, -0.06570671f, -0.17476913f, -0.12073635f, -0.06409535f, 0.07502934f, -0.41660035f, 0.05001077f, -0.28269809f, -0.12645966f, -0.03749766f, -0.18483216f, 0.18307497f, -0.30486602f, -0.02787450f, -0.02001700f, 0.02634228f, 0.01163763f, 0.04290103f, -0.04447891f, 0.10472960f, -0.08677412f, 0.02441191f, -0.21992688f, -0.05360949f, 0.13565755f, -0.07839227f, 0.07647806f, 0.50737441f, 0.06744264f, 0.15670446f, -0.07332563f, 0.03248689f, 0.09816711f, -0.00642136f, 0.01402345f, 0.19395703f, 0.40133017f, 0.03918823f, -0.17061423f, -0.05030297f, 0.10805083f, -0.14031053f, 0.00990808f, -0.10755251f, -0.12214853f, 0.00486788f, 0.11686829f, 0.00959748f, 0.02208998f, 0.05927908f, -0.13417374f, 0.23821165f, -0.09259597f, -0.10975660f, 0.06660879f, -0.06400821f, 0.04099350f, 0.04921839f
};

static const float biases_2[] = {
    -0.27508739f, -0.03226616f, 0.12988405f, -0.05943461f
};

// Optimized CMSIS-based neural network functions
void policyLoadWeights(void);
void policyForward(const float* observations, float* actions);
void policyForwardRaw(const float* observations, float* actions);

#endif // POLICY_H
